digraph Tree {
node [shape=box] ;
0 [label="X[7] <= 64315.534\ngini = 0.345\nsamples = 20862\nvalue = [16243, 4619]"] ;
1 [label="X[0] <= 55.895\ngini = 0.347\nsamples = 20653\nvalue = [16036, 4617]"] ;
0 -> 1 [labeldistance=2.5, labelangle=45, headlabel="True"] ;
2 [label="X[20] <= 6868.998\ngini = 0.347\nsamples = 20648\nvalue = [16034, 4614]"] ;
1 -> 2 ;
3 [label="X[2] <= -72.644\ngini = 0.345\nsamples = 20580\nvalue = [16010, 4570]"] ;
2 -> 3 ;
4 [label="X[21] <= 12.178\ngini = 0.378\nsamples = 4604\nvalue = [3441, 1163]"] ;
3 -> 4 ;
5 [label="X[21] <= 6.105\ngini = 0.379\nsamples = 4577\nvalue = [3414, 1163]"] ;
4 -> 5 ;
6 [label="X[14] <= -167.21\ngini = 0.381\nsamples = 4535\nvalue = [3374, 1161]"] ;
5 -> 6 ;
7 [label="X[20] <= 2446.668\ngini = 0.276\nsamples = 145\nvalue = [121, 24]"] ;
6 -> 7 ;
8 [label="X[1] <= 2333.455\ngini = 0.262\nsamples = 142\nvalue = [120, 22]"] ;
7 -> 8 ;
9 [label="X[14] <= -171.633\ngini = 0.285\nsamples = 128\nvalue = [106, 22]"] ;
8 -> 9 ;
10 [label="X[20] <= 1757.002\ngini = 0.184\nsamples = 78\nvalue = [70, 8]"] ;
9 -> 10 ;
11 [label="X[20] <= 372.803\ngini = 0.186\nsamples = 77\nvalue = [69, 8]"] ;
10 -> 11 ;
12 [label="X[10] <= -168.771\ngini = 0.291\nsamples = 34\nvalue = [28, 6]"] ;
11 -> 12 ;
13 [label="gini = 0.0\nsamples = 2\nvalue = [0, 2]"] ;
12 -> 13 ;
14 [label="X[1] <= 168.949\ngini = 0.219\nsamples = 32\nvalue = [28, 4]"] ;
12 -> 14 ;
15 [label="X[2] <= -116.131\ngini = 0.105\nsamples = 18\nvalue = [17, 1]"] ;
14 -> 15 ;
16 [label="X[2] <= -175.495\ngini = 0.165\nsamples = 11\nvalue = [10, 1]"] ;
15 -> 16 ;
17 [label="X[7] <= 1578.076\ngini = 0.375\nsamples = 4\nvalue = [3, 1]"] ;
16 -> 17 ;
18 [label="gini = 0.0\nsamples = 1\nvalue = [0, 1]"] ;
17 -> 18 ;
19 [label="gini = 0.0\nsamples = 3\nvalue = [3, 0]"] ;
17 -> 19 ;
20 [label="gini = 0.0\nsamples = 7\nvalue = [7, 0]"] ;
16 -> 20 ;
21 [label="gini = 0.0\nsamples = 7\nvalue = [7, 0]"] ;
15 -> 21 ;
22 [label="X[1] <= 357.783\ngini = 0.337\nsamples = 14\nvalue = [11, 3]"] ;
14 -> 22 ;
23 [label="X[5] <= 648.257\ngini = 0.408\nsamples = 7\nvalue = [5, 2]"] ;
22 -> 23 ;
24 [label="X[21] <= 0.488\ngini = 0.5\nsamples = 4\nvalue = [2, 2]"] ;
23 -> 24 ;
25 [label="X[6] <= -122.549\ngini = 0.444\nsamples = 3\nvalue = [1, 2]"] ;
24 -> 25 ;
26 [label="gini = 0.0\nsamples = 1\nvalue = [0, 1]"] ;
25 -> 26 ;
27 [label="X[10] <= -114.018\ngini = 0.5\nsamples = 2\nvalue = [1, 1]"] ;
25 -> 27 ;
28 [label="gini = 0.0\nsamples = 1\nvalue = [1, 0]"] ;
27 -> 28 ;
29 [label="gini = 0.0\nsamples = 1\nvalue = [0, 1]"] ;
27 -> 29 ;
30 [label="gini = 0.0\nsamples = 1\nvalue = [1, 0]"] ;
24 -> 30 ;
31 [label="gini = 0.0\nsamples = 3\nvalue = [3, 0]"] ;
23 -> 31 ;
32 [label="X[3] <= 325156.767\ngini = 0.245\nsamples = 7\nvalue = [6, 1]"] ;
22 -> 32 ;
33 [label="X[15] <= 26600.813\ngini = 0.375\nsamples = 4\nvalue = [3, 1]"] ;
32 -> 33 ;
34 [label="X[13] <= 1293.001\ngini = 0.444\nsamples = 3\nvalue = [2, 1]"] ;
33 -> 34 ;
35 [label="gini = 0.0\nsamples = 2\nvalue = [2, 0]"] ;
34 -> 35 ;
36 [label="gini = 0.0\nsamples = 1\nvalue = [0, 1]"] ;
34 -> 36 ;
37 [label="gini = 0.0\nsamples = 1\nvalue = [1, 0]"] ;
33 -> 37 ;
38 [label="gini = 0.0\nsamples = 3\nvalue = [3, 0]"] ;
32 -> 38 ;
39 [label="X[3] <= 745865.611\ngini = 0.089\nsamples = 43\nvalue = [41, 2]"] ;
11 -> 39 ;
40 [label="X[13] <= 1809.333\ngini = 0.095\nsamples = 40\nvalue = [38, 2]"] ;
39 -> 40 ;
41 [label="X[3] <= 222232.836\ngini = 0.056\nsamples = 35\nvalue = [34, 1]"] ;
40 -> 41 ;
42 [label="X[3] <= 90760.102\ngini = 0.067\nsamples = 29\nvalue = [28, 1]"] ;
41 -> 42 ;
43 [label="X[10] <= -139.611\ngini = 0.124\nsamples = 15\nvalue = [14, 1]"] ;
42 -> 43 ;
44 [label="X[3] <= 1882.292\ngini = 0.444\nsamples = 3\nvalue = [2, 1]"] ;
43 -> 44 ;
45 [label="gini = 0.0\nsamples = 2\nvalue = [2, 0]"] ;
44 -> 45 ;
46 [label="gini = 0.0\nsamples = 1\nvalue = [0, 1]"] ;
44 -> 46 ;
47 [label="gini = 0.0\nsamples = 12\nvalue = [12, 0]"] ;
43 -> 47 ;
48 [label="gini = 0.0\nsamples = 14\nvalue = [14, 0]"] ;
42 -> 48 ;
49 [label="gini = 0.0\nsamples = 6\nvalue = [6, 0]"] ;
41 -> 49 ;
50 [label="X[18] <= 14.027\ngini = 0.32\nsamples = 5\nvalue = [4, 1]"] ;
40 -> 50 ;
51 [label="gini = 0.0\nsamples = 4\nvalue = [4, 0]"] ;
50 -> 51 ;
52 [label="gini = 0.0\nsamples = 1\nvalue = [0, 1]"] ;
50 -> 52 ;
53 [label="gini = 0.0\nsamples = 3\nvalue = [3, 0]"] ;
39 -> 53 ;
54 [label="gini = 0.0\nsamples = 1\nvalue = [1, 0]"] ;
10 -> 54 ;
55 [label="X[4] <= 4.572\ngini = 0.403\nsamples = 50\nvalue = [36, 14]"] ;
9 -> 55 ;
56 [label="X[22] <= 0.036\ngini = 0.39\nsamples = 49\nvalue = [36, 13]"] ;
55 -> 56 ;
57 [label="X[11] <= 4289.111\ngini = 0.395\nsamples = 48\nvalue = [35, 13]"] ;
56 -> 57 ;
58 [label="X[2] <= -80.069\ngini = 0.369\nsamples = 41\nvalue = [31, 10]"] ;
57 -> 58 ;
59 [label="X[20] <= 1734.265\ngini = 0.381\nsamples = 39\nvalue = [29, 10]"] ;
58 -> 59 ;
60 [label="X[23] <= 0.0\ngini = 0.339\nsamples = 37\nvalue = [29, 8]"] ;
59 -> 60 ;
61 [label="X[23] <= 0.0\ngini = 0.313\nsamples = 36\nvalue = [29, 7]"] ;
60 -> 61 ;
62 [label="X[13] <= 1271.747\ngini = 0.327\nsamples = 34\nvalue = [27, 7]"] ;
61 -> 62 ;
63 [label="X[9] <= 378.032\ngini = 0.365\nsamples = 25\nvalue = [19, 6]"] ;
62 -> 63 ;
64 [label="X[7] <= 7898.915\ngini = 0.298\nsamples = 11\nvalue = [9, 2]"] ;
63 -> 64 ;
65 [label="X[6] <= -97.486\ngini = 0.18\nsamples = 10\nvalue = [9, 1]"] ;
64 -> 65 ;
66 [label="gini = 0.0\nsamples = 5\nvalue = [5, 0]"] ;
65 -> 66 ;
67 [label="X[5] <= 519.373\ngini = 0.32\nsamples = 5\nvalue = [4, 1]"] ;
65 -> 67 ;
68 [label="gini = 0.0\nsamples = 4\nvalue = [4, 0]"] ;
67 -> 68 ;
69 [label="gini = 0.0\nsamples = 1\nvalue = [0, 1]"] ;
67 -> 69 ;
70 [label="gini = 0.0\nsamples = 1\nvalue = [0, 1]"] ;
64 -> 70 ;
71 [label="X[9] <= 444.586\ngini = 0.408\nsamples = 14\nvalue = [10, 4]"] ;
63 -> 71 ;
72 [label="gini = 0.0\nsamples = 2\nvalue = [2, 0]"] ;
71 -> 72 ;
73 [label="X[2] <= -129.19\ngini = 0.444\nsamples = 12\nvalue = [8, 4]"] ;
71 -> 73 ;
74 [label="gini = 0.0\nsamples = 5\nvalue = [5, 0]"] ;
73 -> 74 ;
75 [label="X[18] <= 0.773\ngini = 0.49\nsamples = 7\nvalue = [3, 4]"] ;
73 -> 75 ;
76 [label="X[17] <= 2477.997\ngini = 0.375\nsamples = 4\nvalue = [3, 1]"] ;
75 -> 76 ;
77 [label="gini = 0.0\nsamples = 2\nvalue = [2, 0]"] ;
76 -> 77 ;
78 [label="X[20] <= 515.42\ngini = 0.5\nsamples = 2\nvalue = [1, 1]"] ;
76 -> 78 ;
79 [label="gini = 0.0\nsamples = 1\nvalue = [1, 0]"] ;
78 -> 79 ;
80 [label="gini = 0.0\nsamples = 1\nvalue = [0, 1]"] ;
78 -> 80 ;
81 [label="gini = 0.0\nsamples = 3\nvalue = [0, 3]"] ;
75 -> 81 ;
82 [label="X[19] <= 1568.785\ngini = 0.198\nsamples = 9\nvalue = [8, 1]"] ;
62 -> 82 ;
83 [label="gini = 0.0\nsamples = 4\nvalue = [4, 0]"] ;
82 -> 83 ;
84 [label="X[6] <= -130.066\ngini = 0.32\nsamples = 5\nvalue = [4, 1]"] ;
82 -> 84 ;
85 [label="X[18] <= 130.752\ngini = 0.5\nsamples = 2\nvalue = [1, 1]"] ;
84 -> 85 ;
86 [label="gini = 0.0\nsamples = 1\nvalue = [0, 1]"] ;
85 -> 86 ;
87 [label="gini = 0.0\nsamples = 1\nvalue = [1, 0]"] ;
85 -> 87 ;
88 [label="gini = 0.0\nsamples = 3\nvalue = [3, 0]"] ;
84 -> 88 ;
89 [label="gini = 0.0\nsamples = 2\nvalue = [2, 0]"] ;
61 -> 89 ;
90 [label="gini = 0.0\nsamples = 1\nvalue = [0, 1]"] ;
60 -> 90 ;
91 [label="gini = 0.0\nsamples = 2\nvalue = [0, 2]"] ;
59 -> 91 ;
92 [label="gini = 0.0\nsamples = 2\nvalue = [2, 0]"] ;
58 -> 92 ;
93 [label="X[19] <= 3831.843\ngini = 0.49\nsamples = 7\nvalue = [4, 3]"] ;
57 -> 93 ;
94 [label="X[22] <= 0.005\ngini = 0.444\nsamples = 6\nvalue = [4, 2]"] ;
93 -> 94 ;
95 [label="X[3] <= 169636.46\ngini = 0.48\nsamples = 5\nvalue = [3, 2]"] ;
94 -> 95 ;
96 [label="X[5] <= 2677.792\ngini = 0.5\nsamples = 4\nvalue = [2, 2]"] ;
95 -> 96 ;
97 [label="X[20] <= 885.0\ngini = 0.444\nsamples = 3\nvalue = [2, 1]"] ;
96 -> 97 ;
98 [label="gini = 0.0\nsamples = 1\nvalue = [1, 0]"] ;
97 -> 98 ;
99 [label="X[9] <= 1149.051\ngini = 0.5\nsamples = 2\nvalue = [1, 1]"] ;
97 -> 99 ;
100 [label="gini = 0.0\nsamples = 1\nvalue = [1, 0]"] ;
99 -> 100 ;
101 [label="gini = 0.0\nsamples = 1\nvalue = [0, 1]"] ;
99 -> 101 ;
102 [label="gini = 0.0\nsamples = 1\nvalue = [0, 1]"] ;
96 -> 102 ;
103 [label="gini = 0.0\nsamples = 1\nvalue = [1, 0]"] ;
95 -> 103 ;
104 [label="gini = 0.0\nsamples = 1\nvalue = [1, 0]"] ;
94 -> 104 ;
105 [label="gini = 0.0\nsamples = 1\nvalue = [0, 1]"] ;
93 -> 105 ;
106 [label="gini = 0.0\nsamples = 1\nvalue = [1, 0]"] ;
56 -> 106 ;
107 [label="gini = 0.0\nsamples = 1\nvalue = [0, 1]"] ;
55 -> 107 ;
108 [label="gini = 0.0\nsamples = 14\nvalue = [14, 0]"] ;
8 -> 108 ;
109 [label="X[2] <= -174.377\ngini = 0.444\nsamples = 3\nvalue = [1, 2]"] ;
7 -> 109 ;
110 [label="gini = 0.0\nsamples = 1\nvalue = [0, 1]"] ;
109 -> 110 ;
111 [label="X[14] <= -177.814\ngini = 0.5\nsamples = 2\nvalue = [1, 1]"] ;
109 -> 111 ;
112 [label="gini = 0.0\nsamples = 1\nvalue = [1, 0]"] ;
111 -> 112 ;
113 [label="gini = 0.0\nsamples = 1\nvalue = [0, 1]"] ;
111 -> 113 ;
114 [label="X[1] <= 186.362\ngini = 0.384\nsamples = 4390\nvalue = [3253, 1137]"] ;
6 -> 114 ;
115 [label="X[20] <= 1975.634\ngini = 0.322\nsamples = 1597\nvalue = [1275, 322]"] ;
114 -> 115 ;
116 [label="X[12] <= 0.518\ngini = 0.309\nsamples = 1561\nvalue = [1263, 298]"] ;
115 -> 116 ;
117 [label="X[21] <= 1.396\ngini = 0.315\nsamples = 1500\nvalue = [1206, 294]"] ;
116 -> 117 ;
118 [label="X[17] <= 6184.14\ngini = 0.325\nsamples = 1390\nvalue = [1106, 284]"] ;
117 -> 118 ;
119 [label="X[9] <= 1228.595\ngini = 0.319\nsamples = 991\nvalue = [794, 197]"] ;
118 -> 119 ;
120 [label="X[9] <= 405.471\ngini = 0.308\nsamples = 948\nvalue = [768, 180]"] ;
119 -> 120 ;
121 [label="X[3] <= 972091.523\ngini = 0.256\nsamples = 618\nvalue = [525, 93]"] ;
120 -> 121 ;
122 [label="X[11] <= 24721.486\ngini = 0.259\nsamples = 608\nvalue = [515, 93]"] ;
121 -> 122 ;
123 [label="X[10] <= 132.806\ngini = 0.264\nsamples = 593\nvalue = [500, 93]"] ;
122 -> 123 ;
124 [label="X[13] <= 1145.741\ngini = 0.278\nsamples = 528\nvalue = [440, 88]"] ;
123 -> 124 ;
125 [label="X[17] <= 5458.925\ngini = 0.259\nsamples = 497\nvalue = [421, 76]"] ;
124 -> 125 ;
126 [label="X[1] <= 143.317\ngini = 0.27\nsamples = 466\nvalue = [391, 75]"] ;
125 -> 126 ;
127 [label="X[9] <= 204.795\ngini = 0.264\nsamples = 421\nvalue = [355, 66]"] ;
126 -> 127 ;
128 [label="X[14] <= -126.065\ngini = 0.219\nsamples = 271\nvalue = [237, 34]"] ;
127 -> 128 ;
129 [label="gini = 0.0\nsamples = 22\nvalue = [22, 0]"] ;
128 -> 129 ;
130 [label="X[9] <= 26.822\ngini = 0.236\nsamples = 249\nvalue = [215, 34]"] ;
128 -> 130 ;
131 [label="X[15] <= 18386.891\ngini = 0.356\nsamples = 69\nvalue = [53, 16]"] ;
130 -> 131 ;
132 [label="X[2] <= -137.193\ngini = 0.331\nsamples = 67\nvalue = [53, 14]"] ;
131 -> 132 ;
133 [label="X[6] <= -148.971\ngini = 0.405\nsamples = 39\nvalue = [28, 11]"] ;
132 -> 133 ;
134 [label="gini = 0.0\nsamples = 7\nvalue = [7, 0]"] ;
133 -> 134 ;
135 [label="X[18] <= 100.546\ngini = 0.451\nsamples = 32\nvalue = [21, 11]"] ;
133 -> 135 ;
136 [label="X[5] <= 566.553\ngini = 0.471\nsamples = 29\nvalue = [18, 11]"] ;
135 -> 136 ;
137 [label="X[23] <= 0.0\ngini = 0.397\nsamples = 22\nvalue = [16, 6]"] ;
136 -> 137 ;
138 [label="X[15] <= 13560.038\ngini = 0.363\nsamples = 21\nvalue = [16, 5]"] ;
137 -> 138 ;
139 [label="X[1] <= 62.18\ngini = 0.388\nsamples = 19\nvalue = [14, 5]"] ;
138 -> 139 ;
140 [label="X[5] <= 139.541\ngini = 0.444\nsamples = 12\nvalue = [8, 4]"] ;
139 -> 140 ;
141 [label="X[2] <= -152.152\ngini = 0.245\nsamples = 7\nvalue = [6, 1]"] ;
140 -> 141 ;
142 [label="X[7] <= 2585.913\ngini = 0.444\nsamples = 3\nvalue = [2, 1]"] ;
141 -> 142 ;
143 [label="gini = 0.0\nsamples = 2\nvalue = [2, 0]"] ;
142 -> 143 ;
144 [label="gini = 0.0\nsamples = 1\nvalue = [0, 1]"] ;
142 -> 144 ;
145 [label="gini = 0.0\nsamples = 4\nvalue = [4, 0]"] ;
141 -> 145 ;
146 [label="X[3] <= 52844.988\ngini = 0.48\nsamples = 5\nvalue = [2, 3]"] ;
140 -> 146 ;
147 [label="X[13] <= 274.525\ngini = 0.444\nsamples = 3\nvalue = [2, 1]"] ;
146 -> 147 ;
148 [label="gini = 0.0\nsamples = 1\nvalue = [0, 1]"] ;
147 -> 148 ;
149 [label="gini = 0.0\nsamples = 2\nvalue = [2, 0]"] ;
147 -> 149 ;
150 [label="gini = 0.0\nsamples = 2\nvalue = [0, 2]"] ;
146 -> 150 ;
151 [label="X[21] <= 0.416\ngini = 0.245\nsamples = 7\nvalue = [6, 1]"] ;
139 -> 151 ;
152 [label="gini = 0.0\nsamples = 2\nvalue = [2, 0]"] ;
151 -> 152 ;
153 [label="X[3] <= 337081.616\ngini = 0.32\nsamples = 5\nvalue = [4, 1]"] ;
151 -> 153 ;
154 [label="X[23] <= 0.0\ngini = 0.375\nsamples = 4\nvalue = [3, 1]"] ;
153 -> 154 ;
155 [label="gini = 0.0\nsamples = 3\nvalue = [3, 0]"] ;
154 -> 155 ;
156 [label="gini = 0.0\nsamples = 1\nvalue = [0, 1]"] ;
154 -> 156 ;
157 [label="gini = 0.0\nsamples = 1\nvalue = [1, 0]"] ;
153 -> 157 ;
158 [label="gini = 0.0\nsamples = 2\nvalue = [2, 0]"] ;
138 -> 158 ;
159 [label="gini = 0.0\nsamples = 1\nvalue = [0, 1]"] ;
137 -> 159 ;
160 [label="X[20] <= 877.589\ngini = 0.408\nsamples = 7\nvalue = [2, 5]"] ;
136 -> 160 ;
161 [label="X[1] <= 109.57\ngini = 0.5\nsamples = 4\nvalue = [2, 2]"] ;
160 -> 161 ;
162 [label="gini = 0.0\nsamples = 2\nvalue = [2, 0]"] ;
161 -> 162 ;
163 [label="gini = 0.0\nsamples = 2\nvalue = [0, 2]"] ;
161 -> 163 ;
164 [label="gini = 0.0\nsamples = 3\nvalue = [0, 3]"] ;
160 -> 164 ;
165 [label="gini = 0.0\nsamples = 3\nvalue = [3, 0]"] ;
135 -> 165 ;
166 [label="X[6] <= -48.561\ngini = 0.191\nsamples = 28\nvalue = [25, 3]"] ;
132 -> 166 ;
167 [label="X[6] <= -149.015\ngini = 0.32\nsamples = 10\nvalue = [8, 2]"] ;
166 -> 167 ;
168 [label="gini = 0.0\nsamples = 2\nvalue = [0, 2]"] ;
167 -> 168 ;
169 [label="gini = 0.0\nsamples = 8\nvalue = [8, 0]"] ;
167 -> 169 ;
170 [label="X[13] <= 28.691\ngini = 0.105\nsamples = 18\nvalue = [17, 1]"] ;
166 -> 170 ;
171 [label="gini = 0.0\nsamples = 3\nvalue = [3, 0]"] ;
170 -> 171 ;
172 [label="X[1] <= 10.787\ngini = 0.124\nsamples = 15\nvalue = [14, 1]"] ;
170 -> 172 ;
173 [label="gini = 0.0\nsamples = 5\nvalue = [5, 0]"] ;
172 -> 173 ;
174 [label="X[9] <= 8.182\ngini = 0.18\nsamples = 10\nvalue = [9, 1]"] ;
172 -> 174 ;
175 [label="X[20] <= 988.412\ngini = 0.245\nsamples = 7\nvalue = [6, 1]"] ;
174 -> 175 ;
176 [label="gini = 0.0\nsamples = 6\nvalue = [6, 0]"] ;
175 -> 176 ;
177 [label="gini = 0.0\nsamples = 1\nvalue = [0, 1]"] ;
175 -> 177 ;
178 [label="gini = 0.0\nsamples = 3\nvalue = [3, 0]"] ;
174 -> 178 ;
179 [label="gini = 0.0\nsamples = 2\nvalue = [0, 2]"] ;
131 -> 179 ;
180 [label="X[1] <= 55.042\ngini = 0.18\nsamples = 180\nvalue = [162, 18]"] ;
130 -> 180 ;
181 [label="X[2] <= -79.56\ngini = 0.117\nsamples = 96\nvalue = [90, 6]"] ;
180 -> 181 ;
182 [label="X[11] <= 12752.4\ngini = 0.103\nsamples = 92\nvalue = [87, 5]"] ;
181 -> 182 ;
183 [label="X[4] <= 0.628\ngini = 0.088\nsamples = 87\nvalue = [83, 4]"] ;
182 -> 183 ;
184 [label="X[3] <= 835617.2\ngini = 0.05\nsamples = 78\nvalue = [76, 2]"] ;
183 -> 184 ;
185 [label="X[10] <= -8.985\ngini = 0.052\nsamples = 75\nvalue = [73, 2]"] ;
184 -> 185 ;
186 [label="X[3] <= 98088.641\ngini = 0.045\nsamples = 43\nvalue = [42, 1]"] ;
185 -> 186 ;
187 [label="gini = 0.0\nsamples = 25\nvalue = [25, 0]"] ;
186 -> 187 ;
188 [label="X[17] <= 2535.823\ngini = 0.105\nsamples = 18\nvalue = [17, 1]"] ;
186 -> 188 ;
189 [label="X[20] <= 683.345\ngini = 0.133\nsamples = 14\nvalue = [13, 1]"] ;
188 -> 189 ;
190 [label="X[9] <= 129.026\ngini = 0.198\nsamples = 9\nvalue = [8, 1]"] ;
189 -> 190 ;
191 [label="X[9] <= 108.004\ngini = 0.32\nsamples = 5\nvalue = [4, 1]"] ;
190 -> 191 ;
192 [label="X[13] <= 326.76\ngini = 0.444\nsamples = 3\nvalue = [2, 1]"] ;
191 -> 192 ;
193 [label="gini = 0.0\nsamples = 2\nvalue = [2, 0]"] ;
192 -> 193 ;
194 [label="gini = 0.0\nsamples = 1\nvalue = [0, 1]"] ;
192 -> 194 ;
195 [label="gini = 0.0\nsamples = 2\nvalue = [2, 0]"] ;
191 -> 195 ;
196 [label="gini = 0.0\nsamples = 4\nvalue = [4, 0]"] ;
190 -> 196 ;
197 [label="gini = 0.0\nsamples = 5\nvalue = [5, 0]"] ;
189 -> 197 ;
198 [label="gini = 0.0\nsamples = 4\nvalue = [4, 0]"] ;
188 -> 198 ;
199 [label="X[2] <= -154.257\ngini = 0.061\nsamples = 32\nvalue = [31, 1]"] ;
185 -> 199 ;
200 [label="X[5] <= 506.199\ngini = 0.245\nsamples = 7\nvalue = [6, 1]"] ;
199 -> 200 ;
201 [label="gini = 0.0\nsamples = 6\nvalue = [6, 0]"] ;
200 -> 201 ;
202 [label="gini = 0.0\nsamples = 1\nvalue = [0, 1]"] ;
200 -> 202 ;
203 [label="gini = 0.0\nsamples = 25\nvalue = [25, 0]"] ;
199 -> 203 ;
204 [label="gini = 0.0\nsamples = 3\nvalue = [3, 0]"] ;
184 -> 204 ;
205 [label="X[20] <= 561.988\ngini = 0.346\nsamples = 9\nvalue = [7, 2]"] ;
183 -> 205 ;
206 [label="gini = 0.0\nsamples = 3\nvalue = [3, 0]"] ;
205 -> 206 ;
207 [label="X[3] <= 86986.726\ngini = 0.444\nsamples = 6\nvalue = [4, 2]"] ;
205 -> 207 ;
208 [label="gini = 0.0\nsamples = 3\nvalue = [3, 0]"] ;
207 -> 208 ;
209 [label="X[20] <= 912.293\ngini = 0.444\nsamples = 3\nvalue = [1, 2]"] ;
207 -> 209 ;
210 [label="gini = 0.0\nsamples = 1\nvalue = [1, 0]"] ;
209 -> 210 ;
211 [label="gini = 0.0\nsamples = 2\nvalue = [0, 2]"] ;
209 -> 211 ;
212 [label="X[15] <= 12056.502\ngini = 0.32\nsamples = 5\nvalue = [4, 1]"] ;
182 -> 212 ;
213 [label="X[20] <= 699.215\ngini = 0.5\nsamples = 2\nvalue = [1, 1]"] ;
212 -> 213 ;
214 [label="gini = 0.0\nsamples = 1\nvalue = [1, 0]"] ;
213 -> 214 ;
215 [label="gini = 0.0\nsamples = 1\nvalue = [0, 1]"] ;
213 -> 215 ;
216 [label="gini = 0.0\nsamples = 3\nvalue = [3, 0]"] ;
212 -> 216 ;
217 [label="X[17] <= 4161.72\ngini = 0.375\nsamples = 4\nvalue = [3, 1]"] ;
181 -> 217 ;
218 [label="gini = 0.0\nsamples = 3\nvalue = [3, 0]"] ;
217 -> 218 ;
219 [label="gini = 0.0\nsamples = 1\nvalue = [0, 1]"] ;
217 -> 219 ;
220 [label="X[21] <= 0.243\ngini = 0.245\nsamples = 84\nvalue = [72, 12]"] ;
180 -> 220 ;
221 [label="X[1] <= 77.108\ngini = 0.26\nsamples = 78\nvalue = [66, 12]"] ;
220 -> 221 ;
222 [label="X[18] <= 57.015\ngini = 0.142\nsamples = 26\nvalue = [24, 2]"] ;
221 -> 222 ;
223 [label="X[9] <= 115.847\ngini = 0.278\nsamples = 12\nvalue = [10, 2]"] ;
222 -> 223 ;
224 [label="gini = 0.0\nsamples = 3\nvalue = [3, 0]"] ;
223 -> 224 ;
225 [label="X[17] <= 2643.838\ngini = 0.346\nsamples = 9\nvalue = [7, 2]"] ;
223 -> 225 ;
226 [label="X[9] <= 124.675\ngini = 0.444\nsamples = 6\nvalue = [4, 2]"] ;
225 -> 226 ;
227 [label="gini = 0.0\nsamples = 1\nvalue = [1, 0]"] ;
226 -> 227 ;
228 [label="X[18] <= -82.61\ngini = 0.48\nsamples = 5\nvalue = [3, 2]"] ;
226 -> 228 ;
229 [label="X[19] <= 1263.678\ngini = 0.375\nsamples = 4\nvalue = [3, 1]"] ;
228 -> 229 ;
230 [label="X[7] <= 1669.402\ngini = 0.5\nsamples = 2\nvalue = [1, 1]"] ;
229 -> 230 ;
231 [label="gini = 0.0\nsamples = 1\nvalue = [1, 0]"] ;
230 -> 231 ;
232 [label="gini = 0.0\nsamples = 1\nvalue = [0, 1]"] ;
230 -> 232 ;
233 [label="gini = 0.0\nsamples = 2\nvalue = [2, 0]"] ;
229 -> 233 ;
234 [label="gini = 0.0\nsamples = 1\nvalue = [0, 1]"] ;
228 -> 234 ;
235 [label="gini = 0.0\nsamples = 3\nvalue = [3, 0]"] ;
225 -> 235 ;
236 [label="gini = 0.0\nsamples = 14\nvalue = [14, 0]"] ;
222 -> 236 ;
237 [label="X[19] <= 8328.577\ngini = 0.311\nsamples = 52\nvalue = [42, 10]"] ;
221 -> 237 ;
238 [label="X[7] <= 10944.175\ngini = 0.335\nsamples = 47\nvalue = [37, 10]"] ;
237 -> 238 ;
239 [label="X[15] <= 937.32\ngini = 0.32\nsamples = 45\nvalue = [36, 9]"] ;
238 -> 239 ;
240 [label="X[2] <= -147.238\ngini = 0.444\nsamples = 3\nvalue = [2, 1]"] ;
239 -> 240 ;
241 [label="gini = 0.0\nsamples = 1\nvalue = [0, 1]"] ;
240 -> 241 ;
242 [label="gini = 0.0\nsamples = 2\nvalue = [2, 0]"] ;
240 -> 242 ;
243 [label="X[19] <= 2752.581\ngini = 0.308\nsamples = 42\nvalue = [34, 8]"] ;
239 -> 243 ;
244 [label="X[9] <= 51.241\ngini = 0.434\nsamples = 22\nvalue = [15, 7]"] ;
243 -> 244 ;
245 [label="X[14] <= -80.458\ngini = 0.5\nsamples = 2\nvalue = [1, 1]"] ;
244 -> 245 ;
246 [label="gini = 0.0\nsamples = 1\nvalue = [1, 0]"] ;
245 -> 246 ;
247 [label="gini = 0.0\nsamples = 1\nvalue = [0, 1]"] ;
245 -> 247 ;
248 [label="X[19] <= 1668.09\ngini = 0.42\nsamples = 20\nvalue = [14, 6]"] ;
244 -> 248 ;
249 [label="X[5] <= 1008.991\ngini = 0.48\nsamples = 15\nvalue = [9, 6]"] ;
248 -> 249 ;
250 [label="X[14] <= 163.543\ngini = 0.497\nsamples = 13\nvalue = [7, 6]"] ;
249 -> 250 ;
251 [label="X[9] <= 97.278\ngini = 0.463\nsamples = 11\nvalue = [7, 4]"] ;
250 -> 251 ;
252 [label="X[11] <= 938.525\ngini = 0.444\nsamples = 6\nvalue = [2, 4]"] ;
251 -> 252 ;
253 [label="gini = 0.0\nsamples = 1\nvalue = [1, 0]"] ;
252 -> 253 ;
254 [label="X[5] <= 523.672\ngini = 0.32\nsamples = 5\nvalue = [1, 4]"] ;
252 -> 254 ;
255 [label="gini = 0.0\nsamples = 4\nvalue = [0, 4]"] ;
254 -> 255 ;
256 [label="gini = 0.0\nsamples = 1\nvalue = [1, 0]"] ;
254 -> 256 ;
257 [label="gini = 0.0\nsamples = 5\nvalue = [5, 0]"] ;
251 -> 257 ;
258 [label="gini = 0.0\nsamples = 2\nvalue = [0, 2]"] ;
250 -> 258 ;
259 [label="gini = 0.0\nsamples = 2\nvalue = [2, 0]"] ;
249 -> 259 ;
260 [label="gini = 0.0\nsamples = 5\nvalue = [5, 0]"] ;
248 -> 260 ;
261 [label="X[14] <= 5.656\ngini = 0.095\nsamples = 20\nvalue = [19, 1]"] ;
243 -> 261 ;
262 [label="X[14] <= -60.157\ngini = 0.219\nsamples = 8\nvalue = [7, 1]"] ;
261 -> 262 ;
263 [label="X[18] <= 97.874\ngini = 0.32\nsamples = 5\nvalue = [4, 1]"] ;
262 -> 263 ;
264 [label="gini = 0.0\nsamples = 4\nvalue = [4, 0]"] ;
263 -> 264 ;
265 [label="gini = 0.0\nsamples = 1\nvalue = [0, 1]"] ;
263 -> 265 ;
266 [label="gini = 0.0\nsamples = 3\nvalue = [3, 0]"] ;
262 -> 266 ;
267 [label="gini = 0.0\nsamples = 12\nvalue = [12, 0]"] ;
261 -> 267 ;
268 [label="X[11] <= 709.992\ngini = 0.5\nsamples = 2\nvalue = [1, 1]"] ;
238 -> 268 ;
269 [label="gini = 0.0\nsamples = 1\nvalue = [0, 1]"] ;
268 -> 269 ;
270 [label="gini = 0.0\nsamples = 1\nvalue = [1, 0]"] ;
268 -> 270 ;
271 [label="gini = 0.0\nsamples = 5\nvalue = [5, 0]"] ;
237 -> 271 ;
272 [label="gini = 0.0\nsamples = 6\nvalue = [6, 0]"] ;
220 -> 272 ;
273 [label="X[9] <= 336.297\ngini = 0.336\nsamples = 150\nvalue = [118, 32]"] ;
127 -> 273 ;
274 [label="X[18] <= 154.283\ngini = 0.314\nsamples = 113\nvalue = [91, 22]"] ;
273 -> 274 ;
275 [label="X[23] <= 0.0\ngini = 0.327\nsamples = 107\nvalue = [85, 22]"] ;
274 -> 275 ;
276 [label="X[1] <= 88.701\ngini = 0.318\nsamples = 106\nvalue = [85, 21]"] ;
275 -> 276 ;
277 [label="X[7] <= 4234.087\ngini = 0.281\nsamples = 77\nvalue = [64, 13]"] ;
276 -> 277 ;
278 [label="X[2] <= -101.115\ngini = 0.316\nsamples = 66\nvalue = [53, 13]"] ;
277 -> 278 ;
279 [label="X[13] <= 331.416\ngini = 0.268\nsamples = 44\nvalue = [37, 7]"] ;
278 -> 279 ;
280 [label="X[7] <= 1451.335\ngini = 0.117\nsamples = 16\nvalue = [15, 1]"] ;
279 -> 280 ;
281 [label="gini = 0.0\nsamples = 8\nvalue = [8, 0]"] ;
280 -> 281 ;
282 [label="X[11] <= 1573.403\ngini = 0.219\nsamples = 8\nvalue = [7, 1]"] ;
280 -> 282 ;
283 [label="gini = 0.0\nsamples = 1\nvalue = [0, 1]"] ;
282 -> 283 ;
284 [label="gini = 0.0\nsamples = 7\nvalue = [7, 0]"] ;
282 -> 284 ;
285 [label="X[14] <= -119.443\ngini = 0.337\nsamples = 28\nvalue = [22, 6]"] ;
279 -> 285 ;
286 [label="X[6] <= -0.865\ngini = 0.5\nsamples = 4\nvalue = [2, 2]"] ;
285 -> 286 ;
287 [label="gini = 0.0\nsamples = 2\nvalue = [0, 2]"] ;
286 -> 287 ;
288 [label="gini = 0.0\nsamples = 2\nvalue = [2, 0]"] ;
286 -> 288 ;
289 [label="X[17] <= 3438.386\ngini = 0.278\nsamples = 24\nvalue = [20, 4]"] ;
285 -> 289 ;
290 [label="gini = 0.0\nsamples = 15\nvalue = [15, 0]"] ;
289 -> 290 ;
291 [label="X[5] <= 275.757\ngini = 0.494\nsamples = 9\nvalue = [5, 4]"] ;
289 -> 291 ;
292 [label="X[2] <= -171.979\ngini = 0.5\nsamples = 8\nvalue = [4, 4]"] ;
291 -> 292 ;
293 [label="X[19] <= 2016.283\ngini = 0.375\nsamples = 4\nvalue = [1, 3]"] ;
292 -> 293 ;
294 [label="X[14] <= 36.418\ngini = 0.5\nsamples = 2\nvalue = [1, 1]"] ;
293 -> 294 ;
295 [label="gini = 0.0\nsamples = 1\nvalue = [0, 1]"] ;
294 -> 295 ;
296 [label="gini = 0.0\nsamples = 1\nvalue = [1, 0]"] ;
294 -> 296 ;
297 [label="gini = 0.0\nsamples = 2\nvalue = [0, 2]"] ;
293 -> 297 ;
298 [label="X[13] <= 801.244\ngini = 0.375\nsamples = 4\nvalue = [3, 1]"] ;
292 -> 298 ;
299 [label="gini = 0.0\nsamples = 3\nvalue = [3, 0]"] ;
298 -> 299 ;
300 [label="gini = 0.0\nsamples = 1\nvalue = [0, 1]"] ;
298 -> 300 ;
301 [label="gini = 0.0\nsamples = 1\nvalue = [1, 0]"] ;
291 -> 301 ;
302 [label="X[13] <= 554.773\ngini = 0.397\nsamples = 22\nvalue = [16, 6]"] ;
278 -> 302 ;
303 [label="X[6] <= -15.03\ngini = 0.231\nsamples = 15\nvalue = [13, 2]"] ;
302 -> 303 ;
304 [label="X[7] <= 1541.5\ngini = 0.346\nsamples = 9\nvalue = [7, 2]"] ;
303 -> 304 ;
305 [label="gini = 0.0\nsamples = 5\nvalue = [5, 0]"] ;
304 -> 305 ;
306 [label="X[10] <= 6.993\ngini = 0.5\nsamples = 4\nvalue = [2, 2]"] ;
304 -> 306 ;
307 [label="gini = 0.0\nsamples = 1\nvalue = [1, 0]"] ;
306 -> 307 ;
308 [label="X[3] <= 281286.75\ngini = 0.444\nsamples = 3\nvalue = [1, 2]"] ;
306 -> 308 ;
309 [label="gini = 0.0\nsamples = 2\nvalue = [0, 2]"] ;
308 -> 309 ;
310 [label="gini = 0.0\nsamples = 1\nvalue = [1, 0]"] ;
308 -> 310 ;
311 [label="gini = 0.0\nsamples = 6\nvalue = [6, 0]"] ;
303 -> 311 ;
312 [label="X[6] <= 36.315\ngini = 0.49\nsamples = 7\nvalue = [3, 4]"] ;
302 -> 312 ;
313 [label="X[18] <= -6.058\ngini = 0.444\nsamples = 6\nvalue = [2, 4]"] ;
312 -> 313 ;
314 [label="gini = 0.0\nsamples = 2\nvalue = [2, 0]"] ;
313 -> 314 ;
315 [label="gini = 0.0\nsamples = 4\nvalue = [0, 4]"] ;
313 -> 315 ;
316 [label="gini = 0.0\nsamples = 1\nvalue = [1, 0]"] ;
312 -> 316 ;
317 [label="gini = 0.0\nsamples = 11\nvalue = [11, 0]"] ;
277 -> 317 ;
318 [label="X[3] <= 133180.367\ngini = 0.4\nsamples = 29\nvalue = [21, 8]"] ;
276 -> 318 ;
319 [label="X[9] <= 308.384\ngini = 0.32\nsamples = 15\nvalue = [12, 3]"] ;
318 -> 319 ;
320 [label="gini = 0.0\nsamples = 11\nvalue = [11, 0]"] ;
319 -> 320 ;
321 [label="X[7] <= 1613.465\ngini = 0.375\nsamples = 4\nvalue = [1, 3]"] ;
319 -> 321 ;
322 [label="gini = 0.0\nsamples = 1\nvalue = [1, 0]"] ;
321 -> 322 ;
323 [label="gini = 0.0\nsamples = 3\nvalue = [0, 3]"] ;
321 -> 323 ;
324 [label="X[1] <= 96.664\ngini = 0.459\nsamples = 14\nvalue = [9, 5]"] ;
318 -> 324 ;
325 [label="gini = 0.0\nsamples = 2\nvalue = [0, 2]"] ;
324 -> 325 ;
326 [label="X[18] <= -1.209\ngini = 0.375\nsamples = 12\nvalue = [9, 3]"] ;
324 -> 326 ;
327 [label="X[17] <= 1125.006\ngini = 0.48\nsamples = 5\nvalue = [2, 3]"] ;
326 -> 327 ;
328 [label="gini = 0.0\nsamples = 3\nvalue = [0, 3]"] ;
327 -> 328 ;
329 [label="gini = 0.0\nsamples = 2\nvalue = [2, 0]"] ;
327 -> 329 ;
330 [label="gini = 0.0\nsamples = 7\nvalue = [7, 0]"] ;
326 -> 330 ;
331 [label="gini = 0.0\nsamples = 1\nvalue = [0, 1]"] ;
275 -> 331 ;
332 [label="gini = 0.0\nsamples = 6\nvalue = [6, 0]"] ;
274 -> 332 ;
333 [label="X[11] <= 5757.068\ngini = 0.394\nsamples = 37\nvalue = [27, 10]"] ;
273 -> 333 ;
334 [label="X[18] <= 9.8\ngini = 0.382\nsamples = 35\nvalue = [26, 9]"] ;
333 -> 334 ;
335 [label="X[7] <= 3223.52\ngini = 0.49\nsamples = 21\nvalue = [12, 9]"] ;
334 -> 335 ;
336 [label="X[15] <= 8069.388\ngini = 0.495\nsamples = 20\nvalue = [11, 9]"] ;
335 -> 336 ;
337 [label="X[17] <= 3226.988\ngini = 0.499\nsamples = 19\nvalue = [10, 9]"] ;
336 -> 337 ;
338 [label="X[23] <= 0.0\ngini = 0.486\nsamples = 12\nvalue = [5, 7]"] ;
337 -> 338 ;
339 [label="X[1] <= 4.325\ngini = 0.463\nsamples = 11\nvalue = [4, 7]"] ;
338 -> 339 ;
340 [label="gini = 0.0\nsamples = 2\nvalue = [0, 2]"] ;
339 -> 340 ;
341 [label="X[18] <= -6.399\ngini = 0.494\nsamples = 9\nvalue = [4, 5]"] ;
339 -> 341 ;
342 [label="X[17] <= 1153.24\ngini = 0.469\nsamples = 8\nvalue = [3, 5]"] ;
341 -> 342 ;
343 [label="gini = 0.0\nsamples = 1\nvalue = [0, 1]"] ;
342 -> 343 ;
344 [label="X[10] <= -112.453\ngini = 0.49\nsamples = 7\nvalue = [3, 4]"] ;
342 -> 344 ;
345 [label="gini = 0.0\nsamples = 3\nvalue = [3, 0]"] ;
344 -> 345 ;
346 [label="gini = 0.0\nsamples = 4\nvalue = [0, 4]"] ;
344 -> 346 ;
347 [label="gini = 0.0\nsamples = 1\nvalue = [1, 0]"] ;
341 -> 347 ;
348 [label="gini = 0.0\nsamples = 1\nvalue = [1, 0]"] ;
338 -> 348 ;
349 [label="X[7] <= 885.936\ngini = 0.408\nsamples = 7\nvalue = [5, 2]"] ;
337 -> 349 ;
350 [label="gini = 0.0\nsamples = 2\nvalue = [2, 0]"] ;
349 -> 350 ;
351 [label="X[9] <= 355.007\ngini = 0.48\nsamples = 5\nvalue = [3, 2]"] ;
349 -> 351 ;
352 [label="gini = 0.0\nsamples = 1\nvalue = [1, 0]"] ;
351 -> 352 ;
353 [label="X[20] <= 157.003\ngini = 0.5\nsamples = 4\nvalue = [2, 2]"] ;
351 -> 353 ;
354 [label="gini = 0.0\nsamples = 1\nvalue = [0, 1]"] ;
353 -> 354 ;
355 [label="X[1] <= 30.15\ngini = 0.444\nsamples = 3\nvalue = [2, 1]"] ;
353 -> 355 ;
356 [label="gini = 0.0\nsamples = 2\nvalue = [2, 0]"] ;
355 -> 356 ;
357 [label="gini = 0.0\nsamples = 1\nvalue = [0, 1]"] ;
355 -> 357 ;
358 [label="gini = 0.0\nsamples = 1\nvalue = [1, 0]"] ;
336 -> 358 ;
359 [label="gini = 0.0\nsamples = 1\nvalue = [1, 0]"] ;
335 -> 359 ;
360 [label="gini = 0.0\nsamples = 14\nvalue = [14, 0]"] ;
334 -> 360 ;
361 [label="X[6] <= -3.478\ngini = 0.5\nsamples = 2\nvalue = [1, 1]"] ;
333 -> 361 ;
362 [label="gini = 0.0\nsamples = 1\nvalue = [0, 1]"] ;
361 -> 362 ;
363 [label="gini = 0.0\nsamples = 1\nvalue = [1, 0]"] ;
361 -> 363 ;
364 [label="X[23] <= 0.0\ngini = 0.32\nsamples = 45\nvalue = [36, 9]"] ;
126 -> 364 ;
365 [label="X[14] <= -127.045\ngini = 0.337\nsamples = 42\nvalue = [33, 9]"] ;
364 -> 365 ;
366 [label="gini = 0.0\nsamples = 8\nvalue = [8, 0]"] ;
365 -> 366 ;
367 [label="X[11] <= 16337.269\ngini = 0.389\nsamples = 34\nvalue = [25, 9]"] ;
365 -> 367 ;
368 [label="X[19] <= 4265.829\ngini = 0.367\nsamples = 33\nvalue = [25, 8]"] ;
367 -> 368 ;
369 [label="X[6] <= -9.908\ngini = 0.435\nsamples = 25\nvalue = [17, 8]"] ;
368 -> 369 ;
370 [label="X[9] <= 39.9\ngini = 0.346\nsamples = 18\nvalue = [14, 4]"] ;
369 -> 370 ;
371 [label="gini = 0.0\nsamples = 2\nvalue = [2, 0]"] ;
370 -> 371 ;
372 [label="X[17] <= 3231.353\ngini = 0.375\nsamples = 16\nvalue = [12, 4]"] ;
370 -> 372 ;
373 [label="X[6] <= -44.922\ngini = 0.463\nsamples = 11\nvalue = [7, 4]"] ;
372 -> 373 ;
374 [label="X[10] <= 73.061\ngini = 0.346\nsamples = 9\nvalue = [7, 2]"] ;
373 -> 374 ;
375 [label="X[3] <= 449313.796\ngini = 0.408\nsamples = 7\nvalue = [5, 2]"] ;
374 -> 375 ;
376 [label="X[13] <= 638.339\ngini = 0.48\nsamples = 5\nvalue = [3, 2]"] ;
375 -> 376 ;
377 [label="X[19] <= 2559.29\ngini = 0.5\nsamples = 4\nvalue = [2, 2]"] ;
376 -> 377 ;
378 [label="gini = 0.0\nsamples = 2\nvalue = [0, 2]"] ;
377 -> 378 ;
379 [label="gini = 0.0\nsamples = 2\nvalue = [2, 0]"] ;
377 -> 379 ;
380 [label="gini = 0.0\nsamples = 1\nvalue = [1, 0]"] ;
376 -> 380 ;
381 [label="gini = 0.0\nsamples = 2\nvalue = [2, 0]"] ;
375 -> 381 ;
382 [label="gini = 0.0\nsamples = 2\nvalue = [2, 0]"] ;
374 -> 382 ;
383 [label="gini = 0.0\nsamples = 2\nvalue = [0, 2]"] ;
373 -> 383 ;
384 [label="gini = 0.0\nsamples = 5\nvalue = [5, 0]"] ;
372 -> 384 ;
385 [label="X[15] <= 11531.121\ngini = 0.49\nsamples = 7\nvalue = [3, 4]"] ;
369 -> 385 ;
386 [label="X[19] <= 2516.169\ngini = 0.444\nsamples = 6\nvalue = [2, 4]"] ;
385 -> 386 ;
387 [label="X[6] <= 99.234\ngini = 0.32\nsamples = 5\nvalue = [1, 4]"] ;
386 -> 387 ;
388 [label="X[18] <= -108.99\ngini = 0.444\nsamples = 3\nvalue = [1, 2]"] ;
387 -> 388 ;
389 [label="gini = 0.0\nsamples = 2\nvalue = [0, 2]"] ;
388 -> 389 ;
390 [label="gini = 0.0\nsamples = 1\nvalue = [1, 0]"] ;
388 -> 390 ;
391 [label="gini = 0.0\nsamples = 2\nvalue = [0, 2]"] ;
387 -> 391 ;
392 [label="gini = 0.0\nsamples = 1\nvalue = [1, 0]"] ;
386 -> 392 ;
393 [label="gini = 0.0\nsamples = 1\nvalue = [1, 0]"] ;
385 -> 393 ;
394 [label="gini = 0.0\nsamples = 8\nvalue = [8, 0]"] ;
368 -> 394 ;
395 [label="gini = 0.0\nsamples = 1\nvalue = [0, 1]"] ;
367 -> 395 ;
396 [label="gini = 0.0\nsamples = 3\nvalue = [3, 0]"] ;
364 -> 396 ;
397 [label="X[3] <= 360450.446\ngini = 0.062\nsamples = 31\nvalue = [30, 1]"] ;
125 -> 397 ;
398 [label="X[8] <= 0.277\ngini = 0.091\nsamples = 21\nvalue = [20, 1]"] ;
397 -> 398 ;
399 [label="gini = 0.0\nsamples = 20\nvalue = [20, 0]"] ;
398 -> 399 ;
400 [label="gini = 0.0\nsamples = 1\nvalue = [0, 1]"] ;
398 -> 400 ;
401 [label="gini = 0.0\nsamples = 10\nvalue = [10, 0]"] ;
397 -> 401 ;
402 [label="X[13] <= 2211.401\ngini = 0.475\nsamples = 31\nvalue = [19, 12]"] ;
124 -> 402 ;
403 [label="X[3] <= 133877.701\ngini = 0.48\nsamples = 30\nvalue = [18, 12]"] ;
402 -> 403 ;
404 [label="X[1] <= 177.162\ngini = 0.475\nsamples = 18\nvalue = [7, 11]"] ;
403 -> 404 ;
405 [label="X[7] <= 7171.056\ngini = 0.457\nsamples = 17\nvalue = [6, 11]"] ;
404 -> 405 ;
406 [label="X[7] <= 1502.4\ngini = 0.43\nsamples = 16\nvalue = [5, 11]"] ;
405 -> 406 ;
407 [label="X[18] <= -126.402\ngini = 0.298\nsamples = 11\nvalue = [2, 9]"] ;
406 -> 407 ;
408 [label="X[1] <= 147.698\ngini = 0.198\nsamples = 9\nvalue = [1, 8]"] ;
407 -> 408 ;
409 [label="X[1] <= 24.889\ngini = 0.219\nsamples = 8\nvalue = [1, 7]"] ;
408 -> 409 ;
410 [label="gini = 0.0\nsamples = 1\nvalue = [1, 0]"] ;
409 -> 410 ;
411 [label="gini = 0.0\nsamples = 7\nvalue = [0, 7]"] ;
409 -> 411 ;
412 [label="gini = 0.0\nsamples = 1\nvalue = [0, 1]"] ;
408 -> 412 ;
413 [label="X[6] <= -70.614\ngini = 0.5\nsamples = 2\nvalue = [1, 1]"] ;
407 -> 413 ;
414 [label="gini = 0.0\nsamples = 1\nvalue = [0, 1]"] ;
413 -> 414 ;
415 [label="gini = 0.0\nsamples = 1\nvalue = [1, 0]"] ;
413 -> 415 ;
416 [label="X[11] <= 3409.415\ngini = 0.48\nsamples = 5\nvalue = [3, 2]"] ;
406 -> 416 ;
417 [label="X[11] <= 929.406\ngini = 0.5\nsamples = 4\nvalue = [2, 2]"] ;
416 -> 417 ;
418 [label="gini = 0.0\nsamples = 1\nvalue = [1, 0]"] ;
417 -> 418 ;
419 [label="X[18] <= 92.89\ngini = 0.444\nsamples = 3\nvalue = [1, 2]"] ;
417 -> 419 ;
420 [label="gini = 0.0\nsamples = 2\nvalue = [0, 2]"] ;
419 -> 420 ;
421 [label="gini = 0.0\nsamples = 1\nvalue = [1, 0]"] ;
419 -> 421 ;
422 [label="gini = 0.0\nsamples = 1\nvalue = [1, 0]"] ;
416 -> 422 ;
423 [label="gini = 0.0\nsamples = 1\nvalue = [1, 0]"] ;
405 -> 423 ;
424 [label="gini = 0.0\nsamples = 1\nvalue = [1, 0]"] ;
404 -> 424 ;
425 [label="X[18] <= -25.709\ngini = 0.153\nsamples = 12\nvalue = [11, 1]"] ;
403 -> 425 ;
426 [label="X[15] <= 1513.867\ngini = 0.444\nsamples = 3\nvalue = [2, 1]"] ;
425 -> 426 ;
427 [label="gini = 0.0\nsamples = 2\nvalue = [2, 0]"] ;
426 -> 427 ;
428 [label="gini = 0.0\nsamples = 1\nvalue = [0, 1]"] ;
426 -> 428 ;
429 [label="gini = 0.0\nsamples = 9\nvalue = [9, 0]"] ;
425 -> 429 ;
430 [label="gini = 0.0\nsamples = 1\nvalue = [1, 0]"] ;
402 -> 430 ;
431 [label="X[14] <= 93.363\ngini = 0.142\nsamples = 65\nvalue = [60, 5]"] ;
123 -> 431 ;
432 [label="X[17] <= 1715.788\ngini = 0.187\nsamples = 48\nvalue = [43, 5]"] ;
431 -> 432 ;
433 [label="X[2] <= -162.859\ngini = 0.332\nsamples = 19\nvalue = [15, 4]"] ;
432 -> 433 ;
434 [label="gini = 0.0\nsamples = 1\nvalue = [0, 1]"] ;
433 -> 434 ;
435 [label="X[11] <= 875.185\ngini = 0.278\nsamples = 18\nvalue = [15, 3]"] ;
433 -> 435 ;
436 [label="gini = 0.0\nsamples = 4\nvalue = [4, 0]"] ;
435 -> 436 ;
437 [label="X[20] <= 1114.479\ngini = 0.337\nsamples = 14\nvalue = [11, 3]"] ;
435 -> 437 ;
438 [label="X[3] <= 110515.677\ngini = 0.153\nsamples = 12\nvalue = [11, 1]"] ;
437 -> 438 ;
439 [label="gini = 0.0\nsamples = 8\nvalue = [8, 0]"] ;
438 -> 439 ;
440 [label="X[18] <= 0.52\ngini = 0.375\nsamples = 4\nvalue = [3, 1]"] ;
438 -> 440 ;
441 [label="gini = 0.0\nsamples = 2\nvalue = [2, 0]"] ;
440 -> 441 ;
442 [label="X[9] <= 254.32\ngini = 0.5\nsamples = 2\nvalue = [1, 1]"] ;
440 -> 442 ;
443 [label="gini = 0.0\nsamples = 1\nvalue = [1, 0]"] ;
442 -> 443 ;
444 [label="gini = 0.0\nsamples = 1\nvalue = [0, 1]"] ;
442 -> 444 ;
445 [label="gini = 0.0\nsamples = 2\nvalue = [0, 2]"] ;
437 -> 445 ;
446 [label="X[9] <= 287.324\ngini = 0.067\nsamples = 29\nvalue = [28, 1]"] ;
432 -> 446 ;
447 [label="X[22] <= 0.006\ngini = 0.091\nsamples = 21\nvalue = [20, 1]"] ;
446 -> 447 ;
448 [label="gini = 0.0\nsamples = 20\nvalue = [20, 0]"] ;
447 -> 448 ;
449 [label="gini = 0.0\nsamples = 1\nvalue = [0, 1]"] ;
447 -> 449 ;
450 [label="gini = 0.0\nsamples = 8\nvalue = [8, 0]"] ;
446 -> 450 ;
451 [label="gini = 0.0\nsamples = 17\nvalue = [17, 0]"] ;
431 -> 451 ;
452 [label="gini = 0.0\nsamples = 15\nvalue = [15, 0]"] ;
122 -> 452 ;
453 [label="gini = 0.0\nsamples = 10\nvalue = [10, 0]"] ;
121 -> 453 ;
454 [label="X[20] <= 956.449\ngini = 0.388\nsamples = 330\nvalue = [243, 87]"] ;
120 -> 454 ;
455 [label="X[14] <= -102.717\ngini = 0.347\nsamples = 269\nvalue = [209, 60]"] ;
454 -> 455 ;
456 [label="X[13] <= 1347.645\ngini = 0.266\nsamples = 57\nvalue = [48, 9]"] ;
455 -> 456 ;
457 [label="X[3] <= 246700.078\ngini = 0.252\nsamples = 54\nvalue = [46, 8]"] ;
456 -> 457 ;
458 [label="X[1] <= 69.813\ngini = 0.223\nsamples = 47\nvalue = [41, 6]"] ;
457 -> 458 ;
459 [label="gini = 0.0\nsamples = 23\nvalue = [23, 0]"] ;
458 -> 459 ;
460 [label="X[10] <= 0.541\ngini = 0.375\nsamples = 24\nvalue = [18, 6]"] ;
458 -> 460 ;
461 [label="X[7] <= 14882.113\ngini = 0.444\nsamples = 9\nvalue = [6, 3]"] ;
460 -> 461 ;
462 [label="X[7] <= 2960.223\ngini = 0.469\nsamples = 8\nvalue = [5, 3]"] ;
461 -> 462 ;
463 [label="X[14] <= -134.089\ngini = 0.49\nsamples = 7\nvalue = [4, 3]"] ;
462 -> 463 ;
464 [label="gini = 0.0\nsamples = 2\nvalue = [2, 0]"] ;
463 -> 464 ;
465 [label="X[17] <= 938.918\ngini = 0.48\nsamples = 5\nvalue = [2, 3]"] ;
463 -> 465 ;
466 [label="gini = 0.0\nsamples = 3\nvalue = [0, 3]"] ;
465 -> 466 ;
467 [label="gini = 0.0\nsamples = 2\nvalue = [2, 0]"] ;
465 -> 467 ;
468 [label="gini = 0.0\nsamples = 1\nvalue = [1, 0]"] ;
462 -> 468 ;
469 [label="gini = 0.0\nsamples = 1\nvalue = [1, 0]"] ;
461 -> 469 ;
470 [label="X[3] <= 19871.66\ngini = 0.32\nsamples = 15\nvalue = [12, 3]"] ;
460 -> 470 ;
471 [label="X[15] <= 19750.218\ngini = 0.444\nsamples = 9\nvalue = [6, 3]"] ;
470 -> 471 ;
472 [label="X[2] <= -105.151\ngini = 0.469\nsamples = 8\nvalue = [5, 3]"] ;
471 -> 472 ;
473 [label="gini = 0.0\nsamples = 5\nvalue = [5, 0]"] ;
472 -> 473 ;
474 [label="gini = 0.0\nsamples = 3\nvalue = [0, 3]"] ;
472 -> 474 ;
475 [label="gini = 0.0\nsamples = 1\nvalue = [1, 0]"] ;
471 -> 475 ;
476 [label="gini = 0.0\nsamples = 6\nvalue = [6, 0]"] ;
470 -> 476 ;
477 [label="X[14] <= -139.218\ngini = 0.408\nsamples = 7\nvalue = [5, 2]"] ;
457 -> 477 ;
478 [label="X[15] <= 5054.284\ngini = 0.5\nsamples = 4\nvalue = [2, 2]"] ;
477 -> 478 ;
479 [label="X[5] <= 120.212\ngini = 0.444\nsamples = 3\nvalue = [1, 2]"] ;
478 -> 479 ;
480 [label="gini = 0.0\nsamples = 2\nvalue = [0, 2]"] ;
479 -> 480 ;
481 [label="gini = 0.0\nsamples = 1\nvalue = [1, 0]"] ;
479 -> 481 ;
482 [label="gini = 0.0\nsamples = 1\nvalue = [1, 0]"] ;
478 -> 482 ;
483 [label="gini = 0.0\nsamples = 3\nvalue = [3, 0]"] ;
477 -> 483 ;
484 [label="X[20] <= 781.7\ngini = 0.444\nsamples = 3\nvalue = [2, 1]"] ;
456 -> 484 ;
485 [label="gini = 0.0\nsamples = 1\nvalue = [0, 1]"] ;
484 -> 485 ;
486 [label="gini = 0.0\nsamples = 2\nvalue = [2, 0]"] ;
484 -> 486 ;
487 [label="X[3] <= 1091785.766\ngini = 0.365\nsamples = 212\nvalue = [161, 51]"] ;
455 -> 487 ;
488 [label="X[17] <= 1735.496\ngini = 0.36\nsamples = 208\nvalue = [159, 49]"] ;
487 -> 488 ;
489 [label="X[10] <= 5.246\ngini = 0.43\nsamples = 64\nvalue = [44, 20]"] ;
488 -> 489 ;
490 [label="X[6] <= -145.622\ngini = 0.388\nsamples = 38\nvalue = [28, 10]"] ;
489 -> 490 ;
491 [label="X[15] <= 15123.852\ngini = 0.5\nsamples = 6\nvalue = [3, 3]"] ;
490 -> 491 ;
492 [label="X[15] <= 2049.891\ngini = 0.48\nsamples = 5\nvalue = [2, 3]"] ;
491 -> 492 ;
493 [label="gini = 0.0\nsamples = 2\nvalue = [0, 2]"] ;
492 -> 493 ;
494 [label="X[10] <= -136.188\ngini = 0.444\nsamples = 3\nvalue = [2, 1]"] ;
492 -> 494 ;
495 [label="gini = 0.0\nsamples = 1\nvalue = [1, 0]"] ;
494 -> 495 ;
496 [label="X[18] <= -76.333\ngini = 0.5\nsamples = 2\nvalue = [1, 1]"] ;
494 -> 496 ;
497 [label="gini = 0.0\nsamples = 1\nvalue = [1, 0]"] ;
496 -> 497 ;
498 [label="gini = 0.0\nsamples = 1\nvalue = [0, 1]"] ;
496 -> 498 ;
499 [label="gini = 0.0\nsamples = 1\nvalue = [1, 0]"] ;
491 -> 499 ;
500 [label="X[20] <= 493.516\ngini = 0.342\nsamples = 32\nvalue = [25, 7]"] ;
490 -> 500 ;
501 [label="X[14] <= 13.631\ngini = 0.117\nsamples = 16\nvalue = [15, 1]"] ;
500 -> 501 ;
502 [label="X[2] <= -148.289\ngini = 0.18\nsamples = 10\nvalue = [9, 1]"] ;
501 -> 502 ;
503 [label="gini = 0.0\nsamples = 1\nvalue = [1, 0]"] ;
502 -> 503 ;
504 [label="X[3] <= 195877.788\ngini = 0.198\nsamples = 9\nvalue = [8, 1]"] ;
502 -> 504 ;
505 [label="X[14] <= -36.995\ngini = 0.278\nsamples = 6\nvalue = [5, 1]"] ;
504 -> 505 ;
506 [label="gini = 0.0\nsamples = 4\nvalue = [4, 0]"] ;
505 -> 506 ;
507 [label="X[13] <= 1434.134\ngini = 0.5\nsamples = 2\nvalue = [1, 1]"] ;
505 -> 507 ;
508 [label="gini = 0.0\nsamples = 1\nvalue = [1, 0]"] ;
507 -> 508 ;
509 [label="gini = 0.0\nsamples = 1\nvalue = [0, 1]"] ;
507 -> 509 ;
510 [label="gini = 0.0\nsamples = 3\nvalue = [3, 0]"] ;
504 -> 510 ;
511 [label="gini = 0.0\nsamples = 6\nvalue = [6, 0]"] ;
501 -> 511 ;
512 [label="X[11] <= 27787.391\ngini = 0.469\nsamples = 16\nvalue = [10, 6]"] ;
500 -> 512 ;
513 [label="X[11] <= 13945.684\ngini = 0.49\nsamples = 14\nvalue = [8, 6]"] ;
512 -> 513 ;
514 [label="X[20] <= 550.058\ngini = 0.473\nsamples = 13\nvalue = [8, 5]"] ;
513 -> 514 ;
515 [label="X[19] <= 1903.87\ngini = 0.375\nsamples = 4\nvalue = [1, 3]"] ;
514 -> 515 ;
516 [label="X[18] <= -43.037\ngini = 0.5\nsamples = 2\nvalue = [1, 1]"] ;
515 -> 516 ;
517 [label="gini = 0.0\nsamples = 1\nvalue = [1, 0]"] ;
516 -> 517 ;
518 [label="gini = 0.0\nsamples = 1\nvalue = [0, 1]"] ;
516 -> 518 ;
519 [label="gini = 0.0\nsamples = 2\nvalue = [0, 2]"] ;
515 -> 519 ;
520 [label="X[9] <= 455.172\ngini = 0.346\nsamples = 9\nvalue = [7, 2]"] ;
514 -> 520 ;
521 [label="gini = 0.0\nsamples = 2\nvalue = [2, 0]"] ;
520 -> 521 ;
522 [label="X[13] <= 1106.205\ngini = 0.408\nsamples = 7\nvalue = [5, 2]"] ;
520 -> 522 ;
523 [label="X[15] <= 8054.802\ngini = 0.444\nsamples = 6\nvalue = [4, 2]"] ;
522 -> 523 ;
524 [label="X[10] <= -113.148\ngini = 0.32\nsamples = 5\nvalue = [4, 1]"] ;
523 -> 524 ;
525 [label="gini = 0.0\nsamples = 3\nvalue = [3, 0]"] ;
524 -> 525 ;
526 [label="X[3] <= 127430.053\ngini = 0.5\nsamples = 2\nvalue = [1, 1]"] ;
524 -> 526 ;
527 [label="gini = 0.0\nsamples = 1\nvalue = [0, 1]"] ;
526 -> 527 ;
528 [label="gini = 0.0\nsamples = 1\nvalue = [1, 0]"] ;
526 -> 528 ;
529 [label="gini = 0.0\nsamples = 1\nvalue = [0, 1]"] ;
523 -> 529 ;
530 [label="gini = 0.0\nsamples = 1\nvalue = [1, 0]"] ;
522 -> 530 ;
531 [label="gini = 0.0\nsamples = 1\nvalue = [0, 1]"] ;
513 -> 531 ;
532 [label="gini = 0.0\nsamples = 2\nvalue = [2, 0]"] ;
512 -> 532 ;
533 [label="X[3] <= 214979.804\ngini = 0.473\nsamples = 26\nvalue = [16, 10]"] ;
489 -> 533 ;
534 [label="X[15] <= 2158.197\ngini = 0.455\nsamples = 20\nvalue = [13, 7]"] ;
533 -> 534 ;
535 [label="X[6] <= 93.498\ngini = 0.245\nsamples = 7\nvalue = [6, 1]"] ;
534 -> 535 ;
536 [label="X[20] <= 352.258\ngini = 0.375\nsamples = 4\nvalue = [3, 1]"] ;
535 -> 536 ;
537 [label="gini = 0.0\nsamples = 3\nvalue = [3, 0]"] ;
536 -> 537 ;
538 [label="gini = 0.0\nsamples = 1\nvalue = [0, 1]"] ;
536 -> 538 ;
539 [label="gini = 0.0\nsamples = 3\nvalue = [3, 0]"] ;
535 -> 539 ;
540 [label="X[6] <= -143.522\ngini = 0.497\nsamples = 13\nvalue = [7, 6]"] ;
534 -> 540 ;
541 [label="gini = 0.0\nsamples = 1\nvalue = [1, 0]"] ;
540 -> 541 ;
542 [label="X[13] <= 1110.427\ngini = 0.5\nsamples = 12\nvalue = [6, 6]"] ;
540 -> 542 ;
543 [label="X[19] <= 4194.282\ngini = 0.48\nsamples = 10\nvalue = [6, 4]"] ;
542 -> 543 ;
544 [label="X[19] <= 2112.425\ngini = 0.444\nsamples = 6\nvalue = [2, 4]"] ;
543 -> 544 ;
545 [label="X[19] <= 1259.814\ngini = 0.5\nsamples = 4\nvalue = [2, 2]"] ;
544 -> 545 ;
546 [label="X[18] <= 64.244\ngini = 0.444\nsamples = 3\nvalue = [1, 2]"] ;
545 -> 546 ;
547 [label="gini = 0.0\nsamples = 2\nvalue = [0, 2]"] ;
546 -> 547 ;
548 [label="gini = 0.0\nsamples = 1\nvalue = [1, 0]"] ;
546 -> 548 ;
549 [label="gini = 0.0\nsamples = 1\nvalue = [1, 0]"] ;
545 -> 549 ;
550 [label="gini = 0.0\nsamples = 2\nvalue = [0, 2]"] ;
544 -> 550 ;
551 [label="gini = 0.0\nsamples = 4\nvalue = [4, 0]"] ;
543 -> 551 ;
552 [label="gini = 0.0\nsamples = 2\nvalue = [0, 2]"] ;
542 -> 552 ;
553 [label="X[7] <= 1419.417\ngini = 0.5\nsamples = 6\nvalue = [3, 3]"] ;
533 -> 553 ;
554 [label="X[11] <= 9231.554\ngini = 0.375\nsamples = 4\nvalue = [3, 1]"] ;
553 -> 554 ;
555 [label="X[20] <= 180.731\ngini = 0.5\nsamples = 2\nvalue = [1, 1]"] ;
554 -> 555 ;
556 [label="gini = 0.0\nsamples = 1\nvalue = [0, 1]"] ;
555 -> 556 ;
557 [label="gini = 0.0\nsamples = 1\nvalue = [1, 0]"] ;
555 -> 557 ;
558 [label="gini = 0.0\nsamples = 2\nvalue = [2, 0]"] ;
554 -> 558 ;
559 [label="gini = 0.0\nsamples = 2\nvalue = [0, 2]"] ;
553 -> 559 ;
560 [label="X[18] <= 171.661\ngini = 0.322\nsamples = 144\nvalue = [115, 29]"] ;
488 -> 560 ;
561 [label="X[9] <= 512.979\ngini = 0.315\nsamples = 143\nvalue = [115, 28]"] ;
560 -> 561 ;
562 [label="X[9] <= 431.914\ngini = 0.348\nsamples = 49\nvalue = [38, 11]"] ;
561 -> 562 ;
563 [label="X[5] <= 530.802\ngini = 0.198\nsamples = 9\nvalue = [8, 1]"] ;
562 -> 563 ;
564 [label="gini = 0.0\nsamples = 8\nvalue = [8, 0]"] ;
563 -> 564 ;
565 [label="gini = 0.0\nsamples = 1\nvalue = [0, 1]"] ;
563 -> 565 ;
566 [label="X[18] <= 89.077\ngini = 0.375\nsamples = 40\nvalue = [30, 10]"] ;
562 -> 566 ;
567 [label="X[14] <= -77.619\ngini = 0.422\nsamples = 33\nvalue = [23, 10]"] ;
566 -> 567 ;
568 [label="gini = 0.0\nsamples = 2\nvalue = [2, 0]"] ;
567 -> 568 ;
569 [label="X[14] <= 91.043\ngini = 0.437\nsamples = 31\nvalue = [21, 10]"] ;
567 -> 569 ;
570 [label="X[5] <= 527.84\ngini = 0.475\nsamples = 18\nvalue = [11, 7]"] ;
569 -> 570 ;
571 [label="X[20] <= 641.72\ngini = 0.278\nsamples = 12\nvalue = [10, 2]"] ;
570 -> 571 ;
572 [label="gini = 0.0\nsamples = 7\nvalue = [7, 0]"] ;
571 -> 572 ;
573 [label="X[15] <= 12210.265\ngini = 0.48\nsamples = 5\nvalue = [3, 2]"] ;
571 -> 573 ;
574 [label="gini = 0.0\nsamples = 3\nvalue = [3, 0]"] ;
573 -> 574 ;
575 [label="gini = 0.0\nsamples = 2\nvalue = [0, 2]"] ;
573 -> 575 ;
576 [label="X[1] <= 98.684\ngini = 0.278\nsamples = 6\nvalue = [1, 5]"] ;
570 -> 576 ;
577 [label="X[2] <= -146.421\ngini = 0.444\nsamples = 3\nvalue = [1, 2]"] ;
576 -> 577 ;
578 [label="gini = 0.0\nsamples = 2\nvalue = [0, 2]"] ;
577 -> 578 ;
579 [label="gini = 0.0\nsamples = 1\nvalue = [1, 0]"] ;
577 -> 579 ;
580 [label="gini = 0.0\nsamples = 3\nvalue = [0, 3]"] ;
576 -> 580 ;
581 [label="X[17] <= 2977.725\ngini = 0.355\nsamples = 13\nvalue = [10, 3]"] ;
569 -> 581 ;
582 [label="X[11] <= 1006.311\ngini = 0.48\nsamples = 5\nvalue = [2, 3]"] ;
581 -> 582 ;
583 [label="gini = 0.0\nsamples = 1\nvalue = [1, 0]"] ;
582 -> 583 ;
584 [label="X[19] <= 2097.304\ngini = 0.375\nsamples = 4\nvalue = [1, 3]"] ;
582 -> 584 ;
585 [label="gini = 0.0\nsamples = 1\nvalue = [1, 0]"] ;
584 -> 585 ;
586 [label="gini = 0.0\nsamples = 3\nvalue = [0, 3]"] ;
584 -> 586 ;
587 [label="gini = 0.0\nsamples = 8\nvalue = [8, 0]"] ;
581 -> 587 ;
588 [label="gini = 0.0\nsamples = 7\nvalue = [7, 0]"] ;
566 -> 588 ;
589 [label="X[10] <= 29.427\ngini = 0.296\nsamples = 94\nvalue = [77, 17]"] ;
561 -> 589 ;
590 [label="X[19] <= 1873.739\ngini = 0.362\nsamples = 59\nvalue = [45, 14]"] ;
589 -> 590 ;
591 [label="X[4] <= 0.165\ngini = 0.456\nsamples = 37\nvalue = [24, 13]"] ;
590 -> 591 ;
592 [label="X[10] <= -32.109\ngini = 0.444\nsamples = 36\nvalue = [24, 12]"] ;
591 -> 592 ;
593 [label="X[6] <= -75.092\ngini = 0.397\nsamples = 22\nvalue = [16, 6]"] ;
592 -> 593 ;
594 [label="X[14] <= -41.119\ngini = 0.245\nsamples = 14\nvalue = [12, 2]"] ;
593 -> 594 ;
595 [label="X[6] <= -159.73\ngini = 0.18\nsamples = 10\nvalue = [9, 1]"] ;
594 -> 595 ;
596 [label="X[1] <= 167.509\ngini = 0.5\nsamples = 2\nvalue = [1, 1]"] ;
595 -> 596 ;
597 [label="gini = 0.0\nsamples = 1\nvalue = [0, 1]"] ;
596 -> 597 ;
598 [label="gini = 0.0\nsamples = 1\nvalue = [1, 0]"] ;
596 -> 598 ;
599 [label="gini = 0.0\nsamples = 8\nvalue = [8, 0]"] ;
595 -> 599 ;
600 [label="X[19] <= 1170.192\ngini = 0.375\nsamples = 4\nvalue = [3, 1]"] ;
594 -> 600 ;
601 [label="gini = 0.0\nsamples = 2\nvalue = [2, 0]"] ;
600 -> 601 ;
602 [label="X[13] <= 1218.539\ngini = 0.5\nsamples = 2\nvalue = [1, 1]"] ;
600 -> 602 ;
603 [label="gini = 0.0\nsamples = 1\nvalue = [0, 1]"] ;
602 -> 603 ;
604 [label="gini = 0.0\nsamples = 1\nvalue = [1, 0]"] ;
602 -> 604 ;
605 [label="X[20] <= 661.91\ngini = 0.5\nsamples = 8\nvalue = [4, 4]"] ;
593 -> 605 ;
606 [label="X[10] <= -79.275\ngini = 0.444\nsamples = 6\nvalue = [2, 4]"] ;
605 -> 606 ;
607 [label="gini = 0.0\nsamples = 1\nvalue = [1, 0]"] ;
606 -> 607 ;
608 [label="X[13] <= 1084.465\ngini = 0.32\nsamples = 5\nvalue = [1, 4]"] ;
606 -> 608 ;
609 [label="gini = 0.0\nsamples = 1\nvalue = [0, 1]"] ;
608 -> 609 ;
610 [label="X[17] <= 3121.993\ngini = 0.375\nsamples = 4\nvalue = [1, 3]"] ;
608 -> 610 ;
611 [label="gini = 0.0\nsamples = 2\nvalue = [0, 2]"] ;
610 -> 611 ;
612 [label="X[17] <= 3638.13\ngini = 0.5\nsamples = 2\nvalue = [1, 1]"] ;
610 -> 612 ;
613 [label="gini = 0.0\nsamples = 1\nvalue = [0, 1]"] ;
612 -> 613 ;
614 [label="gini = 0.0\nsamples = 1\nvalue = [1, 0]"] ;
612 -> 614 ;
615 [label="gini = 0.0\nsamples = 2\nvalue = [2, 0]"] ;
605 -> 615 ;
616 [label="X[5] <= 239.428\ngini = 0.49\nsamples = 14\nvalue = [8, 6]"] ;
592 -> 616 ;
617 [label="gini = 0.0\nsamples = 1\nvalue = [0, 1]"] ;
616 -> 617 ;
618 [label="X[11] <= 3152.86\ngini = 0.473\nsamples = 13\nvalue = [8, 5]"] ;
616 -> 618 ;
619 [label="X[2] <= -120.286\ngini = 0.486\nsamples = 12\nvalue = [7, 5]"] ;
618 -> 619 ;
620 [label="X[2] <= -149.664\ngini = 0.444\nsamples = 6\nvalue = [2, 4]"] ;
619 -> 620 ;
621 [label="gini = 0.0\nsamples = 3\nvalue = [0, 3]"] ;
620 -> 621 ;
622 [label="X[15] <= 14295.774\ngini = 0.444\nsamples = 3\nvalue = [2, 1]"] ;
620 -> 622 ;
623 [label="gini = 0.0\nsamples = 2\nvalue = [2, 0]"] ;
622 -> 623 ;
624 [label="gini = 0.0\nsamples = 1\nvalue = [0, 1]"] ;
622 -> 624 ;
625 [label="X[7] <= 908.83\ngini = 0.278\nsamples = 6\nvalue = [5, 1]"] ;
619 -> 625 ;
626 [label="gini = 0.0\nsamples = 1\nvalue = [0, 1]"] ;
625 -> 626 ;
627 [label="gini = 0.0\nsamples = 5\nvalue = [5, 0]"] ;
625 -> 627 ;
628 [label="gini = 0.0\nsamples = 1\nvalue = [1, 0]"] ;
618 -> 628 ;
629 [label="gini = 0.0\nsamples = 1\nvalue = [0, 1]"] ;
591 -> 629 ;
630 [label="X[9] <= 658.038\ngini = 0.087\nsamples = 22\nvalue = [21, 1]"] ;
590 -> 630 ;
631 [label="X[1] <= 146.035\ngini = 0.245\nsamples = 7\nvalue = [6, 1]"] ;
630 -> 631 ;
632 [label="gini = 0.0\nsamples = 6\nvalue = [6, 0]"] ;
631 -> 632 ;
633 [label="gini = 0.0\nsamples = 1\nvalue = [0, 1]"] ;
631 -> 633 ;
634 [label="gini = 0.0\nsamples = 15\nvalue = [15, 0]"] ;
630 -> 634 ;
635 [label="X[2] <= -116.995\ngini = 0.157\nsamples = 35\nvalue = [32, 3]"] ;
589 -> 635 ;
636 [label="gini = 0.0\nsamples = 23\nvalue = [23, 0]"] ;
635 -> 636 ;
637 [label="X[13] <= 608.83\ngini = 0.375\nsamples = 12\nvalue = [9, 3]"] ;
635 -> 637 ;
638 [label="gini = 0.0\nsamples = 2\nvalue = [2, 0]"] ;
637 -> 638 ;
639 [label="X[23] <= 0.0\ngini = 0.42\nsamples = 10\nvalue = [7, 3]"] ;
637 -> 639 ;
640 [label="X[11] <= 5658.682\ngini = 0.444\nsamples = 9\nvalue = [6, 3]"] ;
639 -> 640 ;
641 [label="X[17] <= 3938.458\ngini = 0.375\nsamples = 8\nvalue = [6, 2]"] ;
640 -> 641 ;
642 [label="X[9] <= 876.081\ngini = 0.375\nsamples = 4\nvalue = [3, 1]"] ;
641 -> 642 ;
643 [label="gini = 0.0\nsamples = 2\nvalue = [2, 0]"] ;
642 -> 643 ;
644 [label="X[15] <= 7116.17\ngini = 0.5\nsamples = 2\nvalue = [1, 1]"] ;
642 -> 644 ;
645 [label="gini = 0.0\nsamples = 1\nvalue = [0, 1]"] ;
644 -> 645 ;
646 [label="gini = 0.0\nsamples = 1\nvalue = [1, 0]"] ;
644 -> 646 ;
647 [label="X[20] <= 609.506\ngini = 0.375\nsamples = 4\nvalue = [3, 1]"] ;
641 -> 647 ;
648 [label="X[9] <= 768.523\ngini = 0.5\nsamples = 2\nvalue = [1, 1]"] ;
647 -> 648 ;
649 [label="gini = 0.0\nsamples = 1\nvalue = [0, 1]"] ;
648 -> 649 ;
650 [label="gini = 0.0\nsamples = 1\nvalue = [1, 0]"] ;
648 -> 650 ;
651 [label="gini = 0.0\nsamples = 2\nvalue = [2, 0]"] ;
647 -> 651 ;
652 [label="gini = 0.0\nsamples = 1\nvalue = [0, 1]"] ;
640 -> 652 ;
653 [label="gini = 0.0\nsamples = 1\nvalue = [1, 0]"] ;
639 -> 653 ;
654 [label="gini = 0.0\nsamples = 1\nvalue = [0, 1]"] ;
560 -> 654 ;
655 [label="X[9] <= 902.513\ngini = 0.5\nsamples = 4\nvalue = [2, 2]"] ;
487 -> 655 ;
656 [label="gini = 0.0\nsamples = 2\nvalue = [2, 0]"] ;
655 -> 656 ;
657 [label="gini = 0.0\nsamples = 2\nvalue = [0, 2]"] ;
655 -> 657 ;
658 [label="X[17] <= 5258.915\ngini = 0.493\nsamples = 61\nvalue = [34, 27]"] ;
454 -> 658 ;
659 [label="X[15] <= 54538.903\ngini = 0.5\nsamples = 55\nvalue = [28, 27]"] ;
658 -> 659 ;
660 [label="X[17] <= 1059.935\ngini = 0.499\nsamples = 54\nvalue = [28, 26]"] ;
659 -> 660 ;
661 [label="X[14] <= -20.559\ngini = 0.459\nsamples = 14\nvalue = [5, 9]"] ;
660 -> 661 ;
662 [label="X[11] <= 2079.803\ngini = 0.219\nsamples = 8\nvalue = [1, 7]"] ;
661 -> 662 ;
663 [label="gini = 0.0\nsamples = 6\nvalue = [0, 6]"] ;
662 -> 663 ;
664 [label="X[9] <= 479.607\ngini = 0.5\nsamples = 2\nvalue = [1, 1]"] ;
662 -> 664 ;
665 [label="gini = 0.0\nsamples = 1\nvalue = [1, 0]"] ;
664 -> 665 ;
666 [label="gini = 0.0\nsamples = 1\nvalue = [0, 1]"] ;
664 -> 666 ;
667 [label="X[10] <= -158.496\ngini = 0.444\nsamples = 6\nvalue = [4, 2]"] ;
661 -> 667 ;
668 [label="gini = 0.0\nsamples = 1\nvalue = [1, 0]"] ;
667 -> 668 ;
669 [label="X[19] <= 1840.587\ngini = 0.48\nsamples = 5\nvalue = [3, 2]"] ;
667 -> 669 ;
670 [label="X[14] <= 138.01\ngini = 0.444\nsamples = 3\nvalue = [1, 2]"] ;
669 -> 670 ;
671 [label="X[2] <= -138.503\ngini = 0.5\nsamples = 2\nvalue = [1, 1]"] ;
670 -> 671 ;
672 [label="gini = 0.0\nsamples = 1\nvalue = [0, 1]"] ;
671 -> 672 ;
673 [label="gini = 0.0\nsamples = 1\nvalue = [1, 0]"] ;
671 -> 673 ;
674 [label="gini = 0.0\nsamples = 1\nvalue = [0, 1]"] ;
670 -> 674 ;
675 [label="gini = 0.0\nsamples = 2\nvalue = [2, 0]"] ;
669 -> 675 ;
676 [label="X[23] <= 0.0\ngini = 0.489\nsamples = 40\nvalue = [23, 17]"] ;
660 -> 676 ;
677 [label="X[13] <= 885.294\ngini = 0.484\nsamples = 39\nvalue = [23, 16]"] ;
676 -> 677 ;
678 [label="X[20] <= 1202.74\ngini = 0.408\nsamples = 21\nvalue = [15, 6]"] ;
677 -> 678 ;
679 [label="X[14] <= -76.996\ngini = 0.337\nsamples = 14\nvalue = [11, 3]"] ;
678 -> 679 ;
680 [label="gini = 0.0\nsamples = 4\nvalue = [4, 0]"] ;
679 -> 680 ;
681 [label="X[17] <= 1663.03\ngini = 0.42\nsamples = 10\nvalue = [7, 3]"] ;
679 -> 681 ;
682 [label="gini = 0.0\nsamples = 1\nvalue = [1, 0]"] ;
681 -> 682 ;
683 [label="X[19] <= 2801.982\ngini = 0.444\nsamples = 9\nvalue = [6, 3]"] ;
681 -> 683 ;
684 [label="X[2] <= -102.761\ngini = 0.469\nsamples = 8\nvalue = [5, 3]"] ;
683 -> 684 ;
685 [label="X[20] <= 1022.623\ngini = 0.278\nsamples = 6\nvalue = [5, 1]"] ;
684 -> 685 ;
686 [label="X[5] <= 491.684\ngini = 0.375\nsamples = 4\nvalue = [3, 1]"] ;
685 -> 686 ;
687 [label="X[10] <= 91.856\ngini = 0.5\nsamples = 2\nvalue = [1, 1]"] ;
686 -> 687 ;
688 [label="gini = 0.0\nsamples = 1\nvalue = [1, 0]"] ;
687 -> 688 ;
689 [label="gini = 0.0\nsamples = 1\nvalue = [0, 1]"] ;
687 -> 689 ;
690 [label="gini = 0.0\nsamples = 2\nvalue = [2, 0]"] ;
686 -> 690 ;
691 [label="gini = 0.0\nsamples = 2\nvalue = [2, 0]"] ;
685 -> 691 ;
692 [label="gini = 0.0\nsamples = 2\nvalue = [0, 2]"] ;
684 -> 692 ;
693 [label="gini = 0.0\nsamples = 1\nvalue = [1, 0]"] ;
683 -> 693 ;
694 [label="X[7] <= 1780.532\ngini = 0.49\nsamples = 7\nvalue = [4, 3]"] ;
678 -> 694 ;
695 [label="gini = 0.0\nsamples = 3\nvalue = [3, 0]"] ;
694 -> 695 ;
696 [label="X[2] <= -158.55\ngini = 0.375\nsamples = 4\nvalue = [1, 3]"] ;
694 -> 696 ;
697 [label="gini = 0.0\nsamples = 1\nvalue = [1, 0]"] ;
696 -> 697 ;
698 [label="gini = 0.0\nsamples = 3\nvalue = [0, 3]"] ;
696 -> 698 ;
699 [label="X[7] <= 1454.312\ngini = 0.494\nsamples = 18\nvalue = [8, 10]"] ;
677 -> 699 ;
700 [label="X[17] <= 3610.505\ngini = 0.5\nsamples = 12\nvalue = [6, 6]"] ;
699 -> 700 ;
701 [label="gini = 0.0\nsamples = 5\nvalue = [5, 0]"] ;
700 -> 701 ;
702 [label="X[11] <= 1482.975\ngini = 0.245\nsamples = 7\nvalue = [1, 6]"] ;
700 -> 702 ;
703 [label="gini = 0.0\nsamples = 6\nvalue = [0, 6]"] ;
702 -> 703 ;
704 [label="gini = 0.0\nsamples = 1\nvalue = [1, 0]"] ;
702 -> 704 ;
705 [label="X[20] <= 1214.607\ngini = 0.444\nsamples = 6\nvalue = [2, 4]"] ;
699 -> 705 ;
706 [label="gini = 0.0\nsamples = 2\nvalue = [2, 0]"] ;
705 -> 706 ;
707 [label="gini = 0.0\nsamples = 4\nvalue = [0, 4]"] ;
705 -> 707 ;
708 [label="gini = 0.0\nsamples = 1\nvalue = [0, 1]"] ;
676 -> 708 ;
709 [label="gini = 0.0\nsamples = 1\nvalue = [0, 1]"] ;
659 -> 709 ;
710 [label="gini = 0.0\nsamples = 6\nvalue = [6, 0]"] ;
658 -> 710 ;
711 [label="X[13] <= 1902.5\ngini = 0.478\nsamples = 43\nvalue = [26, 17]"] ;
119 -> 711 ;
712 [label="X[1] <= 70.15\ngini = 0.444\nsamples = 30\nvalue = [20, 10]"] ;
711 -> 712 ;
713 [label="X[18] <= -84.085\ngini = 0.32\nsamples = 10\nvalue = [8, 2]"] ;
712 -> 713 ;
714 [label="X[5] <= 870.415\ngini = 0.5\nsamples = 4\nvalue = [2, 2]"] ;
713 -> 714 ;
715 [label="X[1] <= 6.343\ngini = 0.444\nsamples = 3\nvalue = [1, 2]"] ;
714 -> 715 ;
716 [label="gini = 0.0\nsamples = 1\nvalue = [0, 1]"] ;
715 -> 716 ;
717 [label="X[13] <= 808.403\ngini = 0.5\nsamples = 2\nvalue = [1, 1]"] ;
715 -> 717 ;
718 [label="gini = 0.0\nsamples = 1\nvalue = [1, 0]"] ;
717 -> 718 ;
719 [label="gini = 0.0\nsamples = 1\nvalue = [0, 1]"] ;
717 -> 719 ;
720 [label="gini = 0.0\nsamples = 1\nvalue = [1, 0]"] ;
714 -> 720 ;
721 [label="gini = 0.0\nsamples = 6\nvalue = [6, 0]"] ;
713 -> 721 ;
722 [label="X[5] <= 1270.089\ngini = 0.48\nsamples = 20\nvalue = [12, 8]"] ;
712 -> 722 ;
723 [label="X[6] <= -101.711\ngini = 0.337\nsamples = 14\nvalue = [11, 3]"] ;
722 -> 723 ;
724 [label="gini = 0.0\nsamples = 2\nvalue = [2, 0]"] ;
723 -> 724 ;
725 [label="X[3] <= 642044.61\ngini = 0.375\nsamples = 12\nvalue = [9, 3]"] ;
723 -> 725 ;
726 [label="X[14] <= -64.792\ngini = 0.397\nsamples = 11\nvalue = [8, 3]"] ;
725 -> 726 ;
727 [label="gini = 0.0\nsamples = 4\nvalue = [4, 0]"] ;
726 -> 727 ;
728 [label="X[13] <= 1295.219\ngini = 0.49\nsamples = 7\nvalue = [4, 3]"] ;
726 -> 728 ;
729 [label="X[13] <= 174.247\ngini = 0.375\nsamples = 4\nvalue = [3, 1]"] ;
728 -> 729 ;
730 [label="gini = 0.0\nsamples = 1\nvalue = [1, 0]"] ;
729 -> 730 ;
731 [label="X[13] <= 749.113\ngini = 0.444\nsamples = 3\nvalue = [2, 1]"] ;
729 -> 731 ;
732 [label="X[2] <= -168.194\ngini = 0.5\nsamples = 2\nvalue = [1, 1]"] ;
731 -> 732 ;
733 [label="gini = 0.0\nsamples = 1\nvalue = [1, 0]"] ;
732 -> 733 ;
734 [label="gini = 0.0\nsamples = 1\nvalue = [0, 1]"] ;
732 -> 734 ;
735 [label="gini = 0.0\nsamples = 1\nvalue = [1, 0]"] ;
731 -> 735 ;
736 [label="X[2] <= -90.922\ngini = 0.444\nsamples = 3\nvalue = [1, 2]"] ;
728 -> 736 ;
737 [label="X[9] <= 1324.023\ngini = 0.5\nsamples = 2\nvalue = [1, 1]"] ;
736 -> 737 ;
738 [label="gini = 0.0\nsamples = 1\nvalue = [0, 1]"] ;
737 -> 738 ;
739 [label="gini = 0.0\nsamples = 1\nvalue = [1, 0]"] ;
737 -> 739 ;
740 [label="gini = 0.0\nsamples = 1\nvalue = [0, 1]"] ;
736 -> 740 ;
741 [label="gini = 0.0\nsamples = 1\nvalue = [1, 0]"] ;
725 -> 741 ;
742 [label="X[14] <= -0.244\ngini = 0.278\nsamples = 6\nvalue = [1, 5]"] ;
722 -> 742 ;
743 [label="X[7] <= 1131.375\ngini = 0.5\nsamples = 2\nvalue = [1, 1]"] ;
742 -> 743 ;
744 [label="gini = 0.0\nsamples = 1\nvalue = [0, 1]"] ;
743 -> 744 ;
745 [label="gini = 0.0\nsamples = 1\nvalue = [1, 0]"] ;
743 -> 745 ;
746 [label="gini = 0.0\nsamples = 4\nvalue = [0, 4]"] ;
742 -> 746 ;
747 [label="X[3] <= 22647.074\ngini = 0.497\nsamples = 13\nvalue = [6, 7]"] ;
711 -> 747 ;
748 [label="gini = 0.0\nsamples = 4\nvalue = [0, 4]"] ;
747 -> 748 ;
749 [label="X[11] <= 844.231\ngini = 0.444\nsamples = 9\nvalue = [6, 3]"] ;
747 -> 749 ;
750 [label="gini = 0.0\nsamples = 3\nvalue = [3, 0]"] ;
749 -> 750 ;
751 [label="X[5] <= 1423.38\ngini = 0.5\nsamples = 6\nvalue = [3, 3]"] ;
749 -> 751 ;
752 [label="gini = 0.0\nsamples = 2\nvalue = [0, 2]"] ;
751 -> 752 ;
753 [label="X[3] <= 209085.98\ngini = 0.375\nsamples = 4\nvalue = [3, 1]"] ;
751 -> 753 ;
754 [label="X[14] <= 49.424\ngini = 0.444\nsamples = 3\nvalue = [2, 1]"] ;
753 -> 754 ;
755 [label="gini = 0.0\nsamples = 1\nvalue = [0, 1]"] ;
754 -> 755 ;
756 [label="gini = 0.0\nsamples = 2\nvalue = [2, 0]"] ;
754 -> 756 ;
757 [label="gini = 0.0\nsamples = 1\nvalue = [1, 0]"] ;
753 -> 757 ;
758 [label="X[20] <= 1273.177\ngini = 0.341\nsamples = 399\nvalue = [312, 87]"] ;
118 -> 758 ;
759 [label="X[2] <= -165.548\ngini = 0.328\nsamples = 378\nvalue = [300, 78]"] ;
758 -> 759 ;
760 [label="X[9] <= 249.068\ngini = 0.245\nsamples = 42\nvalue = [36, 6]"] ;
759 -> 760 ;
761 [label="X[18] <= 56.051\ngini = 0.48\nsamples = 5\nvalue = [3, 2]"] ;
760 -> 761 ;
762 [label="X[17] <= 8207.683\ngini = 0.444\nsamples = 3\nvalue = [1, 2]"] ;
761 -> 762 ;
763 [label="X[1] <= 55.245\ngini = 0.5\nsamples = 2\nvalue = [1, 1]"] ;
762 -> 763 ;
764 [label="gini = 0.0\nsamples = 1\nvalue = [0, 1]"] ;
763 -> 764 ;
765 [label="gini = 0.0\nsamples = 1\nvalue = [1, 0]"] ;
763 -> 765 ;
766 [label="gini = 0.0\nsamples = 1\nvalue = [0, 1]"] ;
762 -> 766 ;
767 [label="gini = 0.0\nsamples = 2\nvalue = [2, 0]"] ;
761 -> 767 ;
768 [label="X[2] <= -173.987\ngini = 0.193\nsamples = 37\nvalue = [33, 4]"] ;
760 -> 768 ;
769 [label="X[13] <= 1749.501\ngini = 0.159\nsamples = 23\nvalue = [21, 2]"] ;
768 -> 769 ;
770 [label="gini = 0.0\nsamples = 12\nvalue = [12, 0]"] ;
769 -> 770 ;
771 [label="X[19] <= 2662.678\ngini = 0.298\nsamples = 11\nvalue = [9, 2]"] ;
769 -> 771 ;
772 [label="gini = 0.0\nsamples = 5\nvalue = [5, 0]"] ;
771 -> 772 ;
773 [label="X[5] <= 584.174\ngini = 0.444\nsamples = 6\nvalue = [4, 2]"] ;
771 -> 773 ;
774 [label="gini = 0.0\nsamples = 3\nvalue = [3, 0]"] ;
773 -> 774 ;
775 [label="X[18] <= 112.57\ngini = 0.444\nsamples = 3\nvalue = [1, 2]"] ;
773 -> 775 ;
776 [label="gini = 0.0\nsamples = 2\nvalue = [0, 2]"] ;
775 -> 776 ;
777 [label="gini = 0.0\nsamples = 1\nvalue = [1, 0]"] ;
775 -> 777 ;
778 [label="X[13] <= 2040.345\ngini = 0.245\nsamples = 14\nvalue = [12, 2]"] ;
768 -> 778 ;
779 [label="gini = 0.0\nsamples = 7\nvalue = [7, 0]"] ;
778 -> 779 ;
780 [label="X[6] <= 54.253\ngini = 0.408\nsamples = 7\nvalue = [5, 2]"] ;
778 -> 780 ;
781 [label="X[2] <= -167.054\ngini = 0.5\nsamples = 2\nvalue = [1, 1]"] ;
780 -> 781 ;
782 [label="gini = 0.0\nsamples = 1\nvalue = [0, 1]"] ;
781 -> 782 ;
783 [label="gini = 0.0\nsamples = 1\nvalue = [1, 0]"] ;
781 -> 783 ;
784 [label="X[6] <= 147.208\ngini = 0.32\nsamples = 5\nvalue = [4, 1]"] ;
780 -> 784 ;
785 [label="gini = 0.0\nsamples = 4\nvalue = [4, 0]"] ;
784 -> 785 ;
786 [label="gini = 0.0\nsamples = 1\nvalue = [0, 1]"] ;
784 -> 786 ;
787 [label="X[6] <= -120.263\ngini = 0.337\nsamples = 336\nvalue = [264, 72]"] ;
759 -> 787 ;
788 [label="X[18] <= 3.628\ngini = 0.245\nsamples = 56\nvalue = [48, 8]"] ;
787 -> 788 ;
789 [label="X[11] <= 4137.744\ngini = 0.111\nsamples = 17\nvalue = [16, 1]"] ;
788 -> 789 ;
790 [label="gini = 0.0\nsamples = 8\nvalue = [8, 0]"] ;
789 -> 790 ;
791 [label="X[5] <= 2054.732\ngini = 0.198\nsamples = 9\nvalue = [8, 1]"] ;
789 -> 791 ;
792 [label="gini = 0.0\nsamples = 2\nvalue = [2, 0]"] ;
791 -> 792 ;
793 [label="X[13] <= 746.365\ngini = 0.245\nsamples = 7\nvalue = [6, 1]"] ;
791 -> 793 ;
794 [label="gini = 0.0\nsamples = 2\nvalue = [2, 0]"] ;
793 -> 794 ;
795 [label="X[10] <= -39.156\ngini = 0.32\nsamples = 5\nvalue = [4, 1]"] ;
793 -> 795 ;
796 [label="gini = 0.0\nsamples = 2\nvalue = [2, 0]"] ;
795 -> 796 ;
797 [label="X[20] <= 365.801\ngini = 0.444\nsamples = 3\nvalue = [2, 1]"] ;
795 -> 797 ;
798 [label="X[1] <= 14.537\ngini = 0.5\nsamples = 2\nvalue = [1, 1]"] ;
797 -> 798 ;
799 [label="gini = 0.0\nsamples = 1\nvalue = [1, 0]"] ;
798 -> 799 ;
800 [label="gini = 0.0\nsamples = 1\nvalue = [0, 1]"] ;
798 -> 800 ;
801 [label="gini = 0.0\nsamples = 1\nvalue = [1, 0]"] ;
797 -> 801 ;
802 [label="X[5] <= 1465.804\ngini = 0.295\nsamples = 39\nvalue = [32, 7]"] ;
788 -> 802 ;
803 [label="X[6] <= -125.393\ngini = 0.234\nsamples = 37\nvalue = [32, 5]"] ;
802 -> 803 ;
804 [label="X[7] <= 1155.422\ngini = 0.213\nsamples = 33\nvalue = [29, 4]"] ;
803 -> 804 ;
805 [label="X[10] <= 146.649\ngini = 0.32\nsamples = 15\nvalue = [12, 3]"] ;
804 -> 805 ;
806 [label="X[13] <= 1433.928\ngini = 0.245\nsamples = 14\nvalue = [12, 2]"] ;
805 -> 806 ;
807 [label="gini = 0.0\nsamples = 11\nvalue = [11, 0]"] ;
806 -> 807 ;
808 [label="X[20] <= 336.459\ngini = 0.444\nsamples = 3\nvalue = [1, 2]"] ;
806 -> 808 ;
809 [label="gini = 0.0\nsamples = 2\nvalue = [0, 2]"] ;
808 -> 809 ;
810 [label="gini = 0.0\nsamples = 1\nvalue = [1, 0]"] ;
808 -> 810 ;
811 [label="gini = 0.0\nsamples = 1\nvalue = [0, 1]"] ;
805 -> 811 ;
812 [label="X[9] <= 1099.76\ngini = 0.105\nsamples = 18\nvalue = [17, 1]"] ;
804 -> 812 ;
813 [label="gini = 0.0\nsamples = 15\nvalue = [15, 0]"] ;
812 -> 813 ;
814 [label="X[14] <= -58.69\ngini = 0.444\nsamples = 3\nvalue = [2, 1]"] ;
812 -> 814 ;
815 [label="gini = 0.0\nsamples = 1\nvalue = [0, 1]"] ;
814 -> 815 ;
816 [label="gini = 0.0\nsamples = 2\nvalue = [2, 0]"] ;
814 -> 816 ;
817 [label="X[18] <= 97.418\ngini = 0.375\nsamples = 4\nvalue = [3, 1]"] ;
803 -> 817 ;
818 [label="X[13] <= 587.182\ngini = 0.5\nsamples = 2\nvalue = [1, 1]"] ;
817 -> 818 ;
819 [label="gini = 0.0\nsamples = 1\nvalue = [1, 0]"] ;
818 -> 819 ;
820 [label="gini = 0.0\nsamples = 1\nvalue = [0, 1]"] ;
818 -> 820 ;
821 [label="gini = 0.0\nsamples = 2\nvalue = [2, 0]"] ;
817 -> 821 ;
822 [label="gini = 0.0\nsamples = 2\nvalue = [0, 2]"] ;
802 -> 822 ;
823 [label="X[1] <= 48.233\ngini = 0.353\nsamples = 280\nvalue = [216, 64]"] ;
787 -> 823 ;
824 [label="X[14] <= -82.448\ngini = 0.28\nsamples = 113\nvalue = [94, 19]"] ;
823 -> 824 ;
825 [label="X[18] <= 106.652\ngini = 0.121\nsamples = 31\nvalue = [29, 2]"] ;
824 -> 825 ;
826 [label="gini = 0.0\nsamples = 18\nvalue = [18, 0]"] ;
825 -> 826 ;
827 [label="X[17] <= 7310.277\ngini = 0.26\nsamples = 13\nvalue = [11, 2]"] ;
825 -> 827 ;
828 [label="X[11] <= 1604.69\ngini = 0.5\nsamples = 4\nvalue = [2, 2]"] ;
827 -> 828 ;
829 [label="gini = 0.0\nsamples = 2\nvalue = [0, 2]"] ;
828 -> 829 ;
830 [label="gini = 0.0\nsamples = 2\nvalue = [2, 0]"] ;
828 -> 830 ;
831 [label="gini = 0.0\nsamples = 9\nvalue = [9, 0]"] ;
827 -> 831 ;
832 [label="X[7] <= 6556.658\ngini = 0.329\nsamples = 82\nvalue = [65, 17]"] ;
824 -> 832 ;
833 [label="X[15] <= 78597.912\ngini = 0.323\nsamples = 79\nvalue = [63, 16]"] ;
832 -> 833 ;
834 [label="X[19] <= 12157.94\ngini = 0.317\nsamples = 76\nvalue = [61, 15]"] ;
833 -> 834 ;
835 [label="X[5] <= 1120.031\ngini = 0.34\nsamples = 69\nvalue = [54, 15]"] ;
834 -> 835 ;
836 [label="X[14] <= -69.696\ngini = 0.273\nsamples = 49\nvalue = [41, 8]"] ;
835 -> 836 ;
837 [label="X[17] <= 7397.904\ngini = 0.5\nsamples = 2\nvalue = [1, 1]"] ;
836 -> 837 ;
838 [label="gini = 0.0\nsamples = 1\nvalue = [1, 0]"] ;
837 -> 838 ;
839 [label="gini = 0.0\nsamples = 1\nvalue = [0, 1]"] ;
837 -> 839 ;
840 [label="X[2] <= -114.549\ngini = 0.254\nsamples = 47\nvalue = [40, 7]"] ;
836 -> 840 ;
841 [label="X[1] <= 11.182\ngini = 0.363\nsamples = 21\nvalue = [16, 5]"] ;
840 -> 841 ;
842 [label="X[13] <= 279.602\ngini = 0.48\nsamples = 10\nvalue = [6, 4]"] ;
841 -> 842 ;
843 [label="gini = 0.0\nsamples = 2\nvalue = [0, 2]"] ;
842 -> 843 ;
844 [label="X[13] <= 1221.149\ngini = 0.375\nsamples = 8\nvalue = [6, 2]"] ;
842 -> 844 ;
845 [label="X[15] <= 2909.732\ngini = 0.444\nsamples = 3\nvalue = [1, 2]"] ;
844 -> 845 ;
846 [label="X[6] <= -99.877\ngini = 0.5\nsamples = 2\nvalue = [1, 1]"] ;
845 -> 846 ;
847 [label="gini = 0.0\nsamples = 1\nvalue = [1, 0]"] ;
846 -> 847 ;
848 [label="gini = 0.0\nsamples = 1\nvalue = [0, 1]"] ;
846 -> 848 ;
849 [label="gini = 0.0\nsamples = 1\nvalue = [0, 1]"] ;
845 -> 849 ;
850 [label="gini = 0.0\nsamples = 5\nvalue = [5, 0]"] ;
844 -> 850 ;
851 [label="X[3] <= 247483.919\ngini = 0.165\nsamples = 11\nvalue = [10, 1]"] ;
841 -> 851 ;
852 [label="X[14] <= 82.938\ngini = 0.198\nsamples = 9\nvalue = [8, 1]"] ;
851 -> 852 ;
853 [label="X[11] <= 3155.845\ngini = 0.444\nsamples = 3\nvalue = [2, 1]"] ;
852 -> 853 ;
854 [label="X[18] <= -156.107\ngini = 0.5\nsamples = 2\nvalue = [1, 1]"] ;
853 -> 854 ;
855 [label="gini = 0.0\nsamples = 1\nvalue = [0, 1]"] ;
854 -> 855 ;
856 [label="gini = 0.0\nsamples = 1\nvalue = [1, 0]"] ;
854 -> 856 ;
857 [label="gini = 0.0\nsamples = 1\nvalue = [1, 0]"] ;
853 -> 857 ;
858 [label="gini = 0.0\nsamples = 6\nvalue = [6, 0]"] ;
852 -> 858 ;
859 [label="gini = 0.0\nsamples = 2\nvalue = [2, 0]"] ;
851 -> 859 ;
860 [label="X[1] <= 10.851\ngini = 0.142\nsamples = 26\nvalue = [24, 2]"] ;
840 -> 860 ;
861 [label="X[3] <= 253457.901\ngini = 0.219\nsamples = 16\nvalue = [14, 2]"] ;
860 -> 861 ;
862 [label="X[15] <= 6076.387\ngini = 0.245\nsamples = 14\nvalue = [12, 2]"] ;
861 -> 862 ;
863 [label="X[11] <= 2373.253\ngini = 0.298\nsamples = 11\nvalue = [9, 2]"] ;
862 -> 863 ;
864 [label="X[17] <= 9257.126\ngini = 0.32\nsamples = 10\nvalue = [8, 2]"] ;
863 -> 864 ;
865 [label="X[2] <= -93.886\ngini = 0.219\nsamples = 8\nvalue = [7, 1]"] ;
864 -> 865 ;
866 [label="X[7] <= 1124.064\ngini = 0.375\nsamples = 4\nvalue = [3, 1]"] ;
865 -> 866 ;
867 [label="X[9] <= 156.142\ngini = 0.5\nsamples = 2\nvalue = [1, 1]"] ;
866 -> 867 ;
868 [label="gini = 0.0\nsamples = 1\nvalue = [1, 0]"] ;
867 -> 868 ;
869 [label="gini = 0.0\nsamples = 1\nvalue = [0, 1]"] ;
867 -> 869 ;
870 [label="gini = 0.0\nsamples = 2\nvalue = [2, 0]"] ;
866 -> 870 ;
871 [label="gini = 0.0\nsamples = 4\nvalue = [4, 0]"] ;
865 -> 871 ;
872 [label="X[18] <= 116.177\ngini = 0.5\nsamples = 2\nvalue = [1, 1]"] ;
864 -> 872 ;
873 [label="gini = 0.0\nsamples = 1\nvalue = [0, 1]"] ;
872 -> 873 ;
874 [label="gini = 0.0\nsamples = 1\nvalue = [1, 0]"] ;
872 -> 874 ;
875 [label="gini = 0.0\nsamples = 1\nvalue = [1, 0]"] ;
863 -> 875 ;
876 [label="gini = 0.0\nsamples = 3\nvalue = [3, 0]"] ;
862 -> 876 ;
877 [label="gini = 0.0\nsamples = 2\nvalue = [2, 0]"] ;
861 -> 877 ;
878 [label="gini = 0.0\nsamples = 10\nvalue = [10, 0]"] ;
860 -> 878 ;
879 [label="X[10] <= 76.531\ngini = 0.455\nsamples = 20\nvalue = [13, 7]"] ;
835 -> 879 ;
880 [label="X[20] <= 194.989\ngini = 0.465\nsamples = 19\nvalue = [12, 7]"] ;
879 -> 880 ;
881 [label="gini = 0.0\nsamples = 1\nvalue = [0, 1]"] ;
880 -> 881 ;
882 [label="X[10] <= -39.136\ngini = 0.444\nsamples = 18\nvalue = [12, 6]"] ;
880 -> 882 ;
883 [label="X[19] <= 2603.412\ngini = 0.42\nsamples = 10\nvalue = [7, 3]"] ;
882 -> 883 ;
884 [label="X[5] <= 2067.549\ngini = 0.444\nsamples = 9\nvalue = [6, 3]"] ;
883 -> 884 ;
885 [label="X[18] <= -83.707\ngini = 0.245\nsamples = 7\nvalue = [6, 1]"] ;
884 -> 885 ;
886 [label="gini = 0.0\nsamples = 2\nvalue = [2, 0]"] ;
885 -> 886 ;
887 [label="X[2] <= -113.463\ngini = 0.32\nsamples = 5\nvalue = [4, 1]"] ;
885 -> 887 ;
888 [label="gini = 0.0\nsamples = 2\nvalue = [2, 0]"] ;
887 -> 888 ;
889 [label="X[6] <= 21.58\ngini = 0.444\nsamples = 3\nvalue = [2, 1]"] ;
887 -> 889 ;
890 [label="gini = 0.0\nsamples = 1\nvalue = [1, 0]"] ;
889 -> 890 ;
891 [label="X[3] <= 112310.186\ngini = 0.5\nsamples = 2\nvalue = [1, 1]"] ;
889 -> 891 ;
892 [label="gini = 0.0\nsamples = 1\nvalue = [0, 1]"] ;
891 -> 892 ;
893 [label="gini = 0.0\nsamples = 1\nvalue = [1, 0]"] ;
891 -> 893 ;
894 [label="gini = 0.0\nsamples = 2\nvalue = [0, 2]"] ;
884 -> 894 ;
895 [label="gini = 0.0\nsamples = 1\nvalue = [1, 0]"] ;
883 -> 895 ;
896 [label="X[17] <= 10611.194\ngini = 0.469\nsamples = 8\nvalue = [5, 3]"] ;
882 -> 896 ;
897 [label="X[20] <= 609.555\ngini = 0.49\nsamples = 7\nvalue = [4, 3]"] ;
896 -> 897 ;
898 [label="gini = 0.0\nsamples = 4\nvalue = [4, 0]"] ;
897 -> 898 ;
899 [label="gini = 0.0\nsamples = 3\nvalue = [0, 3]"] ;
897 -> 899 ;
900 [label="gini = 0.0\nsamples = 1\nvalue = [1, 0]"] ;
896 -> 900 ;
901 [label="gini = 0.0\nsamples = 1\nvalue = [1, 0]"] ;
879 -> 901 ;
902 [label="gini = 0.0\nsamples = 7\nvalue = [7, 0]"] ;
834 -> 902 ;
903 [label="X[2] <= -115.013\ngini = 0.444\nsamples = 3\nvalue = [2, 1]"] ;
833 -> 903 ;
904 [label="gini = 0.0\nsamples = 1\nvalue = [1, 0]"] ;
903 -> 904 ;
905 [label="X[13] <= 2857.182\ngini = 0.5\nsamples = 2\nvalue = [1, 1]"] ;
903 -> 905 ;
906 [label="gini = 0.0\nsamples = 1\nvalue = [1, 0]"] ;
905 -> 906 ;
907 [label="gini = 0.0\nsamples = 1\nvalue = [0, 1]"] ;
905 -> 907 ;
908 [label="X[18] <= 9.261\ngini = 0.444\nsamples = 3\nvalue = [2, 1]"] ;
832 -> 908 ;
909 [label="gini = 0.0\nsamples = 1\nvalue = [0, 1]"] ;
908 -> 909 ;
910 [label="gini = 0.0\nsamples = 2\nvalue = [2, 0]"] ;
908 -> 910 ;
911 [label="X[10] <= 43.935\ngini = 0.394\nsamples = 167\nvalue = [122, 45]"] ;
823 -> 911 ;
912 [label="X[2] <= -106.022\ngini = 0.361\nsamples = 110\nvalue = [84, 26]"] ;
911 -> 912 ;
913 [label="X[9] <= 7263.679\ngini = 0.392\nsamples = 71\nvalue = [52, 19]"] ;
912 -> 913 ;
914 [label="X[19] <= 10559.33\ngini = 0.399\nsamples = 69\nvalue = [50, 19]"] ;
913 -> 914 ;
915 [label="X[5] <= 892.087\ngini = 0.4\nsamples = 65\nvalue = [47, 18]"] ;
914 -> 915 ;
916 [label="X[7] <= 4530.044\ngini = 0.301\nsamples = 38\nvalue = [31, 7]"] ;
915 -> 916 ;
917 [label="X[14] <= 112.646\ngini = 0.32\nsamples = 35\nvalue = [28, 7]"] ;
916 -> 917 ;
918 [label="X[2] <= -110.503\ngini = 0.355\nsamples = 26\nvalue = [20, 6]"] ;
917 -> 918 ;
919 [label="X[1] <= 111.738\ngini = 0.287\nsamples = 23\nvalue = [19, 4]"] ;
918 -> 919 ;
920 [label="gini = 0.0\nsamples = 10\nvalue = [10, 0]"] ;
919 -> 920 ;
921 [label="X[2] <= -147.76\ngini = 0.426\nsamples = 13\nvalue = [9, 4]"] ;
919 -> 921 ;
922 [label="gini = 0.0\nsamples = 2\nvalue = [2, 0]"] ;
921 -> 922 ;
923 [label="X[14] <= -13.909\ngini = 0.463\nsamples = 11\nvalue = [7, 4]"] ;
921 -> 923 ;
924 [label="X[9] <= 593.731\ngini = 0.32\nsamples = 5\nvalue = [1, 4]"] ;
923 -> 924 ;
925 [label="gini = 0.0\nsamples = 4\nvalue = [0, 4]"] ;
924 -> 925 ;
926 [label="gini = 0.0\nsamples = 1\nvalue = [1, 0]"] ;
924 -> 926 ;
927 [label="gini = 0.0\nsamples = 6\nvalue = [6, 0]"] ;
923 -> 927 ;
928 [label="X[7] <= 1826.882\ngini = 0.444\nsamples = 3\nvalue = [1, 2]"] ;
918 -> 928 ;
929 [label="gini = 0.0\nsamples = 1\nvalue = [1, 0]"] ;
928 -> 929 ;
930 [label="gini = 0.0\nsamples = 2\nvalue = [0, 2]"] ;
928 -> 930 ;
931 [label="X[1] <= 175.472\ngini = 0.198\nsamples = 9\nvalue = [8, 1]"] ;
917 -> 931 ;
932 [label="X[18] <= 119.694\ngini = 0.219\nsamples = 8\nvalue = [7, 1]"] ;
931 -> 932 ;
933 [label="X[1] <= 93.177\ngini = 0.375\nsamples = 4\nvalue = [3, 1]"] ;
932 -> 933 ;
934 [label="X[7] <= 1770.473\ngini = 0.5\nsamples = 2\nvalue = [1, 1]"] ;
933 -> 934 ;
935 [label="gini = 0.0\nsamples = 1\nvalue = [1, 0]"] ;
934 -> 935 ;
936 [label="gini = 0.0\nsamples = 1\nvalue = [0, 1]"] ;
934 -> 936 ;
937 [label="gini = 0.0\nsamples = 2\nvalue = [2, 0]"] ;
933 -> 937 ;
938 [label="gini = 0.0\nsamples = 4\nvalue = [4, 0]"] ;
932 -> 938 ;
939 [label="gini = 0.0\nsamples = 1\nvalue = [1, 0]"] ;
931 -> 939 ;
940 [label="gini = 0.0\nsamples = 3\nvalue = [3, 0]"] ;
916 -> 940 ;
941 [label="X[1] <= 61.072\ngini = 0.483\nsamples = 27\nvalue = [16, 11]"] ;
915 -> 941 ;
942 [label="gini = 0.0\nsamples = 3\nvalue = [3, 0]"] ;
941 -> 942 ;
943 [label="X[6] <= -0.548\ngini = 0.497\nsamples = 24\nvalue = [13, 11]"] ;
941 -> 943 ;
944 [label="X[9] <= 4326.586\ngini = 0.397\nsamples = 11\nvalue = [8, 3]"] ;
943 -> 944 ;
945 [label="X[6] <= -61.753\ngini = 0.444\nsamples = 9\nvalue = [6, 3]"] ;
944 -> 945 ;
946 [label="X[11] <= 3980.67\ngini = 0.5\nsamples = 6\nvalue = [3, 3]"] ;
945 -> 946 ;
947 [label="gini = 0.0\nsamples = 1\nvalue = [1, 0]"] ;
946 -> 947 ;
948 [label="X[14] <= 47.738\ngini = 0.48\nsamples = 5\nvalue = [2, 3]"] ;
946 -> 948 ;
949 [label="X[9] <= 2312.58\ngini = 0.444\nsamples = 3\nvalue = [1, 2]"] ;
948 -> 949 ;
950 [label="gini = 0.0\nsamples = 1\nvalue = [0, 1]"] ;
949 -> 950 ;
951 [label="X[2] <= -111.595\ngini = 0.5\nsamples = 2\nvalue = [1, 1]"] ;
949 -> 951 ;
952 [label="gini = 0.0\nsamples = 1\nvalue = [1, 0]"] ;
951 -> 952 ;
953 [label="gini = 0.0\nsamples = 1\nvalue = [0, 1]"] ;
951 -> 953 ;
954 [label="X[18] <= -64.645\ngini = 0.5\nsamples = 2\nvalue = [1, 1]"] ;
948 -> 954 ;
955 [label="gini = 0.0\nsamples = 1\nvalue = [1, 0]"] ;
954 -> 955 ;
956 [label="gini = 0.0\nsamples = 1\nvalue = [0, 1]"] ;
954 -> 956 ;
957 [label="gini = 0.0\nsamples = 3\nvalue = [3, 0]"] ;
945 -> 957 ;
958 [label="gini = 0.0\nsamples = 2\nvalue = [2, 0]"] ;
944 -> 958 ;
959 [label="X[6] <= 4.242\ngini = 0.473\nsamples = 13\nvalue = [5, 8]"] ;
943 -> 959 ;
960 [label="gini = 0.0\nsamples = 1\nvalue = [1, 0]"] ;
959 -> 960 ;
961 [label="X[15] <= 10348.586\ngini = 0.444\nsamples = 12\nvalue = [4, 8]"] ;
959 -> 961 ;
962 [label="X[6] <= 121.236\ngini = 0.444\nsamples = 6\nvalue = [4, 2]"] ;
961 -> 962 ;
963 [label="gini = 0.0\nsamples = 3\nvalue = [3, 0]"] ;
962 -> 963 ;
964 [label="X[1] <= 98.031\ngini = 0.444\nsamples = 3\nvalue = [1, 2]"] ;
962 -> 964 ;
965 [label="gini = 0.0\nsamples = 1\nvalue = [0, 1]"] ;
964 -> 965 ;
966 [label="X[14] <= 38.597\ngini = 0.5\nsamples = 2\nvalue = [1, 1]"] ;
964 -> 966 ;
967 [label="gini = 0.0\nsamples = 1\nvalue = [1, 0]"] ;
966 -> 967 ;
968 [label="gini = 0.0\nsamples = 1\nvalue = [0, 1]"] ;
966 -> 968 ;
969 [label="gini = 0.0\nsamples = 6\nvalue = [0, 6]"] ;
961 -> 969 ;
970 [label="X[14] <= 174.455\ngini = 0.375\nsamples = 4\nvalue = [3, 1]"] ;
914 -> 970 ;
971 [label="gini = 0.0\nsamples = 3\nvalue = [3, 0]"] ;
970 -> 971 ;
972 [label="gini = 0.0\nsamples = 1\nvalue = [0, 1]"] ;
970 -> 972 ;
973 [label="gini = 0.0\nsamples = 2\nvalue = [2, 0]"] ;
913 -> 973 ;
974 [label="X[18] <= 25.363\ngini = 0.295\nsamples = 39\nvalue = [32, 7]"] ;
912 -> 974 ;
975 [label="gini = 0.0\nsamples = 17\nvalue = [17, 0]"] ;
974 -> 975 ;
976 [label="X[15] <= 58403.813\ngini = 0.434\nsamples = 22\nvalue = [15, 7]"] ;
974 -> 976 ;
977 [label="X[15] <= 3796.226\ngini = 0.408\nsamples = 21\nvalue = [15, 6]"] ;
976 -> 977 ;
978 [label="X[7] <= 2524.992\ngini = 0.375\nsamples = 20\nvalue = [15, 5]"] ;
977 -> 978 ;
979 [label="X[9] <= 4606.351\ngini = 0.26\nsamples = 13\nvalue = [11, 2]"] ;
978 -> 979 ;
980 [label="X[3] <= 73272.67\ngini = 0.153\nsamples = 12\nvalue = [11, 1]"] ;
979 -> 980 ;
981 [label="X[7] <= 1377.668\ngini = 0.219\nsamples = 8\nvalue = [7, 1]"] ;
980 -> 981 ;
982 [label="gini = 0.0\nsamples = 5\nvalue = [5, 0]"] ;
981 -> 982 ;
983 [label="X[17] <= 7927.371\ngini = 0.444\nsamples = 3\nvalue = [2, 1]"] ;
981 -> 983 ;
984 [label="gini = 0.0\nsamples = 2\nvalue = [2, 0]"] ;
983 -> 984 ;
985 [label="gini = 0.0\nsamples = 1\nvalue = [0, 1]"] ;
983 -> 985 ;
986 [label="gini = 0.0\nsamples = 4\nvalue = [4, 0]"] ;
980 -> 986 ;
987 [label="gini = 0.0\nsamples = 1\nvalue = [0, 1]"] ;
979 -> 987 ;
988 [label="X[18] <= 113.957\ngini = 0.49\nsamples = 7\nvalue = [4, 3]"] ;
978 -> 988 ;
989 [label="X[19] <= 14105.701\ngini = 0.375\nsamples = 4\nvalue = [1, 3]"] ;
988 -> 989 ;
990 [label="gini = 0.0\nsamples = 3\nvalue = [0, 3]"] ;
989 -> 990 ;
991 [label="gini = 0.0\nsamples = 1\nvalue = [1, 0]"] ;
989 -> 991 ;
992 [label="gini = 0.0\nsamples = 3\nvalue = [3, 0]"] ;
988 -> 992 ;
993 [label="gini = 0.0\nsamples = 1\nvalue = [0, 1]"] ;
977 -> 993 ;
994 [label="gini = 0.0\nsamples = 1\nvalue = [0, 1]"] ;
976 -> 994 ;
995 [label="X[13] <= 3191.257\ngini = 0.444\nsamples = 57\nvalue = [38, 19]"] ;
911 -> 995 ;
996 [label="X[1] <= 172.263\ngini = 0.431\nsamples = 54\nvalue = [37, 17]"] ;
995 -> 996 ;
997 [label="X[18] <= 65.076\ngini = 0.375\nsamples = 44\nvalue = [33, 11]"] ;
996 -> 997 ;
998 [label="X[1] <= 126.741\ngini = 0.278\nsamples = 18\nvalue = [15, 3]"] ;
997 -> 998 ;
999 [label="X[1] <= 84.622\ngini = 0.142\nsamples = 13\nvalue = [12, 1]"] ;
998 -> 999 ;
1000 [label="gini = 0.0\nsamples = 8\nvalue = [8, 0]"] ;
999 -> 1000 ;
1001 [label="X[14] <= -95.83\ngini = 0.32\nsamples = 5\nvalue = [4, 1]"] ;
999 -> 1001 ;
1002 [label="X[19] <= 1251.265\ngini = 0.444\nsamples = 3\nvalue = [2, 1]"] ;
1001 -> 1002 ;
1003 [label="gini = 0.0\nsamples = 1\nvalue = [1, 0]"] ;
1002 -> 1003 ;
1004 [label="X[15] <= 2757.959\ngini = 0.5\nsamples = 2\nvalue = [1, 1]"] ;
1002 -> 1004 ;
1005 [label="gini = 0.0\nsamples = 1\nvalue = [1, 0]"] ;
1004 -> 1005 ;
1006 [label="gini = 0.0\nsamples = 1\nvalue = [0, 1]"] ;
1004 -> 1006 ;
1007 [label="gini = 0.0\nsamples = 2\nvalue = [2, 0]"] ;
1001 -> 1007 ;
1008 [label="X[5] <= 670.857\ngini = 0.48\nsamples = 5\nvalue = [3, 2]"] ;
998 -> 1008 ;
1009 [label="X[10] <= 101.455\ngini = 0.5\nsamples = 4\nvalue = [2, 2]"] ;
1008 -> 1009 ;
1010 [label="gini = 0.0\nsamples = 1\nvalue = [1, 0]"] ;
1009 -> 1010 ;
1011 [label="X[13] <= 369.01\ngini = 0.444\nsamples = 3\nvalue = [1, 2]"] ;
1009 -> 1011 ;
1012 [label="gini = 0.0\nsamples = 1\nvalue = [1, 0]"] ;
1011 -> 1012 ;
1013 [label="gini = 0.0\nsamples = 2\nvalue = [0, 2]"] ;
1011 -> 1013 ;
1014 [label="gini = 0.0\nsamples = 1\nvalue = [1, 0]"] ;
1008 -> 1014 ;
1015 [label="X[19] <= 13236.56\ngini = 0.426\nsamples = 26\nvalue = [18, 8]"] ;
997 -> 1015 ;
1016 [label="X[13] <= 389.763\ngini = 0.432\nsamples = 19\nvalue = [13, 6]"] ;
1015 -> 1016 ;
1017 [label="gini = 0.0\nsamples = 2\nvalue = [2, 0]"] ;
1016 -> 1017 ;
1018 [label="X[2] <= -100.645\ngini = 0.457\nsamples = 17\nvalue = [11, 6]"] ;
1016 -> 1018 ;
1019 [label="X[11] <= 3060.219\ngini = 0.408\nsamples = 14\nvalue = [10, 4]"] ;
1018 -> 1019 ;
1020 [label="X[17] <= 10150.171\ngini = 0.444\nsamples = 12\nvalue = [8, 4]"] ;
1019 -> 1020 ;
1021 [label="X[23] <= 0.0\ngini = 0.397\nsamples = 11\nvalue = [8, 3]"] ;
1020 -> 1021 ;
1022 [label="X[7] <= 1638.962\ngini = 0.42\nsamples = 10\nvalue = [7, 3]"] ;
1021 -> 1022 ;
1023 [label="X[6] <= 106.323\ngini = 0.5\nsamples = 6\nvalue = [3, 3]"] ;
1022 -> 1023 ;
1024 [label="gini = 0.0\nsamples = 3\nvalue = [3, 0]"] ;
1023 -> 1024 ;
1025 [label="gini = 0.0\nsamples = 3\nvalue = [0, 3]"] ;
1023 -> 1025 ;
1026 [label="gini = 0.0\nsamples = 4\nvalue = [4, 0]"] ;
1022 -> 1026 ;
1027 [label="gini = 0.0\nsamples = 1\nvalue = [1, 0]"] ;
1021 -> 1027 ;
1028 [label="gini = 0.0\nsamples = 1\nvalue = [0, 1]"] ;
1020 -> 1028 ;
1029 [label="gini = 0.0\nsamples = 2\nvalue = [2, 0]"] ;
1019 -> 1029 ;
1030 [label="X[20] <= 165.408\ngini = 0.444\nsamples = 3\nvalue = [1, 2]"] ;
1018 -> 1030 ;
1031 [label="gini = 0.0\nsamples = 1\nvalue = [1, 0]"] ;
1030 -> 1031 ;
1032 [label="gini = 0.0\nsamples = 2\nvalue = [0, 2]"] ;
1030 -> 1032 ;
1033 [label="X[5] <= 443.328\ngini = 0.408\nsamples = 7\nvalue = [5, 2]"] ;
1015 -> 1033 ;
1034 [label="X[17] <= 9310.084\ngini = 0.32\nsamples = 5\nvalue = [4, 1]"] ;
1033 -> 1034 ;
1035 [label="gini = 0.0\nsamples = 3\nvalue = [3, 0]"] ;
1034 -> 1035 ;
1036 [label="X[13] <= 1716.873\ngini = 0.5\nsamples = 2\nvalue = [1, 1]"] ;
1034 -> 1036 ;
1037 [label="gini = 0.0\nsamples = 1\nvalue = [0, 1]"] ;
1036 -> 1037 ;
1038 [label="gini = 0.0\nsamples = 1\nvalue = [1, 0]"] ;
1036 -> 1038 ;
1039 [label="X[17] <= 11979.467\ngini = 0.5\nsamples = 2\nvalue = [1, 1]"] ;
1033 -> 1039 ;
1040 [label="gini = 0.0\nsamples = 1\nvalue = [1, 0]"] ;
1039 -> 1040 ;
1041 [label="gini = 0.0\nsamples = 1\nvalue = [0, 1]"] ;
1039 -> 1041 ;
1042 [label="X[10] <= 145.181\ngini = 0.48\nsamples = 10\nvalue = [4, 6]"] ;
996 -> 1042 ;
1043 [label="X[20] <= 658.036\ngini = 0.375\nsamples = 8\nvalue = [2, 6]"] ;
1042 -> 1043 ;
1044 [label="X[20] <= 568.656\ngini = 0.48\nsamples = 5\nvalue = [2, 3]"] ;
1043 -> 1044 ;
1045 [label="X[11] <= 2314.116\ngini = 0.375\nsamples = 4\nvalue = [1, 3]"] ;
1044 -> 1045 ;
1046 [label="gini = 0.0\nsamples = 3\nvalue = [0, 3]"] ;
1045 -> 1046 ;
1047 [label="gini = 0.0\nsamples = 1\nvalue = [1, 0]"] ;
1045 -> 1047 ;
1048 [label="gini = 0.0\nsamples = 1\nvalue = [1, 0]"] ;
1044 -> 1048 ;
1049 [label="gini = 0.0\nsamples = 3\nvalue = [0, 3]"] ;
1043 -> 1049 ;
1050 [label="gini = 0.0\nsamples = 2\nvalue = [2, 0]"] ;
1042 -> 1050 ;
1051 [label="X[5] <= 676.296\ngini = 0.444\nsamples = 3\nvalue = [1, 2]"] ;
995 -> 1051 ;
1052 [label="X[6] <= 47.805\ngini = 0.5\nsamples = 2\nvalue = [1, 1]"] ;
1051 -> 1052 ;
1053 [label="gini = 0.0\nsamples = 1\nvalue = [0, 1]"] ;
1052 -> 1053 ;
1054 [label="gini = 0.0\nsamples = 1\nvalue = [1, 0]"] ;
1052 -> 1054 ;
1055 [label="gini = 0.0\nsamples = 1\nvalue = [0, 1]"] ;
1051 -> 1055 ;
1056 [label="X[20] <= 1628.446\ngini = 0.49\nsamples = 21\nvalue = [12, 9]"] ;
758 -> 1056 ;
1057 [label="X[7] <= 4467.092\ngini = 0.444\nsamples = 12\nvalue = [4, 8]"] ;
1056 -> 1057 ;
1058 [label="X[11] <= 4143.517\ngini = 0.397\nsamples = 11\nvalue = [3, 8]"] ;
1057 -> 1058 ;
1059 [label="X[15] <= 7582.182\ngini = 0.32\nsamples = 10\nvalue = [2, 8]"] ;
1058 -> 1059 ;
1060 [label="X[10] <= 175.465\ngini = 0.245\nsamples = 7\nvalue = [1, 6]"] ;
1059 -> 1060 ;
1061 [label="gini = 0.0\nsamples = 6\nvalue = [0, 6]"] ;
1060 -> 1061 ;
1062 [label="gini = 0.0\nsamples = 1\nvalue = [1, 0]"] ;
1060 -> 1062 ;
1063 [label="X[9] <= 2651.429\ngini = 0.444\nsamples = 3\nvalue = [1, 2]"] ;
1059 -> 1063 ;
1064 [label="gini = 0.0\nsamples = 2\nvalue = [0, 2]"] ;
1063 -> 1064 ;
1065 [label="gini = 0.0\nsamples = 1\nvalue = [1, 0]"] ;
1063 -> 1065 ;
1066 [label="gini = 0.0\nsamples = 1\nvalue = [1, 0]"] ;
1058 -> 1066 ;
1067 [label="gini = 0.0\nsamples = 1\nvalue = [1, 0]"] ;
1057 -> 1067 ;
1068 [label="X[20] <= 1793.507\ngini = 0.198\nsamples = 9\nvalue = [8, 1]"] ;
1056 -> 1068 ;
1069 [label="gini = 0.0\nsamples = 6\nvalue = [6, 0]"] ;
1068 -> 1069 ;
1070 [label="X[1] <= 39.457\ngini = 0.444\nsamples = 3\nvalue = [2, 1]"] ;
1068 -> 1070 ;
1071 [label="gini = 0.0\nsamples = 1\nvalue = [0, 1]"] ;
1070 -> 1071 ;
1072 [label="gini = 0.0\nsamples = 2\nvalue = [2, 0]"] ;
1070 -> 1072 ;
1073 [label="X[16] <= 1.44\ngini = 0.165\nsamples = 110\nvalue = [100, 10]"] ;
117 -> 1073 ;
1074 [label="X[18] <= 31.427\ngini = 0.152\nsamples = 109\nvalue = [100, 9]"] ;
1073 -> 1074 ;
1075 [label="gini = 0.0\nsamples = 32\nvalue = [32, 0]"] ;
1074 -> 1075 ;
1076 [label="X[20] <= 78.011\ngini = 0.206\nsamples = 77\nvalue = [68, 9]"] ;
1074 -> 1076 ;
1077 [label="gini = 0.0\nsamples = 10\nvalue = [10, 0]"] ;
1076 -> 1077 ;
1078 [label="X[13] <= 1875.535\ngini = 0.233\nsamples = 67\nvalue = [58, 9]"] ;
1076 -> 1078 ;
1079 [label="X[18] <= 165.379\ngini = 0.216\nsamples = 65\nvalue = [57, 8]"] ;
1078 -> 1079 ;
1080 [label="X[19] <= 7584.356\ngini = 0.225\nsamples = 62\nvalue = [54, 8]"] ;
1079 -> 1080 ;
1081 [label="X[7] <= 4228.383\ngini = 0.332\nsamples = 38\nvalue = [30, 8]"] ;
1080 -> 1081 ;
1082 [label="X[8] <= 2.924\ngini = 0.383\nsamples = 31\nvalue = [23, 8]"] ;
1081 -> 1082 ;
1083 [label="X[18] <= 65.525\ngini = 0.328\nsamples = 29\nvalue = [23, 6]"] ;
1082 -> 1083 ;
1084 [label="gini = 0.0\nsamples = 8\nvalue = [8, 0]"] ;
1083 -> 1084 ;
1085 [label="X[2] <= -90.021\ngini = 0.408\nsamples = 21\nvalue = [15, 6]"] ;
1083 -> 1085 ;
1086 [label="X[19] <= 3774.018\ngini = 0.291\nsamples = 17\nvalue = [14, 3]"] ;
1085 -> 1086 ;
1087 [label="gini = 0.0\nsamples = 7\nvalue = [7, 0]"] ;
1086 -> 1087 ;
1088 [label="X[18] <= 99.856\ngini = 0.42\nsamples = 10\nvalue = [7, 3]"] ;
1086 -> 1088 ;
1089 [label="gini = 0.0\nsamples = 1\nvalue = [0, 1]"] ;
1088 -> 1089 ;
1090 [label="X[15] <= 3136.234\ngini = 0.346\nsamples = 9\nvalue = [7, 2]"] ;
1088 -> 1090 ;
1091 [label="X[17] <= 7325.786\ngini = 0.245\nsamples = 7\nvalue = [6, 1]"] ;
1090 -> 1091 ;
1092 [label="X[23] <= 0.0\ngini = 0.5\nsamples = 2\nvalue = [1, 1]"] ;
1091 -> 1092 ;
1093 [label="gini = 0.0\nsamples = 1\nvalue = [0, 1]"] ;
1092 -> 1093 ;
1094 [label="gini = 0.0\nsamples = 1\nvalue = [1, 0]"] ;
1092 -> 1094 ;
1095 [label="gini = 0.0\nsamples = 5\nvalue = [5, 0]"] ;
1091 -> 1095 ;
1096 [label="X[13] <= 952.88\ngini = 0.5\nsamples = 2\nvalue = [1, 1]"] ;
1090 -> 1096 ;
1097 [label="gini = 0.0\nsamples = 1\nvalue = [1, 0]"] ;
1096 -> 1097 ;
1098 [label="gini = 0.0\nsamples = 1\nvalue = [0, 1]"] ;
1096 -> 1098 ;
1099 [label="X[3] <= 9235.201\ngini = 0.375\nsamples = 4\nvalue = [1, 3]"] ;
1085 -> 1099 ;
1100 [label="gini = 0.0\nsamples = 3\nvalue = [0, 3]"] ;
1099 -> 1100 ;
1101 [label="gini = 0.0\nsamples = 1\nvalue = [1, 0]"] ;
1099 -> 1101 ;
1102 [label="gini = 0.0\nsamples = 2\nvalue = [0, 2]"] ;
1082 -> 1102 ;
1103 [label="gini = 0.0\nsamples = 7\nvalue = [7, 0]"] ;
1081 -> 1103 ;
1104 [label="gini = 0.0\nsamples = 24\nvalue = [24, 0]"] ;
1080 -> 1104 ;
1105 [label="gini = 0.0\nsamples = 3\nvalue = [3, 0]"] ;
1079 -> 1105 ;
1106 [label="X[9] <= 20.107\ngini = 0.5\nsamples = 2\nvalue = [1, 1]"] ;
1078 -> 1106 ;
1107 [label="gini = 0.0\nsamples = 1\nvalue = [0, 1]"] ;
1106 -> 1107 ;
1108 [label="gini = 0.0\nsamples = 1\nvalue = [1, 0]"] ;
1106 -> 1108 ;
1109 [label="gini = 0.0\nsamples = 1\nvalue = [0, 1]"] ;
1073 -> 1109 ;
1110 [label="X[7] <= 1031.533\ngini = 0.123\nsamples = 61\nvalue = [57, 4]"] ;
116 -> 1110 ;
1111 [label="gini = 0.0\nsamples = 5\nvalue = [5, 0]"] ;
1110 -> 1111 ;
1112 [label="X[11] <= 4682.56\ngini = 0.133\nsamples = 56\nvalue = [52, 4]"] ;
1110 -> 1112 ;
1113 [label="X[8] <= 0.444\ngini = 0.161\nsamples = 34\nvalue = [31, 3]"] ;
1112 -> 1113 ;
1114 [label="X[19] <= 4381.515\ngini = 0.227\nsamples = 23\nvalue = [20, 3]"] ;
1113 -> 1114 ;
1115 [label="X[2] <= -118.571\ngini = 0.337\nsamples = 14\nvalue = [11, 3]"] ;
1114 -> 1115 ;
1116 [label="X[1] <= 21.44\ngini = 0.444\nsamples = 6\nvalue = [4, 2]"] ;
1115 -> 1116 ;
1117 [label="gini = 0.0\nsamples = 2\nvalue = [2, 0]"] ;
1116 -> 1117 ;
1118 [label="X[5] <= 190.973\ngini = 0.5\nsamples = 4\nvalue = [2, 2]"] ;
1116 -> 1118 ;
1119 [label="gini = 0.0\nsamples = 2\nvalue = [2, 0]"] ;
1118 -> 1119 ;
1120 [label="gini = 0.0\nsamples = 2\nvalue = [0, 2]"] ;
1118 -> 1120 ;
1121 [label="X[19] <= 2834.743\ngini = 0.219\nsamples = 8\nvalue = [7, 1]"] ;
1115 -> 1121 ;
1122 [label="X[20] <= 943.147\ngini = 0.375\nsamples = 4\nvalue = [3, 1]"] ;
1121 -> 1122 ;
1123 [label="X[9] <= 201.203\ngini = 0.5\nsamples = 2\nvalue = [1, 1]"] ;
1122 -> 1123 ;
1124 [label="gini = 0.0\nsamples = 1\nvalue = [1, 0]"] ;
1123 -> 1124 ;
1125 [label="gini = 0.0\nsamples = 1\nvalue = [0, 1]"] ;
1123 -> 1125 ;
1126 [label="gini = 0.0\nsamples = 2\nvalue = [2, 0]"] ;
1122 -> 1126 ;
1127 [label="gini = 0.0\nsamples = 4\nvalue = [4, 0]"] ;
1121 -> 1127 ;
1128 [label="gini = 0.0\nsamples = 9\nvalue = [9, 0]"] ;
1114 -> 1128 ;
1129 [label="gini = 0.0\nsamples = 11\nvalue = [11, 0]"] ;
1113 -> 1129 ;
1130 [label="X[6] <= -70.415\ngini = 0.087\nsamples = 22\nvalue = [21, 1]"] ;
1112 -> 1130 ;
1131 [label="gini = 0.0\nsamples = 4\nvalue = [4, 0]"] ;
1130 -> 1131 ;
1132 [label="X[22] <= 0.008\ngini = 0.105\nsamples = 18\nvalue = [17, 1]"] ;
1130 -> 1132 ;
1133 [label="X[10] <= -56.388\ngini = 0.18\nsamples = 10\nvalue = [9, 1]"] ;
1132 -> 1133 ;
1134 [label="gini = 0.0\nsamples = 2\nvalue = [2, 0]"] ;
1133 -> 1134 ;
1135 [label="X[11] <= 6690.36\ngini = 0.219\nsamples = 8\nvalue = [7, 1]"] ;
1133 -> 1135 ;
1136 [label="gini = 0.0\nsamples = 4\nvalue = [4, 0]"] ;
1135 -> 1136 ;
1137 [label="X[21] <= 4.703\ngini = 0.375\nsamples = 4\nvalue = [3, 1]"] ;
1135 -> 1137 ;
1138 [label="gini = 0.0\nsamples = 3\nvalue = [3, 0]"] ;
1137 -> 1138 ;
1139 [label="gini = 0.0\nsamples = 1\nvalue = [0, 1]"] ;
1137 -> 1139 ;
1140 [label="gini = 0.0\nsamples = 8\nvalue = [8, 0]"] ;
1132 -> 1140 ;
1141 [label="X[21] <= 1.053\ngini = 0.444\nsamples = 36\nvalue = [12, 24]"] ;
115 -> 1141 ;
1142 [label="X[5] <= 2853.542\ngini = 0.431\nsamples = 35\nvalue = [11, 24]"] ;
1141 -> 1142 ;
1143 [label="X[23] <= 0.0\ngini = 0.412\nsamples = 31\nvalue = [9, 22]"] ;
1142 -> 1143 ;
1144 [label="X[18] <= 25.099\ngini = 0.391\nsamples = 30\nvalue = [8, 22]"] ;
1143 -> 1144 ;
1145 [label="X[22] <= 0.0\ngini = 0.332\nsamples = 19\nvalue = [4, 15]"] ;
1144 -> 1145 ;
1146 [label="X[15] <= 11833.438\ngini = 0.278\nsamples = 18\nvalue = [3, 15]"] ;
1145 -> 1146 ;
1147 [label="X[19] <= 3973.914\ngini = 0.305\nsamples = 16\nvalue = [3, 13]"] ;
1146 -> 1147 ;
1148 [label="X[11] <= 4171.046\ngini = 0.355\nsamples = 13\nvalue = [3, 10]"] ;
1147 -> 1148 ;
1149 [label="X[19] <= 1867.085\ngini = 0.32\nsamples = 10\nvalue = [2, 8]"] ;
1148 -> 1149 ;
1150 [label="X[9] <= 2238.432\ngini = 0.346\nsamples = 9\nvalue = [2, 7]"] ;
1149 -> 1150 ;
1151 [label="X[7] <= 2163.202\ngini = 0.245\nsamples = 7\nvalue = [1, 6]"] ;
1150 -> 1151 ;
1152 [label="gini = 0.0\nsamples = 4\nvalue = [0, 4]"] ;
1151 -> 1152 ;
1153 [label="X[10] <= 1.752\ngini = 0.444\nsamples = 3\nvalue = [1, 2]"] ;
1151 -> 1153 ;
1154 [label="gini = 0.0\nsamples = 1\nvalue = [0, 1]"] ;
1153 -> 1154 ;
1155 [label="X[10] <= 60.694\ngini = 0.5\nsamples = 2\nvalue = [1, 1]"] ;
1153 -> 1155 ;
1156 [label="gini = 0.0\nsamples = 1\nvalue = [0, 1]"] ;
1155 -> 1156 ;
1157 [label="gini = 0.0\nsamples = 1\nvalue = [1, 0]"] ;
1155 -> 1157 ;
1158 [label="X[3] <= 214729.44\ngini = 0.5\nsamples = 2\nvalue = [1, 1]"] ;
1150 -> 1158 ;
1159 [label="gini = 0.0\nsamples = 1\nvalue = [1, 0]"] ;
1158 -> 1159 ;
1160 [label="gini = 0.0\nsamples = 1\nvalue = [0, 1]"] ;
1158 -> 1160 ;
1161 [label="gini = 0.0\nsamples = 1\nvalue = [0, 1]"] ;
1149 -> 1161 ;
1162 [label="X[17] <= 8461.157\ngini = 0.444\nsamples = 3\nvalue = [1, 2]"] ;
1148 -> 1162 ;
1163 [label="gini = 0.0\nsamples = 1\nvalue = [1, 0]"] ;
1162 -> 1163 ;
1164 [label="gini = 0.0\nsamples = 2\nvalue = [0, 2]"] ;
1162 -> 1164 ;
1165 [label="gini = 0.0\nsamples = 3\nvalue = [0, 3]"] ;
1147 -> 1165 ;
1166 [label="gini = 0.0\nsamples = 2\nvalue = [0, 2]"] ;
1146 -> 1166 ;
1167 [label="gini = 0.0\nsamples = 1\nvalue = [1, 0]"] ;
1145 -> 1167 ;
1168 [label="X[3] <= 331456.319\ngini = 0.463\nsamples = 11\nvalue = [4, 7]"] ;
1144 -> 1168 ;
1169 [label="X[15] <= 15363.447\ngini = 0.42\nsamples = 10\nvalue = [3, 7]"] ;
1168 -> 1169 ;
1170 [label="X[5] <= 283.511\ngini = 0.346\nsamples = 9\nvalue = [2, 7]"] ;
1169 -> 1170 ;
1171 [label="X[5] <= 20.818\ngini = 0.278\nsamples = 6\nvalue = [1, 5]"] ;
1170 -> 1171 ;
1172 [label="gini = 0.0\nsamples = 1\nvalue = [1, 0]"] ;
1171 -> 1172 ;
1173 [label="gini = 0.0\nsamples = 5\nvalue = [0, 5]"] ;
1171 -> 1173 ;
1174 [label="X[18] <= 124.95\ngini = 0.444\nsamples = 3\nvalue = [1, 2]"] ;
1170 -> 1174 ;
1175 [label="X[11] <= 1276.048\ngini = 0.5\nsamples = 2\nvalue = [1, 1]"] ;
1174 -> 1175 ;
1176 [label="gini = 0.0\nsamples = 1\nvalue = [1, 0]"] ;
1175 -> 1176 ;
1177 [label="gini = 0.0\nsamples = 1\nvalue = [0, 1]"] ;
1175 -> 1177 ;
1178 [label="gini = 0.0\nsamples = 1\nvalue = [0, 1]"] ;
1174 -> 1178 ;
1179 [label="gini = 0.0\nsamples = 1\nvalue = [1, 0]"] ;
1169 -> 1179 ;
1180 [label="gini = 0.0\nsamples = 1\nvalue = [1, 0]"] ;
1168 -> 1180 ;
1181 [label="gini = 0.0\nsamples = 1\nvalue = [1, 0]"] ;
1143 -> 1181 ;
1182 [label="X[19] <= 1524.601\ngini = 0.5\nsamples = 4\nvalue = [2, 2]"] ;
1142 -> 1182 ;
1183 [label="gini = 0.0\nsamples = 2\nvalue = [2, 0]"] ;
1182 -> 1183 ;
1184 [label="gini = 0.0\nsamples = 2\nvalue = [0, 2]"] ;
1182 -> 1184 ;
1185 [label="gini = 0.0\nsamples = 1\nvalue = [1, 0]"] ;
1141 -> 1185 ;
1186 [label="X[18] <= -0.548\ngini = 0.413\nsamples = 2793\nvalue = [1978, 815]"] ;
114 -> 1186 ;
1187 [label="X[21] <= 4.812\ngini = 0.371\nsamples = 1732\nvalue = [1306, 426]"] ;
1186 -> 1187 ;
1188 [label="X[4] <= 0.442\ngini = 0.373\nsamples = 1716\nvalue = [1290, 426]"] ;
1187 -> 1188 ;
1189 [label="X[11] <= 8903.06\ngini = 0.385\nsamples = 1632\nvalue = [1208, 424]"] ;
1188 -> 1189 ;
1190 [label="X[15] <= 135764.708\ngini = 0.364\nsamples = 1532\nvalue = [1166, 366]"] ;
1189 -> 1190 ;
1191 [label="X[9] <= 2663.682\ngini = 0.373\nsamples = 1474\nvalue = [1108, 366]"] ;
1190 -> 1191 ;
1192 [label="X[5] <= 2317.014\ngini = 0.384\nsamples = 1399\nvalue = [1037, 362]"] ;
1191 -> 1192 ;
1193 [label="X[13] <= 2016.285\ngini = 0.394\nsamples = 1245\nvalue = [909, 336]"] ;
1192 -> 1193 ;
1194 [label="X[7] <= 10255.402\ngini = 0.404\nsamples = 1087\nvalue = [782, 305]"] ;
1193 -> 1194 ;
1195 [label="X[23] <= 0.0\ngini = 0.396\nsamples = 1028\nvalue = [748, 280]"] ;
1194 -> 1195 ;
1196 [label="X[13] <= 1003.645\ngini = 0.401\nsamples = 1011\nvalue = [731, 280]"] ;
1195 -> 1196 ;
1197 [label="X[18] <= -114.294\ngini = 0.369\nsamples = 675\nvalue = [510, 165]"] ;
1196 -> 1197 ;
1198 [label="X[6] <= -27.741\ngini = 0.341\nsamples = 229\nvalue = [179, 50]"] ;
1197 -> 1198 ;
1199 [label="X[2] <= -124.186\ngini = 0.418\nsamples = 111\nvalue = [78, 33]"] ;
1198 -> 1199 ;
1200 [label="X[11] <= 1755.906\ngini = 0.497\nsamples = 50\nvalue = [27, 23]"] ;
1199 -> 1200 ;
1201 [label="X[3] <= 209581.928\ngini = 0.499\nsamples = 27\nvalue = [13, 14]"] ;
1200 -> 1201 ;
1202 [label="X[10] <= -109.536\ngini = 0.42\nsamples = 20\nvalue = [6, 14]"] ;
1201 -> 1202 ;
1203 [label="gini = 0.0\nsamples = 1\nvalue = [1, 0]"] ;
1202 -> 1203 ;
1204 [label="X[1] <= 770.616\ngini = 0.388\nsamples = 19\nvalue = [5, 14]"] ;
1202 -> 1204 ;
1205 [label="X[17] <= 5258.17\ngini = 0.305\nsamples = 16\nvalue = [3, 13]"] ;
1204 -> 1205 ;
1206 [label="X[3] <= 16930.609\ngini = 0.5\nsamples = 6\nvalue = [3, 3]"] ;
1205 -> 1206 ;
1207 [label="X[14] <= -11.676\ngini = 0.375\nsamples = 4\nvalue = [3, 1]"] ;
1206 -> 1207 ;
1208 [label="gini = 0.0\nsamples = 2\nvalue = [2, 0]"] ;
1207 -> 1208 ;
1209 [label="X[18] <= -143.842\ngini = 0.5\nsamples = 2\nvalue = [1, 1]"] ;
1207 -> 1209 ;
1210 [label="gini = 0.0\nsamples = 1\nvalue = [1, 0]"] ;
1209 -> 1210 ;
1211 [label="gini = 0.0\nsamples = 1\nvalue = [0, 1]"] ;
1209 -> 1211 ;
1212 [label="gini = 0.0\nsamples = 2\nvalue = [0, 2]"] ;
1206 -> 1212 ;
1213 [label="gini = 0.0\nsamples = 10\nvalue = [0, 10]"] ;
1205 -> 1213 ;
1214 [label="X[9] <= 228.416\ngini = 0.444\nsamples = 3\nvalue = [2, 1]"] ;
1204 -> 1214 ;
1215 [label="X[20] <= 773.311\ngini = 0.5\nsamples = 2\nvalue = [1, 1]"] ;
1214 -> 1215 ;
1216 [label="gini = 0.0\nsamples = 1\nvalue = [0, 1]"] ;
1215 -> 1216 ;
1217 [label="gini = 0.0\nsamples = 1\nvalue = [1, 0]"] ;
1215 -> 1217 ;
1218 [label="gini = 0.0\nsamples = 1\nvalue = [1, 0]"] ;
1214 -> 1218 ;
1219 [label="gini = 0.0\nsamples = 7\nvalue = [7, 0]"] ;
1201 -> 1219 ;
1220 [label="X[13] <= 918.095\ngini = 0.476\nsamples = 23\nvalue = [14, 9]"] ;
1200 -> 1220 ;
1221 [label="X[21] <= 0.565\ngini = 0.432\nsamples = 19\nvalue = [13, 6]"] ;
1220 -> 1221 ;
1222 [label="X[11] <= 6698.105\ngini = 0.444\nsamples = 18\nvalue = [12, 6]"] ;
1221 -> 1222 ;
1223 [label="X[5] <= 394.928\ngini = 0.375\nsamples = 16\nvalue = [12, 4]"] ;
1222 -> 1223 ;
1224 [label="X[5] <= 286.461\ngini = 0.26\nsamples = 13\nvalue = [11, 2]"] ;
1223 -> 1224 ;
1225 [label="gini = 0.0\nsamples = 9\nvalue = [9, 0]"] ;
1224 -> 1225 ;
1226 [label="X[18] <= -136.287\ngini = 0.5\nsamples = 4\nvalue = [2, 2]"] ;
1224 -> 1226 ;
1227 [label="X[2] <= -171.558\ngini = 0.444\nsamples = 3\nvalue = [1, 2]"] ;
1226 -> 1227 ;
1228 [label="gini = 0.0\nsamples = 1\nvalue = [1, 0]"] ;
1227 -> 1228 ;
1229 [label="gini = 0.0\nsamples = 2\nvalue = [0, 2]"] ;
1227 -> 1229 ;
1230 [label="gini = 0.0\nsamples = 1\nvalue = [1, 0]"] ;
1226 -> 1230 ;
1231 [label="X[13] <= 527.571\ngini = 0.444\nsamples = 3\nvalue = [1, 2]"] ;
1223 -> 1231 ;
1232 [label="gini = 0.0\nsamples = 1\nvalue = [1, 0]"] ;
1231 -> 1232 ;
1233 [label="gini = 0.0\nsamples = 2\nvalue = [0, 2]"] ;
1231 -> 1233 ;
1234 [label="gini = 0.0\nsamples = 2\nvalue = [0, 2]"] ;
1222 -> 1234 ;
1235 [label="gini = 0.0\nsamples = 1\nvalue = [1, 0]"] ;
1221 -> 1235 ;
1236 [label="X[11] <= 2617.33\ngini = 0.375\nsamples = 4\nvalue = [1, 3]"] ;
1220 -> 1236 ;
1237 [label="gini = 0.0\nsamples = 1\nvalue = [1, 0]"] ;
1236 -> 1237 ;
1238 [label="gini = 0.0\nsamples = 3\nvalue = [0, 3]"] ;
1236 -> 1238 ;
1239 [label="X[1] <= 2540.456\ngini = 0.274\nsamples = 61\nvalue = [51, 10]"] ;
1199 -> 1239 ;
1240 [label="X[18] <= -142.921\ngini = 0.452\nsamples = 29\nvalue = [19, 10]"] ;
1239 -> 1240 ;
1241 [label="X[3] <= 308395.364\ngini = 0.198\nsamples = 9\nvalue = [8, 1]"] ;
1240 -> 1241 ;
1242 [label="gini = 0.0\nsamples = 6\nvalue = [6, 0]"] ;
1241 -> 1242 ;
1243 [label="X[14] <= -90.186\ngini = 0.444\nsamples = 3\nvalue = [2, 1]"] ;
1241 -> 1243 ;
1244 [label="X[19] <= 9258.793\ngini = 0.5\nsamples = 2\nvalue = [1, 1]"] ;
1243 -> 1244 ;
1245 [label="gini = 0.0\nsamples = 1\nvalue = [0, 1]"] ;
1244 -> 1245 ;
1246 [label="gini = 0.0\nsamples = 1\nvalue = [1, 0]"] ;
1244 -> 1246 ;
1247 [label="gini = 0.0\nsamples = 1\nvalue = [1, 0]"] ;
1243 -> 1247 ;
1248 [label="X[20] <= 1213.246\ngini = 0.495\nsamples = 20\nvalue = [11, 9]"] ;
1240 -> 1248 ;
