digraph Tree {
node [shape=box, style="filled, rounded", color="black", fontname=helvetica] ;
edge [fontname=helvetica] ;
0 [label="brazil_apartment_near_price <= 64315.534\ngini = 0.345\nsamples = 20862\nvalue = [16243, 4619]", fillcolor="#eca571"] ;
1 [label="sao_paulo_apartment_count_listings <= 55.895\ngini = 0.347\nsamples = 20653\nvalue = [16036, 4617]", fillcolor="#eca572"] ;
0 -> 1 [labeldistance=2.5, labelangle=45, headlabel="True"] ;
2 [label="population_estimate <= 6868.998\ngini = 0.347\nsamples = 20648\nvalue = [16034, 4614]", fillcolor="#eca572"] ;
1 -> 2 ;
3 [label="sao_paulo_apartment_near_angle <= -72.644\ngini = 0.345\nsamples = 20580\nvalue = [16010, 4570]", fillcolor="#eca572"] ;
2 -> 3 ;
4 [label="total_listing_count <= 12.178\ngini = 0.378\nsamples = 4604\nvalue = [3441, 1163]", fillcolor="#eeac7c"] ;
3 -> 4 ;
5 [label="total_listing_count <= 6.105\ngini = 0.379\nsamples = 4577\nvalue = [3414, 1163]", fillcolor="#eeac7c"] ;
4 -> 5 ;
6 [label="brazil_store_near_angle <= -167.21\ngini = 0.381\nsamples = 4535\nvalue = [3374, 1161]", fillcolor="#eeac7d"] ;
5 -> 6 ;
7 [label="population_estimate <= 2446.668\ngini = 0.276\nsamples = 145\nvalue = [121, 24]", fillcolor="#ea9a60"] ;
6 -> 7 ;
8 [label="sao_paulo_apartment_near_dist <= 2333.455\ngini = 0.262\nsamples = 142\nvalue = [120, 22]", fillcolor="#ea985d"] ;
7 -> 8 ;
9 [label="brazil_store_near_angle <= -171.633\ngini = 0.285\nsamples = 128\nvalue = [106, 22]", fillcolor="#ea9b62"] ;
8 -> 9 ;
10 [label="population_estimate <= 1757.002\ngini = 0.184\nsamples = 78\nvalue = [70, 8]", fillcolor="#e88f50"] ;
9 -> 10 ;
11 [label="population_estimate <= 372.803\ngini = 0.186\nsamples = 77\nvalue = [69, 8]", fillcolor="#e89050"] ;
10 -> 11 ;
12 [label="brazil_house_near_angle <= -168.771\ngini = 0.291\nsamples = 34\nvalue = [28, 6]", fillcolor="#eb9c63"] ;
11 -> 12 ;
13 [label="gini = 0.0\nsamples = 2\nvalue = [0, 2]", fillcolor="#399de5"] ;
12 -> 13 ;
14 [label="sao_paulo_apartment_near_dist <= 168.949\ngini = 0.219\nsamples = 32\nvalue = [28, 4]", fillcolor="#e99355"] ;
12 -> 14 ;
15 [label="sao_paulo_apartment_near_angle <= -116.131\ngini = 0.105\nsamples = 18\nvalue = [17, 1]", fillcolor="#e78845"] ;
14 -> 15 ;
16 [label="sao_paulo_apartment_near_angle <= -175.495\ngini = 0.165\nsamples = 11\nvalue = [10, 1]", fillcolor="#e88e4d"] ;
15 -> 16 ;
17 [label="brazil_apartment_near_price <= 1578.076\ngini = 0.375\nsamples = 4\nvalue = [3, 1]", fillcolor="#eeab7b"] ;
16 -> 17 ;
18 [label="gini = 0.0\nsamples = 1\nvalue = [0, 1]", fillcolor="#399de5"] ;
17 -> 18 ;
19 [label="gini = 0.0\nsamples = 3\nvalue = [3, 0]", fillcolor="#e58139"] ;
17 -> 19 ;
20 [label="gini = 0.0\nsamples = 7\nvalue = [7, 0]", fillcolor="#e58139"] ;
16 -> 20 ;
21 [label="gini = 0.0\nsamples = 7\nvalue = [7, 0]", fillcolor="#e58139"] ;
15 -> 21 ;
22 [label="sao_paulo_apartment_near_dist <= 357.783\ngini = 0.337\nsamples = 14\nvalue = [11, 3]", fillcolor="#eca36f"] ;
14 -> 22 ;
23 [label="brazil_apartment_near_dist <= 648.257\ngini = 0.408\nsamples = 7\nvalue = [5, 2]", fillcolor="#efb388"] ;
22 -> 23 ;
24 [label="total_listing_count <= 0.488\ngini = 0.5\nsamples = 4\nvalue = [2, 2]", fillcolor="#ffffff"] ;
23 -> 24 ;
25 [label="brazil_apartment_near_angle <= -122.549\ngini = 0.444\nsamples = 3\nvalue = [1, 2]", fillcolor="#9ccef2"] ;
24 -> 25 ;
26 [label="gini = 0.0\nsamples = 1\nvalue = [0, 1]", fillcolor="#399de5"] ;
25 -> 26 ;
27 [label="brazil_house_near_angle <= -114.018\ngini = 0.5\nsamples = 2\nvalue = [1, 1]", fillcolor="#ffffff"] ;
25 -> 27 ;
28 [label="gini = 0.0\nsamples = 1\nvalue = [1, 0]", fillcolor="#e58139"] ;
27 -> 28 ;
29 [label="gini = 0.0\nsamples = 1\nvalue = [0, 1]", fillcolor="#399de5"] ;
27 -> 29 ;
30 [label="gini = 0.0\nsamples = 1\nvalue = [1, 0]", fillcolor="#e58139"] ;
24 -> 30 ;
31 [label="gini = 0.0\nsamples = 3\nvalue = [3, 0]", fillcolor="#e58139"] ;
23 -> 31 ;
32 [label="sao_paulo_apartment_near_price <= 325156.767\ngini = 0.245\nsamples = 7\nvalue = [6, 1]", fillcolor="#e9965a"] ;
22 -> 32 ;
33 [label="brazil_store_near_price <= 26600.813\ngini = 0.375\nsamples = 4\nvalue = [3, 1]", fillcolor="#eeab7b"] ;
32 -> 33 ;
34 [label="brazil_store_near_dist <= 1293.001\ngini = 0.444\nsamples = 3\nvalue = [2, 1]", fillcolor="#f2c09c"] ;
33 -> 34 ;
35 [label="gini = 0.0\nsamples = 2\nvalue = [2, 0]", fillcolor="#e58139"] ;
34 -> 35 ;
36 [label="gini = 0.0\nsamples = 1\nvalue = [0, 1]", fillcolor="#399de5"] ;
34 -> 36 ;
37 [label="gini = 0.0\nsamples = 1\nvalue = [1, 0]", fillcolor="#e58139"] ;
33 -> 37 ;
38 [label="gini = 0.0\nsamples = 3\nvalue = [3, 0]", fillcolor="#e58139"] ;
32 -> 38 ;
39 [label="sao_paulo_apartment_near_price <= 745865.611\ngini = 0.089\nsamples = 43\nvalue = [41, 2]", fillcolor="#e68743"] ;
11 -> 39 ;
40 [label="brazil_store_near_dist <= 1809.333\ngini = 0.095\nsamples = 40\nvalue = [38, 2]", fillcolor="#e68843"] ;
39 -> 40 ;
41 [label="sao_paulo_apartment_near_price <= 222232.836\ngini = 0.056\nsamples = 35\nvalue = [34, 1]", fillcolor="#e6853f"] ;
40 -> 41 ;
42 [label="sao_paulo_apartment_near_price <= 90760.102\ngini = 0.067\nsamples = 29\nvalue = [28, 1]", fillcolor="#e68640"] ;
41 -> 42 ;
43 [label="brazil_house_near_angle <= -139.611\ngini = 0.124\nsamples = 15\nvalue = [14, 1]", fillcolor="#e78a47"] ;
42 -> 43 ;
44 [label="sao_paulo_apartment_near_price <= 1882.292\ngini = 0.444\nsamples = 3\nvalue = [2, 1]", fillcolor="#f2c09c"] ;
43 -> 44 ;
45 [label="gini = 0.0\nsamples = 2\nvalue = [2, 0]", fillcolor="#e58139"] ;
44 -> 45 ;
46 [label="gini = 0.0\nsamples = 1\nvalue = [0, 1]", fillcolor="#399de5"] ;
44 -> 46 ;
47 [label="gini = 0.0\nsamples = 12\nvalue = [12, 0]", fillcolor="#e58139"] ;
43 -> 47 ;
48 [label="gini = 0.0\nsamples = 14\nvalue = [14, 0]", fillcolor="#e58139"] ;
42 -> 48 ;
49 [label="gini = 0.0\nsamples = 6\nvalue = [6, 0]", fillcolor="#e58139"] ;
41 -> 49 ;
50 [label="brazil_ph_near_angle <= 14.027\ngini = 0.32\nsamples = 5\nvalue = [4, 1]", fillcolor="#eca06a"] ;
40 -> 50 ;
51 [label="gini = 0.0\nsamples = 4\nvalue = [4, 0]", fillcolor="#e58139"] ;
50 -> 51 ;
52 [label="gini = 0.0\nsamples = 1\nvalue = [0, 1]", fillcolor="#399de5"] ;
50 -> 52 ;
53 [label="gini = 0.0\nsamples = 3\nvalue = [3, 0]", fillcolor="#e58139"] ;
39 -> 53 ;
54 [label="gini = 0.0\nsamples = 1\nvalue = [1, 0]", fillcolor="#e58139"] ;
10 -> 54 ;
55 [label="brazil_apartment_count_listings <= 4.572\ngini = 0.403\nsamples = 50\nvalue = [36, 14]", fillcolor="#efb286"] ;
9 -> 55 ;
56 [label="listing/pop <= 0.036\ngini = 0.39\nsamples = 49\nvalue = [36, 13]", fillcolor="#eeae80"] ;
55 -> 56 ;
57 [label="brazil_house_near_price <= 4289.111\ngini = 0.395\nsamples = 48\nvalue = [35, 13]", fillcolor="#efb083"] ;
56 -> 57 ;
58 [label="sao_paulo_apartment_near_angle <= -80.069\ngini = 0.369\nsamples = 41\nvalue = [31, 10]", fillcolor="#edaa79"] ;
57 -> 58 ;
59 [label="population_estimate <= 1734.265\ngini = 0.381\nsamples = 39\nvalue = [29, 10]", fillcolor="#eeac7d"] ;
58 -> 59 ;
60 [label="listing/area <= 0.0\ngini = 0.339\nsamples = 37\nvalue = [29, 8]", fillcolor="#eca470"] ;
59 -> 60 ;
61 [label="listing/area <= 0.0\ngini = 0.313\nsamples = 36\nvalue = [29, 7]", fillcolor="#eb9f69"] ;
60 -> 61 ;
62 [label="brazil_store_near_dist <= 1271.747\ngini = 0.327\nsamples = 34\nvalue = [27, 7]", fillcolor="#eca26c"] ;
61 -> 62 ;
63 [label="brazil_house_near_dist <= 378.032\ngini = 0.365\nsamples = 25\nvalue = [19, 6]", fillcolor="#eda978"] ;
62 -> 63 ;
64 [label="brazil_apartment_near_price <= 7898.915\ngini = 0.298\nsamples = 11\nvalue = [9, 2]", fillcolor="#eb9d65"] ;
63 -> 64 ;
65 [label="brazil_apartment_near_angle <= -97.486\ngini = 0.18\nsamples = 10\nvalue = [9, 1]", fillcolor="#e88f4f"] ;
64 -> 65 ;
66 [label="gini = 0.0\nsamples = 5\nvalue = [5, 0]", fillcolor="#e58139"] ;
65 -> 66 ;
67 [label="brazil_apartment_near_dist <= 519.373\ngini = 0.32\nsamples = 5\nvalue = [4, 1]", fillcolor="#eca06a"] ;
65 -> 67 ;
68 [label="gini = 0.0\nsamples = 4\nvalue = [4, 0]", fillcolor="#e58139"] ;
67 -> 68 ;
69 [label="gini = 0.0\nsamples = 1\nvalue = [0, 1]", fillcolor="#399de5"] ;
67 -> 69 ;
70 [label="gini = 0.0\nsamples = 1\nvalue = [0, 1]", fillcolor="#399de5"] ;
64 -> 70 ;
71 [label="brazil_house_near_dist <= 444.586\ngini = 0.408\nsamples = 14\nvalue = [10, 4]", fillcolor="#efb388"] ;
63 -> 71 ;
72 [label="gini = 0.0\nsamples = 2\nvalue = [2, 0]", fillcolor="#e58139"] ;
71 -> 72 ;
73 [label="sao_paulo_apartment_near_angle <= -129.19\ngini = 0.444\nsamples = 12\nvalue = [8, 4]", fillcolor="#f2c09c"] ;
71 -> 73 ;
74 [label="gini = 0.0\nsamples = 5\nvalue = [5, 0]", fillcolor="#e58139"] ;
73 -> 74 ;
75 [label="brazil_ph_near_angle <= 0.773\ngini = 0.49\nsamples = 7\nvalue = [3, 4]", fillcolor="#cee6f8"] ;
73 -> 75 ;
76 [label="brazil_ph_near_dist <= 2477.997\ngini = 0.375\nsamples = 4\nvalue = [3, 1]", fillcolor="#eeab7b"] ;
75 -> 76 ;
77 [label="gini = 0.0\nsamples = 2\nvalue = [2, 0]", fillcolor="#e58139"] ;
76 -> 77 ;
78 [label="population_estimate <= 515.42\ngini = 0.5\nsamples = 2\nvalue = [1, 1]", fillcolor="#ffffff"] ;
76 -> 78 ;
79 [label="gini = 0.0\nsamples = 1\nvalue = [1, 0]", fillcolor="#e58139"] ;
78 -> 79 ;
80 [label="gini = 0.0\nsamples = 1\nvalue = [0, 1]", fillcolor="#399de5"] ;
78 -> 80 ;
81 [label="gini = 0.0\nsamples = 3\nvalue = [0, 3]", fillcolor="#399de5"] ;
75 -> 81 ;
82 [label="brazil_ph_near_price <= 1568.785\ngini = 0.198\nsamples = 9\nvalue = [8, 1]", fillcolor="#e89152"] ;
62 -> 82 ;
83 [label="gini = 0.0\nsamples = 4\nvalue = [4, 0]", fillcolor="#e58139"] ;
82 -> 83 ;
84 [label="brazil_apartment_near_angle <= -130.066\ngini = 0.32\nsamples = 5\nvalue = [4, 1]", fillcolor="#eca06a"] ;
82 -> 84 ;
85 [label="brazil_ph_near_angle <= 130.752\ngini = 0.5\nsamples = 2\nvalue = [1, 1]", fillcolor="#ffffff"] ;
84 -> 85 ;
86 [label="gini = 0.0\nsamples = 1\nvalue = [0, 1]", fillcolor="#399de5"] ;
85 -> 86 ;
87 [label="gini = 0.0\nsamples = 1\nvalue = [1, 0]", fillcolor="#e58139"] ;
85 -> 87 ;
88 [label="gini = 0.0\nsamples = 3\nvalue = [3, 0]", fillcolor="#e58139"] ;
84 -> 88 ;
89 [label="gini = 0.0\nsamples = 2\nvalue = [2, 0]", fillcolor="#e58139"] ;
61 -> 89 ;
90 [label="gini = 0.0\nsamples = 1\nvalue = [0, 1]", fillcolor="#399de5"] ;
60 -> 90 ;
91 [label="gini = 0.0\nsamples = 2\nvalue = [0, 2]", fillcolor="#399de5"] ;
59 -> 91 ;
92 [label="gini = 0.0\nsamples = 2\nvalue = [2, 0]", fillcolor="#e58139"] ;
58 -> 92 ;
93 [label="brazil_ph_near_price <= 3831.843\ngini = 0.49\nsamples = 7\nvalue = [4, 3]", fillcolor="#f8e0ce"] ;
57 -> 93 ;
94 [label="listing/pop <= 0.005\ngini = 0.444\nsamples = 6\nvalue = [4, 2]", fillcolor="#f2c09c"] ;
93 -> 94 ;
95 [label="sao_paulo_apartment_near_price <= 169636.46\ngini = 0.48\nsamples = 5\nvalue = [3, 2]", fillcolor="#f6d5bd"] ;
94 -> 95 ;
96 [label="brazil_apartment_near_dist <= 2677.792\ngini = 0.5\nsamples = 4\nvalue = [2, 2]", fillcolor="#ffffff"] ;
95 -> 96 ;
97 [label="population_estimate <= 885.0\ngini = 0.444\nsamples = 3\nvalue = [2, 1]", fillcolor="#f2c09c"] ;
96 -> 97 ;
98 [label="gini = 0.0\nsamples = 1\nvalue = [1, 0]", fillcolor="#e58139"] ;
97 -> 98 ;
99 [label="brazil_house_near_dist <= 1149.051\ngini = 0.5\nsamples = 2\nvalue = [1, 1]", fillcolor="#ffffff"] ;
97 -> 99 ;
100 [label="gini = 0.0\nsamples = 1\nvalue = [1, 0]", fillcolor="#e58139"] ;
99 -> 100 ;
101 [label="gini = 0.0\nsamples = 1\nvalue = [0, 1]", fillcolor="#399de5"] ;
99 -> 101 ;
102 [label="gini = 0.0\nsamples = 1\nvalue = [0, 1]", fillcolor="#399de5"] ;
96 -> 102 ;
103 [label="gini = 0.0\nsamples = 1\nvalue = [1, 0]", fillcolor="#e58139"] ;
95 -> 103 ;
104 [label="gini = 0.0\nsamples = 1\nvalue = [1, 0]", fillcolor="#e58139"] ;
94 -> 104 ;
105 [label="gini = 0.0\nsamples = 1\nvalue = [0, 1]", fillcolor="#399de5"] ;
93 -> 105 ;
106 [label="gini = 0.0\nsamples = 1\nvalue = [1, 0]", fillcolor="#e58139"] ;
56 -> 106 ;
107 [label="gini = 0.0\nsamples = 1\nvalue = [0, 1]", fillcolor="#399de5"] ;
55 -> 107 ;
108 [label="gini = 0.0\nsamples = 14\nvalue = [14, 0]", fillcolor="#e58139"] ;
8 -> 108 ;
109 [label="sao_paulo_apartment_near_angle <= -174.377\ngini = 0.444\nsamples = 3\nvalue = [1, 2]", fillcolor="#9ccef2"] ;
7 -> 109 ;
110 [label="gini = 0.0\nsamples = 1\nvalue = [0, 1]", fillcolor="#399de5"] ;
109 -> 110 ;
111 [label="brazil_store_near_angle <= -177.814\ngini = 0.5\nsamples = 2\nvalue = [1, 1]", fillcolor="#ffffff"] ;
109 -> 111 ;
112 [label="gini = 0.0\nsamples = 1\nvalue = [1, 0]", fillcolor="#e58139"] ;
111 -> 112 ;
113 [label="gini = 0.0\nsamples = 1\nvalue = [0, 1]", fillcolor="#399de5"] ;
111 -> 113 ;
114 [label="sao_paulo_apartment_near_dist <= 186.362\ngini = 0.384\nsamples = 4390\nvalue = [3253, 1137]", fillcolor="#eead7e"] ;
6 -> 114 ;
115 [label="population_estimate <= 1975.634\ngini = 0.322\nsamples = 1597\nvalue = [1275, 322]", fillcolor="#eca16b"] ;
114 -> 115 ;
116 [label="brazil_store_count_listings <= 0.518\ngini = 0.309\nsamples = 1561\nvalue = [1263, 298]", fillcolor="#eb9f68"] ;
115 -> 116 ;
117 [label="total_listing_count <= 1.396\ngini = 0.315\nsamples = 1500\nvalue = [1206, 294]", fillcolor="#eba069"] ;
116 -> 117 ;
118 [label="brazil_ph_near_dist <= 6184.14\ngini = 0.325\nsamples = 1390\nvalue = [1106, 284]", fillcolor="#eca16c"] ;
117 -> 118 ;
119 [label="brazil_house_near_dist <= 1228.595\ngini = 0.319\nsamples = 991\nvalue = [794, 197]", fillcolor="#eba06a"] ;
118 -> 119 ;
120 [label="brazil_house_near_dist <= 405.471\ngini = 0.308\nsamples = 948\nvalue = [768, 180]", fillcolor="#eb9f67"] ;
119 -> 120 ;
121 [label="sao_paulo_apartment_near_price <= 972091.523\ngini = 0.256\nsamples = 618\nvalue = [525, 93]", fillcolor="#ea975c"] ;
120 -> 121 ;
122 [label="brazil_house_near_price <= 24721.486\ngini = 0.259\nsamples = 608\nvalue = [515, 93]", fillcolor="#ea985d"] ;
121 -> 122 ;
123 [label="brazil_house_near_angle <= 132.806\ngini = 0.264\nsamples = 593\nvalue = [500, 93]", fillcolor="#ea985e"] ;
122 -> 123 ;
124 [label="brazil_store_near_dist <= 1145.741\ngini = 0.278\nsamples = 528\nvalue = [440, 88]", fillcolor="#ea9a61"] ;
123 -> 124 ;
125 [label="brazil_ph_near_dist <= 5458.925\ngini = 0.259\nsamples = 497\nvalue = [421, 76]", fillcolor="#ea985d"] ;
124 -> 125 ;
126 [label="sao_paulo_apartment_near_dist <= 143.317\ngini = 0.27\nsamples = 466\nvalue = [391, 75]", fillcolor="#ea995f"] ;
125 -> 126 ;
127 [label="brazil_house_near_dist <= 204.795\ngini = 0.264\nsamples = 421\nvalue = [355, 66]", fillcolor="#ea985e"] ;
126 -> 127 ;
128 [label="brazil_store_near_angle <= -126.065\ngini = 0.219\nsamples = 271\nvalue = [237, 34]", fillcolor="#e99355"] ;
127 -> 128 ;
129 [label="gini = 0.0\nsamples = 22\nvalue = [22, 0]", fillcolor="#e58139"] ;
128 -> 129 ;
130 [label="brazil_house_near_dist <= 26.822\ngini = 0.236\nsamples = 249\nvalue = [215, 34]", fillcolor="#e99558"] ;
128 -> 130 ;
131 [label="brazil_store_near_price <= 18386.891\ngini = 0.356\nsamples = 69\nvalue = [53, 16]", fillcolor="#eda775"] ;
130 -> 131 ;
132 [label="sao_paulo_apartment_near_angle <= -137.193\ngini = 0.331\nsamples = 67\nvalue = [53, 14]", fillcolor="#eca26d"] ;
131 -> 132 ;
133 [label="brazil_apartment_near_angle <= -148.971\ngini = 0.405\nsamples = 39\nvalue = [28, 11]", fillcolor="#efb287"] ;
132 -> 133 ;
134 [label="gini = 0.0\nsamples = 7\nvalue = [7, 0]", fillcolor="#e58139"] ;
133 -> 134 ;
135 [label="brazil_ph_near_angle <= 100.546\ngini = 0.451\nsamples = 32\nvalue = [21, 11]", fillcolor="#f3c3a1"] ;
133 -> 135 ;
136 [label="brazil_apartment_near_dist <= 566.553\ngini = 0.471\nsamples = 29\nvalue = [18, 11]", fillcolor="#f5ceb2"] ;
135 -> 136 ;
137 [label="listing/area <= 0.0\ngini = 0.397\nsamples = 22\nvalue = [16, 6]", fillcolor="#efb083"] ;
136 -> 137 ;
138 [label="brazil_store_near_price <= 13560.038\ngini = 0.363\nsamples = 21\nvalue = [16, 5]", fillcolor="#eda877"] ;
137 -> 138 ;
139 [label="sao_paulo_apartment_near_dist <= 62.18\ngini = 0.388\nsamples = 19\nvalue = [14, 5]", fillcolor="#eeae80"] ;
138 -> 139 ;
140 [label="brazil_apartment_near_dist <= 139.541\ngini = 0.444\nsamples = 12\nvalue = [8, 4]", fillcolor="#f2c09c"] ;
139 -> 140 ;
141 [label="sao_paulo_apartment_near_angle <= -152.152\ngini = 0.245\nsamples = 7\nvalue = [6, 1]", fillcolor="#e9965a"] ;
140 -> 141 ;
142 [label="brazil_apartment_near_price <= 2585.913\ngini = 0.444\nsamples = 3\nvalue = [2, 1]", fillcolor="#f2c09c"] ;
141 -> 142 ;
143 [label="gini = 0.0\nsamples = 2\nvalue = [2, 0]", fillcolor="#e58139"] ;
142 -> 143 ;
144 [label="gini = 0.0\nsamples = 1\nvalue = [0, 1]", fillcolor="#399de5"] ;
142 -> 144 ;
145 [label="gini = 0.0\nsamples = 4\nvalue = [4, 0]", fillcolor="#e58139"] ;
141 -> 145 ;
146 [label="sao_paulo_apartment_near_price <= 52844.988\ngini = 0.48\nsamples = 5\nvalue = [2, 3]", fillcolor="#bddef6"] ;
140 -> 146 ;
147 [label="brazil_store_near_dist <= 274.525\ngini = 0.444\nsamples = 3\nvalue = [2, 1]", fillcolor="#f2c09c"] ;
146 -> 147 ;
148 [label="gini = 0.0\nsamples = 1\nvalue = [0, 1]", fillcolor="#399de5"] ;
147 -> 148 ;
149 [label="gini = 0.0\nsamples = 2\nvalue = [2, 0]", fillcolor="#e58139"] ;
147 -> 149 ;
150 [label="gini = 0.0\nsamples = 2\nvalue = [0, 2]", fillcolor="#399de5"] ;
146 -> 150 ;
151 [label="total_listing_count <= 0.416\ngini = 0.245\nsamples = 7\nvalue = [6, 1]", fillcolor="#e9965a"] ;
139 -> 151 ;
152 [label="gini = 0.0\nsamples = 2\nvalue = [2, 0]", fillcolor="#e58139"] ;
151 -> 152 ;
153 [label="sao_paulo_apartment_near_price <= 337081.616\ngini = 0.32\nsamples = 5\nvalue = [4, 1]", fillcolor="#eca06a"] ;
151 -> 153 ;
154 [label="listing/area <= 0.0\ngini = 0.375\nsamples = 4\nvalue = [3, 1]", fillcolor="#eeab7b"] ;
153 -> 154 ;
155 [label="gini = 0.0\nsamples = 3\nvalue = [3, 0]", fillcolor="#e58139"] ;
154 -> 155 ;
156 [label="gini = 0.0\nsamples = 1\nvalue = [0, 1]", fillcolor="#399de5"] ;
154 -> 156 ;
157 [label="gini = 0.0\nsamples = 1\nvalue = [1, 0]", fillcolor="#e58139"] ;
153 -> 157 ;
158 [label="gini = 0.0\nsamples = 2\nvalue = [2, 0]", fillcolor="#e58139"] ;
138 -> 158 ;
159 [label="gini = 0.0\nsamples = 1\nvalue = [0, 1]", fillcolor="#399de5"] ;
137 -> 159 ;
160 [label="population_estimate <= 877.589\ngini = 0.408\nsamples = 7\nvalue = [2, 5]", fillcolor="#88c4ef"] ;
136 -> 160 ;
161 [label="sao_paulo_apartment_near_dist <= 109.57\ngini = 0.5\nsamples = 4\nvalue = [2, 2]", fillcolor="#ffffff"] ;
160 -> 161 ;
162 [label="gini = 0.0\nsamples = 2\nvalue = [2, 0]", fillcolor="#e58139"] ;
161 -> 162 ;
163 [label="gini = 0.0\nsamples = 2\nvalue = [0, 2]", fillcolor="#399de5"] ;
161 -> 163 ;
164 [label="gini = 0.0\nsamples = 3\nvalue = [0, 3]", fillcolor="#399de5"] ;
160 -> 164 ;
165 [label="gini = 0.0\nsamples = 3\nvalue = [3, 0]", fillcolor="#e58139"] ;
135 -> 165 ;
166 [label="brazil_apartment_near_angle <= -48.561\ngini = 0.191\nsamples = 28\nvalue = [25, 3]", fillcolor="#e89051"] ;
132 -> 166 ;
167 [label="brazil_apartment_near_angle <= -149.015\ngini = 0.32\nsamples = 10\nvalue = [8, 2]", fillcolor="#eca06a"] ;
166 -> 167 ;
168 [label="gini = 0.0\nsamples = 2\nvalue = [0, 2]", fillcolor="#399de5"] ;
167 -> 168 ;
169 [label="gini = 0.0\nsamples = 8\nvalue = [8, 0]", fillcolor="#e58139"] ;
167 -> 169 ;
170 [label="brazil_store_near_dist <= 28.691\ngini = 0.105\nsamples = 18\nvalue = [17, 1]", fillcolor="#e78845"] ;
166 -> 170 ;
171 [label="gini = 0.0\nsamples = 3\nvalue = [3, 0]", fillcolor="#e58139"] ;
170 -> 171 ;
172 [label="sao_paulo_apartment_near_dist <= 10.787\ngini = 0.124\nsamples = 15\nvalue = [14, 1]", fillcolor="#e78a47"] ;
170 -> 172 ;
173 [label="gini = 0.0\nsamples = 5\nvalue = [5, 0]", fillcolor="#e58139"] ;
172 -> 173 ;
174 [label="brazil_house_near_dist <= 8.182\ngini = 0.18\nsamples = 10\nvalue = [9, 1]", fillcolor="#e88f4f"] ;
172 -> 174 ;
175 [label="population_estimate <= 988.412\ngini = 0.245\nsamples = 7\nvalue = [6, 1]", fillcolor="#e9965a"] ;
174 -> 175 ;
176 [label="gini = 0.0\nsamples = 6\nvalue = [6, 0]", fillcolor="#e58139"] ;
175 -> 176 ;
177 [label="gini = 0.0\nsamples = 1\nvalue = [0, 1]", fillcolor="#399de5"] ;
175 -> 177 ;
178 [label="gini = 0.0\nsamples = 3\nvalue = [3, 0]", fillcolor="#e58139"] ;
174 -> 178 ;
179 [label="gini = 0.0\nsamples = 2\nvalue = [0, 2]", fillcolor="#399de5"] ;
131 -> 179 ;
180 [label="sao_paulo_apartment_near_dist <= 55.042\ngini = 0.18\nsamples = 180\nvalue = [162, 18]", fillcolor="#e88f4f"] ;
130 -> 180 ;
181 [label="sao_paulo_apartment_near_angle <= -79.56\ngini = 0.117\nsamples = 96\nvalue = [90, 6]", fillcolor="#e78946"] ;
180 -> 181 ;
182 [label="brazil_house_near_price <= 12752.4\ngini = 0.103\nsamples = 92\nvalue = [87, 5]", fillcolor="#e68844"] ;
181 -> 182 ;
183 [label="brazil_apartment_count_listings <= 0.628\ngini = 0.088\nsamples = 87\nvalue = [83, 4]", fillcolor="#e68743"] ;
182 -> 183 ;
184 [label="sao_paulo_apartment_near_price <= 835617.2\ngini = 0.05\nsamples = 78\nvalue = [76, 2]", fillcolor="#e6843e"] ;
183 -> 184 ;
185 [label="brazil_house_near_angle <= -8.985\ngini = 0.052\nsamples = 75\nvalue = [73, 2]", fillcolor="#e6843e"] ;
184 -> 185 ;
186 [label="sao_paulo_apartment_near_price <= 98088.641\ngini = 0.045\nsamples = 43\nvalue = [42, 1]", fillcolor="#e6843e"] ;
185 -> 186 ;
187 [label="gini = 0.0\nsamples = 25\nvalue = [25, 0]", fillcolor="#e58139"] ;
186 -> 187 ;
188 [label="brazil_ph_near_dist <= 2535.823\ngini = 0.105\nsamples = 18\nvalue = [17, 1]", fillcolor="#e78845"] ;
186 -> 188 ;
189 [label="population_estimate <= 683.345\ngini = 0.133\nsamples = 14\nvalue = [13, 1]", fillcolor="#e78b48"] ;
188 -> 189 ;
190 [label="brazil_house_near_dist <= 129.026\ngini = 0.198\nsamples = 9\nvalue = [8, 1]", fillcolor="#e89152"] ;
189 -> 190 ;
191 [label="brazil_house_near_dist <= 108.004\ngini = 0.32\nsamples = 5\nvalue = [4, 1]", fillcolor="#eca06a"] ;
190 -> 191 ;
192 [label="brazil_store_near_dist <= 326.76\ngini = 0.444\nsamples = 3\nvalue = [2, 1]", fillcolor="#f2c09c"] ;
191 -> 192 ;
193 [label="gini = 0.0\nsamples = 2\nvalue = [2, 0]", fillcolor="#e58139"] ;
192 -> 193 ;
194 [label="gini = 0.0\nsamples = 1\nvalue = [0, 1]", fillcolor="#399de5"] ;
192 -> 194 ;
195 [label="gini = 0.0\nsamples = 2\nvalue = [2, 0]", fillcolor="#e58139"] ;
191 -> 195 ;
196 [label="gini = 0.0\nsamples = 4\nvalue = [4, 0]", fillcolor="#e58139"] ;
190 -> 196 ;
197 [label="gini = 0.0\nsamples = 5\nvalue = [5, 0]", fillcolor="#e58139"] ;
189 -> 197 ;
198 [label="gini = 0.0\nsamples = 4\nvalue = [4, 0]", fillcolor="#e58139"] ;
188 -> 198 ;
199 [label="sao_paulo_apartment_near_angle <= -154.257\ngini = 0.061\nsamples = 32\nvalue = [31, 1]", fillcolor="#e6853f"] ;
185 -> 199 ;
200 [label="brazil_apartment_near_dist <= 506.199\ngini = 0.245\nsamples = 7\nvalue = [6, 1]", fillcolor="#e9965a"] ;
199 -> 200 ;
201 [label="gini = 0.0\nsamples = 6\nvalue = [6, 0]", fillcolor="#e58139"] ;
200 -> 201 ;
202 [label="gini = 0.0\nsamples = 1\nvalue = [0, 1]", fillcolor="#399de5"] ;
200 -> 202 ;
203 [label="gini = 0.0\nsamples = 25\nvalue = [25, 0]", fillcolor="#e58139"] ;
199 -> 203 ;
204 [label="gini = 0.0\nsamples = 3\nvalue = [3, 0]", fillcolor="#e58139"] ;
184 -> 204 ;
205 [label="population_estimate <= 561.988\ngini = 0.346\nsamples = 9\nvalue = [7, 2]", fillcolor="#eca572"] ;
183 -> 205 ;
206 [label="gini = 0.0\nsamples = 3\nvalue = [3, 0]", fillcolor="#e58139"] ;
205 -> 206 ;
207 [label="sao_paulo_apartment_near_price <= 86986.726\ngini = 0.444\nsamples = 6\nvalue = [4, 2]", fillcolor="#f2c09c"] ;
205 -> 207 ;
208 [label="gini = 0.0\nsamples = 3\nvalue = [3, 0]", fillcolor="#e58139"] ;
207 -> 208 ;
209 [label="population_estimate <= 912.293\ngini = 0.444\nsamples = 3\nvalue = [1, 2]", fillcolor="#9ccef2"] ;
207 -> 209 ;
210 [label="gini = 0.0\nsamples = 1\nvalue = [1, 0]", fillcolor="#e58139"] ;
209 -> 210 ;
211 [label="gini = 0.0\nsamples = 2\nvalue = [0, 2]", fillcolor="#399de5"] ;
209 -> 211 ;
212 [label="brazil_store_near_price <= 12056.502\ngini = 0.32\nsamples = 5\nvalue = [4, 1]", fillcolor="#eca06a"] ;
182 -> 212 ;
213 [label="population_estimate <= 699.215\ngini = 0.5\nsamples = 2\nvalue = [1, 1]", fillcolor="#ffffff"] ;
212 -> 213 ;
214 [label="gini = 0.0\nsamples = 1\nvalue = [1, 0]", fillcolor="#e58139"] ;
213 -> 214 ;
215 [label="gini = 0.0\nsamples = 1\nvalue = [0, 1]", fillcolor="#399de5"] ;
213 -> 215 ;
216 [label="gini = 0.0\nsamples = 3\nvalue = [3, 0]", fillcolor="#e58139"] ;
212 -> 216 ;
217 [label="brazil_ph_near_dist <= 4161.72\ngini = 0.375\nsamples = 4\nvalue = [3, 1]", fillcolor="#eeab7b"] ;
181 -> 217 ;
218 [label="gini = 0.0\nsamples = 3\nvalue = [3, 0]", fillcolor="#e58139"] ;
217 -> 218 ;
219 [label="gini = 0.0\nsamples = 1\nvalue = [0, 1]", fillcolor="#399de5"] ;
217 -> 219 ;
220 [label="total_listing_count <= 0.243\ngini = 0.245\nsamples = 84\nvalue = [72, 12]", fillcolor="#e9965a"] ;
180 -> 220 ;
221 [label="sao_paulo_apartment_near_dist <= 77.108\ngini = 0.26\nsamples = 78\nvalue = [66, 12]", fillcolor="#ea985d"] ;
220 -> 221 ;
222 [label="brazil_ph_near_angle <= 57.015\ngini = 0.142\nsamples = 26\nvalue = [24, 2]", fillcolor="#e78c49"] ;
221 -> 222 ;
223 [label="brazil_house_near_dist <= 115.847\ngini = 0.278\nsamples = 12\nvalue = [10, 2]", fillcolor="#ea9a61"] ;
222 -> 223 ;
224 [label="gini = 0.0\nsamples = 3\nvalue = [3, 0]", fillcolor="#e58139"] ;
223 -> 224 ;
225 [label="brazil_ph_near_dist <= 2643.838\ngini = 0.346\nsamples = 9\nvalue = [7, 2]", fillcolor="#eca572"] ;
223 -> 225 ;
226 [label="brazil_house_near_dist <= 124.675\ngini = 0.444\nsamples = 6\nvalue = [4, 2]", fillcolor="#f2c09c"] ;
225 -> 226 ;
227 [label="gini = 0.0\nsamples = 1\nvalue = [1, 0]", fillcolor="#e58139"] ;
226 -> 227 ;
228 [label="brazil_ph_near_angle <= -82.61\ngini = 0.48\nsamples = 5\nvalue = [3, 2]", fillcolor="#f6d5bd"] ;
226 -> 228 ;
229 [label="brazil_ph_near_price <= 1263.678\ngini = 0.375\nsamples = 4\nvalue = [3, 1]", fillcolor="#eeab7b"] ;
228 -> 229 ;
230 [label="brazil_apartment_near_price <= 1669.402\ngini = 0.5\nsamples = 2\nvalue = [1, 1]", fillcolor="#ffffff"] ;
229 -> 230 ;
231 [label="gini = 0.0\nsamples = 1\nvalue = [1, 0]", fillcolor="#e58139"] ;
230 -> 231 ;
232 [label="gini = 0.0\nsamples = 1\nvalue = [0, 1]", fillcolor="#399de5"] ;
230 -> 232 ;
233 [label="gini = 0.0\nsamples = 2\nvalue = [2, 0]", fillcolor="#e58139"] ;
229 -> 233 ;
234 [label="gini = 0.0\nsamples = 1\nvalue = [0, 1]", fillcolor="#399de5"] ;
228 -> 234 ;
235 [label="gini = 0.0\nsamples = 3\nvalue = [3, 0]", fillcolor="#e58139"] ;
225 -> 235 ;
236 [label="gini = 0.0\nsamples = 14\nvalue = [14, 0]", fillcolor="#e58139"] ;
222 -> 236 ;
237 [label="brazil_ph_near_price <= 8328.577\ngini = 0.311\nsamples = 52\nvalue = [42, 10]", fillcolor="#eb9f68"] ;
221 -> 237 ;
238 [label="brazil_apartment_near_price <= 10944.175\ngini = 0.335\nsamples = 47\nvalue = [37, 10]", fillcolor="#eca36f"] ;
237 -> 238 ;
239 [label="brazil_store_near_price <= 937.32\ngini = 0.32\nsamples = 45\nvalue = [36, 9]", fillcolor="#eca06a"] ;
238 -> 239 ;
240 [label="sao_paulo_apartment_near_angle <= -147.238\ngini = 0.444\nsamples = 3\nvalue = [2, 1]", fillcolor="#f2c09c"] ;
239 -> 240 ;
241 [label="gini = 0.0\nsamples = 1\nvalue = [0, 1]", fillcolor="#399de5"] ;
240 -> 241 ;
242 [label="gini = 0.0\nsamples = 2\nvalue = [2, 0]", fillcolor="#e58139"] ;
240 -> 242 ;
243 [label="brazil_ph_near_price <= 2752.581\ngini = 0.308\nsamples = 42\nvalue = [34, 8]", fillcolor="#eb9f68"] ;
239 -> 243 ;
244 [label="brazil_house_near_dist <= 51.241\ngini = 0.434\nsamples = 22\nvalue = [15, 7]", fillcolor="#f1bc95"] ;
243 -> 244 ;
245 [label="brazil_store_near_angle <= -80.458\ngini = 0.5\nsamples = 2\nvalue = [1, 1]", fillcolor="#ffffff"] ;
244 -> 245 ;
246 [label="gini = 0.0\nsamples = 1\nvalue = [1, 0]", fillcolor="#e58139"] ;
245 -> 246 ;
247 [label="gini = 0.0\nsamples = 1\nvalue = [0, 1]", fillcolor="#399de5"] ;
245 -> 247 ;
248 [label="brazil_ph_near_price <= 1668.09\ngini = 0.42\nsamples = 20\nvalue = [14, 6]", fillcolor="#f0b78e"] ;
244 -> 248 ;
249 [label="brazil_apartment_near_dist <= 1008.991\ngini = 0.48\nsamples = 15\nvalue = [9, 6]", fillcolor="#f6d5bd"] ;
248 -> 249 ;
250 [label="brazil_store_near_angle <= 163.543\ngini = 0.497\nsamples = 13\nvalue = [7, 6]", fillcolor="#fbede3"] ;
249 -> 250 ;
251 [label="brazil_house_near_dist <= 97.278\ngini = 0.463\nsamples = 11\nvalue = [7, 4]", fillcolor="#f4c9aa"] ;
250 -> 251 ;
252 [label="brazil_house_near_price <= 938.525\ngini = 0.444\nsamples = 6\nvalue = [2, 4]", fillcolor="#9ccef2"] ;
251 -> 252 ;
253 [label="gini = 0.0\nsamples = 1\nvalue = [1, 0]", fillcolor="#e58139"] ;
252 -> 253 ;
254 [label="brazil_apartment_near_dist <= 523.672\ngini = 0.32\nsamples = 5\nvalue = [1, 4]", fillcolor="#6ab6ec"] ;
252 -> 254 ;
255 [label="gini = 0.0\nsamples = 4\nvalue = [0, 4]", fillcolor="#399de5"] ;
254 -> 255 ;
256 [label="gini = 0.0\nsamples = 1\nvalue = [1, 0]", fillcolor="#e58139"] ;
254 -> 256 ;
257 [label="gini = 0.0\nsamples = 5\nvalue = [5, 0]", fillcolor="#e58139"] ;
251 -> 257 ;
258 [label="gini = 0.0\nsamples = 2\nvalue = [0, 2]", fillcolor="#399de5"] ;
250 -> 258 ;
259 [label="gini = 0.0\nsamples = 2\nvalue = [2, 0]", fillcolor="#e58139"] ;
249 -> 259 ;
260 [label="gini = 0.0\nsamples = 5\nvalue = [5, 0]", fillcolor="#e58139"] ;
248 -> 260 ;
261 [label="brazil_store_near_angle <= 5.656\ngini = 0.095\nsamples = 20\nvalue = [19, 1]", fillcolor="#e68843"] ;
243 -> 261 ;
262 [label="brazil_store_near_angle <= -60.157\ngini = 0.219\nsamples = 8\nvalue = [7, 1]", fillcolor="#e99355"] ;
261 -> 262 ;
263 [label="brazil_ph_near_angle <= 97.874\ngini = 0.32\nsamples = 5\nvalue = [4, 1]", fillcolor="#eca06a"] ;
262 -> 263 ;
264 [label="gini = 0.0\nsamples = 4\nvalue = [4, 0]", fillcolor="#e58139"] ;
263 -> 264 ;
265 [label="gini = 0.0\nsamples = 1\nvalue = [0, 1]", fillcolor="#399de5"] ;
263 -> 265 ;
266 [label="gini = 0.0\nsamples = 3\nvalue = [3, 0]", fillcolor="#e58139"] ;
262 -> 266 ;
267 [label="gini = 0.0\nsamples = 12\nvalue = [12, 0]", fillcolor="#e58139"] ;
261 -> 267 ;
268 [label="brazil_house_near_price <= 709.992\ngini = 0.5\nsamples = 2\nvalue = [1, 1]", fillcolor="#ffffff"] ;
238 -> 268 ;
269 [label="gini = 0.0\nsamples = 1\nvalue = [0, 1]", fillcolor="#399de5"] ;
268 -> 269 ;
270 [label="gini = 0.0\nsamples = 1\nvalue = [1, 0]", fillcolor="#e58139"] ;
268 -> 270 ;
271 [label="gini = 0.0\nsamples = 5\nvalue = [5, 0]", fillcolor="#e58139"] ;
237 -> 271 ;
272 [label="gini = 0.0\nsamples = 6\nvalue = [6, 0]", fillcolor="#e58139"] ;
220 -> 272 ;
273 [label="brazil_house_near_dist <= 336.297\ngini = 0.336\nsamples = 150\nvalue = [118, 32]", fillcolor="#eca36f"] ;
127 -> 273 ;
274 [label="brazil_ph_near_angle <= 154.283\ngini = 0.314\nsamples = 113\nvalue = [91, 22]", fillcolor="#eb9f69"] ;
273 -> 274 ;
275 [label="listing/area <= 0.0\ngini = 0.327\nsamples = 107\nvalue = [85, 22]", fillcolor="#eca26c"] ;
274 -> 275 ;
276 [label="sao_paulo_apartment_near_dist <= 88.701\ngini = 0.318\nsamples = 106\nvalue = [85, 21]", fillcolor="#eba06a"] ;
275 -> 276 ;
277 [label="brazil_apartment_near_price <= 4234.087\ngini = 0.281\nsamples = 77\nvalue = [64, 13]", fillcolor="#ea9b61"] ;
276 -> 277 ;
278 [label="sao_paulo_apartment_near_angle <= -101.115\ngini = 0.316\nsamples = 66\nvalue = [53, 13]", fillcolor="#eba06a"] ;
277 -> 278 ;
279 [label="brazil_store_near_dist <= 331.416\ngini = 0.268\nsamples = 44\nvalue = [37, 7]", fillcolor="#ea995e"] ;
278 -> 279 ;
280 [label="brazil_apartment_near_price <= 1451.335\ngini = 0.117\nsamples = 16\nvalue = [15, 1]", fillcolor="#e78946"] ;
279 -> 280 ;
281 [label="gini = 0.0\nsamples = 8\nvalue = [8, 0]", fillcolor="#e58139"] ;
280 -> 281 ;
282 [label="brazil_house_near_price <= 1573.403\ngini = 0.219\nsamples = 8\nvalue = [7, 1]", fillcolor="#e99355"] ;
280 -> 282 ;
283 [label="gini = 0.0\nsamples = 1\nvalue = [0, 1]", fillcolor="#399de5"] ;
282 -> 283 ;
284 [label="gini = 0.0\nsamples = 7\nvalue = [7, 0]", fillcolor="#e58139"] ;
282 -> 284 ;
285 [label="brazil_store_near_angle <= -119.443\ngini = 0.337\nsamples = 28\nvalue = [22, 6]", fillcolor="#eca36f"] ;
279 -> 285 ;
286 [label="brazil_apartment_near_angle <= -0.865\ngini = 0.5\nsamples = 4\nvalue = [2, 2]", fillcolor="#ffffff"] ;
285 -> 286 ;
287 [label="gini = 0.0\nsamples = 2\nvalue = [0, 2]", fillcolor="#399de5"] ;
286 -> 287 ;
288 [label="gini = 0.0\nsamples = 2\nvalue = [2, 0]", fillcolor="#e58139"] ;
286 -> 288 ;
289 [label="brazil_ph_near_dist <= 3438.386\ngini = 0.278\nsamples = 24\nvalue = [20, 4]", fillcolor="#ea9a61"] ;
285 -> 289 ;
290 [label="gini = 0.0\nsamples = 15\nvalue = [15, 0]", fillcolor="#e58139"] ;
289 -> 290 ;
291 [label="brazil_apartment_near_dist <= 275.757\ngini = 0.494\nsamples = 9\nvalue = [5, 4]", fillcolor="#fae6d7"] ;
289 -> 291 ;
292 [label="sao_paulo_apartment_near_angle <= -171.979\ngini = 0.5\nsamples = 8\nvalue = [4, 4]", fillcolor="#ffffff"] ;
291 -> 292 ;
293 [label="brazil_ph_near_price <= 2016.283\ngini = 0.375\nsamples = 4\nvalue = [1, 3]", fillcolor="#7bbeee"] ;
292 -> 293 ;
294 [label="brazil_store_near_angle <= 36.418\ngini = 0.5\nsamples = 2\nvalue = [1, 1]", fillcolor="#ffffff"] ;
293 -> 294 ;
295 [label="gini = 0.0\nsamples = 1\nvalue = [0, 1]", fillcolor="#399de5"] ;
294 -> 295 ;
296 [label="gini = 0.0\nsamples = 1\nvalue = [1, 0]", fillcolor="#e58139"] ;
294 -> 296 ;
297 [label="gini = 0.0\nsamples = 2\nvalue = [0, 2]", fillcolor="#399de5"] ;
293 -> 297 ;
298 [label="brazil_store_near_dist <= 801.244\ngini = 0.375\nsamples = 4\nvalue = [3, 1]", fillcolor="#eeab7b"] ;
292 -> 298 ;
299 [label="gini = 0.0\nsamples = 3\nvalue = [3, 0]", fillcolor="#e58139"] ;
298 -> 299 ;
300 [label="gini = 0.0\nsamples = 1\nvalue = [0, 1]", fillcolor="#399de5"] ;
298 -> 300 ;
301 [label="gini = 0.0\nsamples = 1\nvalue = [1, 0]", fillcolor="#e58139"] ;
291 -> 301 ;
302 [label="brazil_store_near_dist <= 554.773\ngini = 0.397\nsamples = 22\nvalue = [16, 6]", fillcolor="#efb083"] ;
278 -> 302 ;
303 [label="brazil_apartment_near_angle <= -15.03\ngini = 0.231\nsamples = 15\nvalue = [13, 2]", fillcolor="#e99457"] ;
302 -> 303 ;
304 [label="brazil_apartment_near_price <= 1541.5\ngini = 0.346\nsamples = 9\nvalue = [7, 2]", fillcolor="#eca572"] ;
303 -> 304 ;
305 [label="gini = 0.0\nsamples = 5\nvalue = [5, 0]", fillcolor="#e58139"] ;
304 -> 305 ;
306 [label="brazil_house_near_angle <= 6.993\ngini = 0.5\nsamples = 4\nvalue = [2, 2]", fillcolor="#ffffff"] ;
304 -> 306 ;
307 [label="gini = 0.0\nsamples = 1\nvalue = [1, 0]", fillcolor="#e58139"] ;
306 -> 307 ;
308 [label="sao_paulo_apartment_near_price <= 281286.75\ngini = 0.444\nsamples = 3\nvalue = [1, 2]", fillcolor="#9ccef2"] ;
306 -> 308 ;
309 [label="gini = 0.0\nsamples = 2\nvalue = [0, 2]", fillcolor="#399de5"] ;
308 -> 309 ;
310 [label="gini = 0.0\nsamples = 1\nvalue = [1, 0]", fillcolor="#e58139"] ;
308 -> 310 ;
311 [label="gini = 0.0\nsamples = 6\nvalue = [6, 0]", fillcolor="#e58139"] ;
303 -> 311 ;
312 [label="brazil_apartment_near_angle <= 36.315\ngini = 0.49\nsamples = 7\nvalue = [3, 4]", fillcolor="#cee6f8"] ;
302 -> 312 ;
313 [label="brazil_ph_near_angle <= -6.058\ngini = 0.444\nsamples = 6\nvalue = [2, 4]", fillcolor="#9ccef2"] ;
312 -> 313 ;
314 [label="gini = 0.0\nsamples = 2\nvalue = [2, 0]", fillcolor="#e58139"] ;
313 -> 314 ;
315 [label="gini = 0.0\nsamples = 4\nvalue = [0, 4]", fillcolor="#399de5"] ;
313 -> 315 ;
316 [label="gini = 0.0\nsamples = 1\nvalue = [1, 0]", fillcolor="#e58139"] ;
312 -> 316 ;
317 [label="gini = 0.0\nsamples = 11\nvalue = [11, 0]", fillcolor="#e58139"] ;
277 -> 317 ;
318 [label="sao_paulo_apartment_near_price <= 133180.367\ngini = 0.4\nsamples = 29\nvalue = [21, 8]", fillcolor="#efb184"] ;
276 -> 318 ;
319 [label="brazil_house_near_dist <= 308.384\ngini = 0.32\nsamples = 15\nvalue = [12, 3]", fillcolor="#eca06a"] ;
318 -> 319 ;
320 [label="gini = 0.0\nsamples = 11\nvalue = [11, 0]", fillcolor="#e58139"] ;
319 -> 320 ;
321 [label="brazil_apartment_near_price <= 1613.465\ngini = 0.375\nsamples = 4\nvalue = [1, 3]", fillcolor="#7bbeee"] ;
319 -> 321 ;
322 [label="gini = 0.0\nsamples = 1\nvalue = [1, 0]", fillcolor="#e58139"] ;
321 -> 322 ;
323 [label="gini = 0.0\nsamples = 3\nvalue = [0, 3]", fillcolor="#399de5"] ;
321 -> 323 ;
324 [label="sao_paulo_apartment_near_dist <= 96.664\ngini = 0.459\nsamples = 14\nvalue = [9, 5]", fillcolor="#f3c7a7"] ;
318 -> 324 ;
325 [label="gini = 0.0\nsamples = 2\nvalue = [0, 2]", fillcolor="#399de5"] ;
324 -> 325 ;
326 [label="brazil_ph_near_angle <= -1.209\ngini = 0.375\nsamples = 12\nvalue = [9, 3]", fillcolor="#eeab7b"] ;
324 -> 326 ;
327 [label="brazil_ph_near_dist <= 1125.006\ngini = 0.48\nsamples = 5\nvalue = [2, 3]", fillcolor="#bddef6"] ;
326 -> 327 ;
328 [label="gini = 0.0\nsamples = 3\nvalue = [0, 3]", fillcolor="#399de5"] ;
327 -> 328 ;
329 [label="gini = 0.0\nsamples = 2\nvalue = [2, 0]", fillcolor="#e58139"] ;
327 -> 329 ;
330 [label="gini = 0.0\nsamples = 7\nvalue = [7, 0]", fillcolor="#e58139"] ;
326 -> 330 ;
331 [label="gini = 0.0\nsamples = 1\nvalue = [0, 1]", fillcolor="#399de5"] ;
275 -> 331 ;
332 [label="gini = 0.0\nsamples = 6\nvalue = [6, 0]", fillcolor="#e58139"] ;
274 -> 332 ;
333 [label="brazil_house_near_price <= 5757.068\ngini = 0.394\nsamples = 37\nvalue = [27, 10]", fillcolor="#efb082"] ;
273 -> 333 ;
334 [label="brazil_ph_near_angle <= 9.8\ngini = 0.382\nsamples = 35\nvalue = [26, 9]", fillcolor="#eead7e"] ;
333 -> 334 ;
335 [label="brazil_apartment_near_price <= 3223.52\ngini = 0.49\nsamples = 21\nvalue = [12, 9]", fillcolor="#f8e0ce"] ;
334 -> 335 ;
336 [label="brazil_store_near_price <= 8069.388\ngini = 0.495\nsamples = 20\nvalue = [11, 9]", fillcolor="#fae8db"] ;
335 -> 336 ;
337 [label="brazil_ph_near_dist <= 3226.988\ngini = 0.499\nsamples = 19\nvalue = [10, 9]", fillcolor="#fcf2eb"] ;
336 -> 337 ;
338 [label="listing/area <= 0.0\ngini = 0.486\nsamples = 12\nvalue = [5, 7]", fillcolor="#c6e3f8"] ;
337 -> 338 ;
339 [label="sao_paulo_apartment_near_dist <= 4.325\ngini = 0.463\nsamples = 11\nvalue = [4, 7]", fillcolor="#aad5f4"] ;
338 -> 339 ;
340 [label="gini = 0.0\nsamples = 2\nvalue = [0, 2]", fillcolor="#399de5"] ;
339 -> 340 ;
341 [label="brazil_ph_near_angle <= -6.399\ngini = 0.494\nsamples = 9\nvalue = [4, 5]", fillcolor="#d7ebfa"] ;
339 -> 341 ;
342 [label="brazil_ph_near_dist <= 1153.24\ngini = 0.469\nsamples = 8\nvalue = [3, 5]", fillcolor="#b0d8f5"] ;
341 -> 342 ;
343 [label="gini = 0.0\nsamples = 1\nvalue = [0, 1]", fillcolor="#399de5"] ;
342 -> 343 ;
344 [label="brazil_house_near_angle <= -112.453\ngini = 0.49\nsamples = 7\nvalue = [3, 4]", fillcolor="#cee6f8"] ;
342 -> 344 ;
345 [label="gini = 0.0\nsamples = 3\nvalue = [3, 0]", fillcolor="#e58139"] ;
344 -> 345 ;
346 [label="gini = 0.0\nsamples = 4\nvalue = [0, 4]", fillcolor="#399de5"] ;
344 -> 346 ;
347 [label="gini = 0.0\nsamples = 1\nvalue = [1, 0]", fillcolor="#e58139"] ;
341 -> 347 ;
348 [label="gini = 0.0\nsamples = 1\nvalue = [1, 0]", fillcolor="#e58139"] ;
338 -> 348 ;
349 [label="brazil_apartment_near_price <= 885.936\ngini = 0.408\nsamples = 7\nvalue = [5, 2]", fillcolor="#efb388"] ;
337 -> 349 ;
350 [label="gini = 0.0\nsamples = 2\nvalue = [2, 0]", fillcolor="#e58139"] ;
349 -> 350 ;
351 [label="brazil_house_near_dist <= 355.007\ngini = 0.48\nsamples = 5\nvalue = [3, 2]", fillcolor="#f6d5bd"] ;
349 -> 351 ;
352 [label="gini = 0.0\nsamples = 1\nvalue = [1, 0]", fillcolor="#e58139"] ;
351 -> 352 ;
353 [label="population_estimate <= 157.003\ngini = 0.5\nsamples = 4\nvalue = [2, 2]", fillcolor="#ffffff"] ;
351 -> 353 ;
354 [label="gini = 0.0\nsamples = 1\nvalue = [0, 1]", fillcolor="#399de5"] ;
353 -> 354 ;
355 [label="sao_paulo_apartment_near_dist <= 30.15\ngini = 0.444\nsamples = 3\nvalue = [2, 1]", fillcolor="#f2c09c"] ;
353 -> 355 ;
356 [label="gini = 0.0\nsamples = 2\nvalue = [2, 0]", fillcolor="#e58139"] ;
355 -> 356 ;
357 [label="gini = 0.0\nsamples = 1\nvalue = [0, 1]", fillcolor="#399de5"] ;
355 -> 357 ;
358 [label="gini = 0.0\nsamples = 1\nvalue = [1, 0]", fillcolor="#e58139"] ;
336 -> 358 ;
359 [label="gini = 0.0\nsamples = 1\nvalue = [1, 0]", fillcolor="#e58139"] ;
335 -> 359 ;
360 [label="gini = 0.0\nsamples = 14\nvalue = [14, 0]", fillcolor="#e58139"] ;
334 -> 360 ;
361 [label="brazil_apartment_near_angle <= -3.478\ngini = 0.5\nsamples = 2\nvalue = [1, 1]", fillcolor="#ffffff"] ;
333 -> 361 ;
362 [label="gini = 0.0\nsamples = 1\nvalue = [0, 1]", fillcolor="#399de5"] ;
361 -> 362 ;
363 [label="gini = 0.0\nsamples = 1\nvalue = [1, 0]", fillcolor="#e58139"] ;
361 -> 363 ;
364 [label="listing/area <= 0.0\ngini = 0.32\nsamples = 45\nvalue = [36, 9]", fillcolor="#eca06a"] ;
126 -> 364 ;
365 [label="brazil_store_near_angle <= -127.045\ngini = 0.337\nsamples = 42\nvalue = [33, 9]", fillcolor="#eca36f"] ;
364 -> 365 ;
366 [label="gini = 0.0\nsamples = 8\nvalue = [8, 0]", fillcolor="#e58139"] ;
365 -> 366 ;
367 [label="brazil_house_near_price <= 16337.269\ngini = 0.389\nsamples = 34\nvalue = [25, 9]", fillcolor="#eeae80"] ;
365 -> 367 ;
368 [label="brazil_ph_near_price <= 4265.829\ngini = 0.367\nsamples = 33\nvalue = [25, 8]", fillcolor="#eda978"] ;
367 -> 368 ;
369 [label="brazil_apartment_near_angle <= -9.908\ngini = 0.435\nsamples = 25\nvalue = [17, 8]", fillcolor="#f1bc96"] ;
368 -> 369 ;
370 [label="brazil_house_near_dist <= 39.9\ngini = 0.346\nsamples = 18\nvalue = [14, 4]", fillcolor="#eca572"] ;
369 -> 370 ;
371 [label="gini = 0.0\nsamples = 2\nvalue = [2, 0]", fillcolor="#e58139"] ;
370 -> 371 ;
372 [label="brazil_ph_near_dist <= 3231.353\ngini = 0.375\nsamples = 16\nvalue = [12, 4]", fillcolor="#eeab7b"] ;
370 -> 372 ;
373 [label="brazil_apartment_near_angle <= -44.922\ngini = 0.463\nsamples = 11\nvalue = [7, 4]", fillcolor="#f4c9aa"] ;
372 -> 373 ;
374 [label="brazil_house_near_angle <= 73.061\ngini = 0.346\nsamples = 9\nvalue = [7, 2]", fillcolor="#eca572"] ;
373 -> 374 ;
375 [label="sao_paulo_apartment_near_price <= 449313.796\ngini = 0.408\nsamples = 7\nvalue = [5, 2]", fillcolor="#efb388"] ;
374 -> 375 ;
376 [label="brazil_store_near_dist <= 638.339\ngini = 0.48\nsamples = 5\nvalue = [3, 2]", fillcolor="#f6d5bd"] ;
375 -> 376 ;
377 [label="brazil_ph_near_price <= 2559.29\ngini = 0.5\nsamples = 4\nvalue = [2, 2]", fillcolor="#ffffff"] ;
376 -> 377 ;
378 [label="gini = 0.0\nsamples = 2\nvalue = [0, 2]", fillcolor="#399de5"] ;
377 -> 378 ;
379 [label="gini = 0.0\nsamples = 2\nvalue = [2, 0]", fillcolor="#e58139"] ;
377 -> 379 ;
380 [label="gini = 0.0\nsamples = 1\nvalue = [1, 0]", fillcolor="#e58139"] ;
376 -> 380 ;
381 [label="gini = 0.0\nsamples = 2\nvalue = [2, 0]", fillcolor="#e58139"] ;
375 -> 381 ;
382 [label="gini = 0.0\nsamples = 2\nvalue = [2, 0]", fillcolor="#e58139"] ;
374 -> 382 ;
383 [label="gini = 0.0\nsamples = 2\nvalue = [0, 2]", fillcolor="#399de5"] ;
373 -> 383 ;
384 [label="gini = 0.0\nsamples = 5\nvalue = [5, 0]", fillcolor="#e58139"] ;
372 -> 384 ;
385 [label="brazil_store_near_price <= 11531.121\ngini = 0.49\nsamples = 7\nvalue = [3, 4]", fillcolor="#cee6f8"] ;
369 -> 385 ;
386 [label="brazil_ph_near_price <= 2516.169\ngini = 0.444\nsamples = 6\nvalue = [2, 4]", fillcolor="#9ccef2"] ;
385 -> 386 ;
387 [label="brazil_apartment_near_angle <= 99.234\ngini = 0.32\nsamples = 5\nvalue = [1, 4]", fillcolor="#6ab6ec"] ;
386 -> 387 ;
388 [label="brazil_ph_near_angle <= -108.99\ngini = 0.444\nsamples = 3\nvalue = [1, 2]", fillcolor="#9ccef2"] ;
387 -> 388 ;
389 [label="gini = 0.0\nsamples = 2\nvalue = [0, 2]", fillcolor="#399de5"] ;
388 -> 389 ;
390 [label="gini = 0.0\nsamples = 1\nvalue = [1, 0]", fillcolor="#e58139"] ;
388 -> 390 ;
391 [label="gini = 0.0\nsamples = 2\nvalue = [0, 2]", fillcolor="#399de5"] ;
387 -> 391 ;
392 [label="gini = 0.0\nsamples = 1\nvalue = [1, 0]", fillcolor="#e58139"] ;
386 -> 392 ;
393 [label="gini = 0.0\nsamples = 1\nvalue = [1, 0]", fillcolor="#e58139"] ;
385 -> 393 ;
394 [label="gini = 0.0\nsamples = 8\nvalue = [8, 0]", fillcolor="#e58139"] ;
368 -> 394 ;
395 [label="gini = 0.0\nsamples = 1\nvalue = [0, 1]", fillcolor="#399de5"] ;
367 -> 395 ;
396 [label="gini = 0.0\nsamples = 3\nvalue = [3, 0]", fillcolor="#e58139"] ;
364 -> 396 ;
397 [label="sao_paulo_apartment_near_price <= 360450.446\ngini = 0.062\nsamples = 31\nvalue = [30, 1]", fillcolor="#e68540"] ;
125 -> 397 ;
398 [label="brazil_house_count_listings <= 0.277\ngini = 0.091\nsamples = 21\nvalue = [20, 1]", fillcolor="#e68743"] ;
397 -> 398 ;
399 [label="gini = 0.0\nsamples = 20\nvalue = [20, 0]", fillcolor="#e58139"] ;
398 -> 399 ;
400 [label="gini = 0.0\nsamples = 1\nvalue = [0, 1]", fillcolor="#399de5"] ;
398 -> 400 ;
401 [label="gini = 0.0\nsamples = 10\nvalue = [10, 0]", fillcolor="#e58139"] ;
397 -> 401 ;
402 [label="brazil_store_near_dist <= 2211.401\ngini = 0.475\nsamples = 31\nvalue = [19, 12]", fillcolor="#f5d1b6"] ;
124 -> 402 ;
403 [label="sao_paulo_apartment_near_price <= 133877.701\ngini = 0.48\nsamples = 30\nvalue = [18, 12]", fillcolor="#f6d5bd"] ;
402 -> 403 ;
404 [label="sao_paulo_apartment_near_dist <= 177.162\ngini = 0.475\nsamples = 18\nvalue = [7, 11]", fillcolor="#b7dbf6"] ;
403 -> 404 ;
405 [label="brazil_apartment_near_price <= 7171.056\ngini = 0.457\nsamples = 17\nvalue = [6, 11]", fillcolor="#a5d2f3"] ;
404 -> 405 ;
406 [label="brazil_apartment_near_price <= 1502.4\ngini = 0.43\nsamples = 16\nvalue = [5, 11]", fillcolor="#93caf1"] ;
405 -> 406 ;
407 [label="brazil_ph_near_angle <= -126.402\ngini = 0.298\nsamples = 11\nvalue = [2, 9]", fillcolor="#65b3eb"] ;
406 -> 407 ;
408 [label="sao_paulo_apartment_near_dist <= 147.698\ngini = 0.198\nsamples = 9\nvalue = [1, 8]", fillcolor="#52a9e8"] ;
407 -> 408 ;
409 [label="sao_paulo_apartment_near_dist <= 24.889\ngini = 0.219\nsamples = 8\nvalue = [1, 7]", fillcolor="#55abe9"] ;
408 -> 409 ;
410 [label="gini = 0.0\nsamples = 1\nvalue = [1, 0]", fillcolor="#e58139"] ;
409 -> 410 ;
411 [label="gini = 0.0\nsamples = 7\nvalue = [0, 7]", fillcolor="#399de5"] ;
409 -> 411 ;
412 [label="gini = 0.0\nsamples = 1\nvalue = [0, 1]", fillcolor="#399de5"] ;
408 -> 412 ;
413 [label="brazil_apartment_near_angle <= -70.614\ngini = 0.5\nsamples = 2\nvalue = [1, 1]", fillcolor="#ffffff"] ;
407 -> 413 ;
414 [label="gini = 0.0\nsamples = 1\nvalue = [0, 1]", fillcolor="#399de5"] ;
413 -> 414 ;
415 [label="gini = 0.0\nsamples = 1\nvalue = [1, 0]", fillcolor="#e58139"] ;
413 -> 415 ;
416 [label="brazil_house_near_price <= 3409.415\ngini = 0.48\nsamples = 5\nvalue = [3, 2]", fillcolor="#f6d5bd"] ;
406 -> 416 ;
417 [label="brazil_house_near_price <= 929.406\ngini = 0.5\nsamples = 4\nvalue = [2, 2]", fillcolor="#ffffff"] ;
416 -> 417 ;
418 [label="gini = 0.0\nsamples = 1\nvalue = [1, 0]", fillcolor="#e58139"] ;
417 -> 418 ;
419 [label="brazil_ph_near_angle <= 92.89\ngini = 0.444\nsamples = 3\nvalue = [1, 2]", fillcolor="#9ccef2"] ;
417 -> 419 ;
420 [label="gini = 0.0\nsamples = 2\nvalue = [0, 2]", fillcolor="#399de5"] ;
419 -> 420 ;
421 [label="gini = 0.0\nsamples = 1\nvalue = [1, 0]", fillcolor="#e58139"] ;
419 -> 421 ;
422 [label="gini = 0.0\nsamples = 1\nvalue = [1, 0]", fillcolor="#e58139"] ;
416 -> 422 ;
423 [label="gini = 0.0\nsamples = 1\nvalue = [1, 0]", fillcolor="#e58139"] ;
405 -> 423 ;
424 [label="gini = 0.0\nsamples = 1\nvalue = [1, 0]", fillcolor="#e58139"] ;
404 -> 424 ;
425 [label="brazil_ph_near_angle <= -25.709\ngini = 0.153\nsamples = 12\nvalue = [11, 1]", fillcolor="#e78c4b"] ;
403 -> 425 ;
426 [label="brazil_store_near_price <= 1513.867\ngini = 0.444\nsamples = 3\nvalue = [2, 1]", fillcolor="#f2c09c"] ;
425 -> 426 ;
427 [label="gini = 0.0\nsamples = 2\nvalue = [2, 0]", fillcolor="#e58139"] ;
426 -> 427 ;
428 [label="gini = 0.0\nsamples = 1\nvalue = [0, 1]", fillcolor="#399de5"] ;
426 -> 428 ;
429 [label="gini = 0.0\nsamples = 9\nvalue = [9, 0]", fillcolor="#e58139"] ;
425 -> 429 ;
430 [label="gini = 0.0\nsamples = 1\nvalue = [1, 0]", fillcolor="#e58139"] ;
402 -> 430 ;
431 [label="brazil_store_near_angle <= 93.363\ngini = 0.142\nsamples = 65\nvalue = [60, 5]", fillcolor="#e78c49"] ;
123 -> 431 ;
432 [label="brazil_ph_near_dist <= 1715.788\ngini = 0.187\nsamples = 48\nvalue = [43, 5]", fillcolor="#e89050"] ;
431 -> 432 ;
433 [label="sao_paulo_apartment_near_angle <= -162.859\ngini = 0.332\nsamples = 19\nvalue = [15, 4]", fillcolor="#eca36e"] ;
432 -> 433 ;
434 [label="gini = 0.0\nsamples = 1\nvalue = [0, 1]", fillcolor="#399de5"] ;
433 -> 434 ;
435 [label="brazil_house_near_price <= 875.185\ngini = 0.278\nsamples = 18\nvalue = [15, 3]", fillcolor="#ea9a61"] ;
433 -> 435 ;
436 [label="gini = 0.0\nsamples = 4\nvalue = [4, 0]", fillcolor="#e58139"] ;
435 -> 436 ;
437 [label="population_estimate <= 1114.479\ngini = 0.337\nsamples = 14\nvalue = [11, 3]", fillcolor="#eca36f"] ;
435 -> 437 ;
438 [label="sao_paulo_apartment_near_price <= 110515.677\ngini = 0.153\nsamples = 12\nvalue = [11, 1]", fillcolor="#e78c4b"] ;
437 -> 438 ;
439 [label="gini = 0.0\nsamples = 8\nvalue = [8, 0]", fillcolor="#e58139"] ;
438 -> 439 ;
440 [label="brazil_ph_near_angle <= 0.52\ngini = 0.375\nsamples = 4\nvalue = [3, 1]", fillcolor="#eeab7b"] ;
438 -> 440 ;
441 [label="gini = 0.0\nsamples = 2\nvalue = [2, 0]", fillcolor="#e58139"] ;
440 -> 441 ;
442 [label="brazil_house_near_dist <= 254.32\ngini = 0.5\nsamples = 2\nvalue = [1, 1]", fillcolor="#ffffff"] ;
440 -> 442 ;
443 [label="gini = 0.0\nsamples = 1\nvalue = [1, 0]", fillcolor="#e58139"] ;
442 -> 443 ;
444 [label="gini = 0.0\nsamples = 1\nvalue = [0, 1]", fillcolor="#399de5"] ;
442 -> 444 ;
445 [label="gini = 0.0\nsamples = 2\nvalue = [0, 2]", fillcolor="#399de5"] ;
437 -> 445 ;
446 [label="brazil_house_near_dist <= 287.324\ngini = 0.067\nsamples = 29\nvalue = [28, 1]", fillcolor="#e68640"] ;
432 -> 446 ;
447 [label="listing/pop <= 0.006\ngini = 0.091\nsamples = 21\nvalue = [20, 1]", fillcolor="#e68743"] ;
446 -> 447 ;
448 [label="gini = 0.0\nsamples = 20\nvalue = [20, 0]", fillcolor="#e58139"] ;
447 -> 448 ;
449 [label="gini = 0.0\nsamples = 1\nvalue = [0, 1]", fillcolor="#399de5"] ;
447 -> 449 ;
450 [label="gini = 0.0\nsamples = 8\nvalue = [8, 0]", fillcolor="#e58139"] ;
446 -> 450 ;
451 [label="gini = 0.0\nsamples = 17\nvalue = [17, 0]", fillcolor="#e58139"] ;
431 -> 451 ;
452 [label="gini = 0.0\nsamples = 15\nvalue = [15, 0]", fillcolor="#e58139"] ;
122 -> 452 ;
453 [label="gini = 0.0\nsamples = 10\nvalue = [10, 0]", fillcolor="#e58139"] ;
121 -> 453 ;
454 [label="population_estimate <= 956.449\ngini = 0.388\nsamples = 330\nvalue = [243, 87]", fillcolor="#eeae80"] ;
120 -> 454 ;
455 [label="brazil_store_near_angle <= -102.717\ngini = 0.347\nsamples = 269\nvalue = [209, 60]", fillcolor="#eca572"] ;
454 -> 455 ;
456 [label="brazil_store_near_dist <= 1347.645\ngini = 0.266\nsamples = 57\nvalue = [48, 9]", fillcolor="#ea995e"] ;
455 -> 456 ;
457 [label="sao_paulo_apartment_near_price <= 246700.078\ngini = 0.252\nsamples = 54\nvalue = [46, 8]", fillcolor="#ea975b"] ;
456 -> 457 ;
458 [label="sao_paulo_apartment_near_dist <= 69.813\ngini = 0.223\nsamples = 47\nvalue = [41, 6]", fillcolor="#e99356"] ;
457 -> 458 ;
459 [label="gini = 0.0\nsamples = 23\nvalue = [23, 0]", fillcolor="#e58139"] ;
458 -> 459 ;
460 [label="brazil_house_near_angle <= 0.541\ngini = 0.375\nsamples = 24\nvalue = [18, 6]", fillcolor="#eeab7b"] ;
458 -> 460 ;
461 [label="brazil_apartment_near_price <= 14882.113\ngini = 0.444\nsamples = 9\nvalue = [6, 3]", fillcolor="#f2c09c"] ;
460 -> 461 ;
462 [label="brazil_apartment_near_price <= 2960.223\ngini = 0.469\nsamples = 8\nvalue = [5, 3]", fillcolor="#f5cdb0"] ;
461 -> 462 ;
463 [label="brazil_store_near_angle <= -134.089\ngini = 0.49\nsamples = 7\nvalue = [4, 3]", fillcolor="#f8e0ce"] ;
462 -> 463 ;
464 [label="gini = 0.0\nsamples = 2\nvalue = [2, 0]", fillcolor="#e58139"] ;
463 -> 464 ;
465 [label="brazil_ph_near_dist <= 938.918\ngini = 0.48\nsamples = 5\nvalue = [2, 3]", fillcolor="#bddef6"] ;
463 -> 465 ;
466 [label="gini = 0.0\nsamples = 3\nvalue = [0, 3]", fillcolor="#399de5"] ;
465 -> 466 ;
467 [label="gini = 0.0\nsamples = 2\nvalue = [2, 0]", fillcolor="#e58139"] ;
465 -> 467 ;
468 [label="gini = 0.0\nsamples = 1\nvalue = [1, 0]", fillcolor="#e58139"] ;
462 -> 468 ;
469 [label="gini = 0.0\nsamples = 1\nvalue = [1, 0]", fillcolor="#e58139"] ;
461 -> 469 ;
470 [label="sao_paulo_apartment_near_price <= 19871.66\ngini = 0.32\nsamples = 15\nvalue = [12, 3]", fillcolor="#eca06a"] ;
460 -> 470 ;
471 [label="brazil_store_near_price <= 19750.218\ngini = 0.444\nsamples = 9\nvalue = [6, 3]", fillcolor="#f2c09c"] ;
470 -> 471 ;
472 [label="sao_paulo_apartment_near_angle <= -105.151\ngini = 0.469\nsamples = 8\nvalue = [5, 3]", fillcolor="#f5cdb0"] ;
471 -> 472 ;
473 [label="gini = 0.0\nsamples = 5\nvalue = [5, 0]", fillcolor="#e58139"] ;
472 -> 473 ;
474 [label="gini = 0.0\nsamples = 3\nvalue = [0, 3]", fillcolor="#399de5"] ;
472 -> 474 ;
475 [label="gini = 0.0\nsamples = 1\nvalue = [1, 0]", fillcolor="#e58139"] ;
471 -> 475 ;
476 [label="gini = 0.0\nsamples = 6\nvalue = [6, 0]", fillcolor="#e58139"] ;
470 -> 476 ;
477 [label="brazil_store_near_angle <= -139.218\ngini = 0.408\nsamples = 7\nvalue = [5, 2]", fillcolor="#efb388"] ;
457 -> 477 ;
478 [label="brazil_store_near_price <= 5054.284\ngini = 0.5\nsamples = 4\nvalue = [2, 2]", fillcolor="#ffffff"] ;
477 -> 478 ;
479 [label="brazil_apartment_near_dist <= 120.212\ngini = 0.444\nsamples = 3\nvalue = [1, 2]", fillcolor="#9ccef2"] ;
478 -> 479 ;
480 [label="gini = 0.0\nsamples = 2\nvalue = [0, 2]", fillcolor="#399de5"] ;
479 -> 480 ;
481 [label="gini = 0.0\nsamples = 1\nvalue = [1, 0]", fillcolor="#e58139"] ;
479 -> 481 ;
482 [label="gini = 0.0\nsamples = 1\nvalue = [1, 0]", fillcolor="#e58139"] ;
478 -> 482 ;
483 [label="gini = 0.0\nsamples = 3\nvalue = [3, 0]", fillcolor="#e58139"] ;
477 -> 483 ;
484 [label="population_estimate <= 781.7\ngini = 0.444\nsamples = 3\nvalue = [2, 1]", fillcolor="#f2c09c"] ;
456 -> 484 ;
485 [label="gini = 0.0\nsamples = 1\nvalue = [0, 1]", fillcolor="#399de5"] ;
484 -> 485 ;
486 [label="gini = 0.0\nsamples = 2\nvalue = [2, 0]", fillcolor="#e58139"] ;
484 -> 486 ;
487 [label="sao_paulo_apartment_near_price <= 1091785.766\ngini = 0.365\nsamples = 212\nvalue = [161, 51]", fillcolor="#eda978"] ;
455 -> 487 ;
488 [label="brazil_ph_near_dist <= 1735.496\ngini = 0.36\nsamples = 208\nvalue = [159, 49]", fillcolor="#eda876"] ;
487 -> 488 ;
489 [label="brazil_house_near_angle <= 5.246\ngini = 0.43\nsamples = 64\nvalue = [44, 20]", fillcolor="#f1ba93"] ;
488 -> 489 ;
490 [label="brazil_apartment_near_angle <= -145.622\ngini = 0.388\nsamples = 38\nvalue = [28, 10]", fillcolor="#eeae80"] ;
489 -> 490 ;
491 [label="brazil_store_near_price <= 15123.852\ngini = 0.5\nsamples = 6\nvalue = [3, 3]", fillcolor="#ffffff"] ;
490 -> 491 ;
492 [label="brazil_store_near_price <= 2049.891\ngini = 0.48\nsamples = 5\nvalue = [2, 3]", fillcolor="#bddef6"] ;
491 -> 492 ;
493 [label="gini = 0.0\nsamples = 2\nvalue = [0, 2]", fillcolor="#399de5"] ;
492 -> 493 ;
494 [label="brazil_house_near_angle <= -136.188\ngini = 0.444\nsamples = 3\nvalue = [2, 1]", fillcolor="#f2c09c"] ;
492 -> 494 ;
495 [label="gini = 0.0\nsamples = 1\nvalue = [1, 0]", fillcolor="#e58139"] ;
494 -> 495 ;
496 [label="brazil_ph_near_angle <= -76.333\ngini = 0.5\nsamples = 2\nvalue = [1, 1]", fillcolor="#ffffff"] ;
494 -> 496 ;
497 [label="gini = 0.0\nsamples = 1\nvalue = [1, 0]", fillcolor="#e58139"] ;
496 -> 497 ;
498 [label="gini = 0.0\nsamples = 1\nvalue = [0, 1]", fillcolor="#399de5"] ;
496 -> 498 ;
499 [label="gini = 0.0\nsamples = 1\nvalue = [1, 0]", fillcolor="#e58139"] ;
491 -> 499 ;
500 [label="population_estimate <= 493.516\ngini = 0.342\nsamples = 32\nvalue = [25, 7]", fillcolor="#eca470"] ;
490 -> 500 ;
501 [label="brazil_store_near_angle <= 13.631\ngini = 0.117\nsamples = 16\nvalue = [15, 1]", fillcolor="#e78946"] ;
500 -> 501 ;
502 [label="sao_paulo_apartment_near_angle <= -148.289\ngini = 0.18\nsamples = 10\nvalue = [9, 1]", fillcolor="#e88f4f"] ;
501 -> 502 ;
503 [label="gini = 0.0\nsamples = 1\nvalue = [1, 0]", fillcolor="#e58139"] ;
502 -> 503 ;
504 [label="sao_paulo_apartment_near_price <= 195877.788\ngini = 0.198\nsamples = 9\nvalue = [8, 1]", fillcolor="#e89152"] ;
502 -> 504 ;
505 [label="brazil_store_near_angle <= -36.995\ngini = 0.278\nsamples = 6\nvalue = [5, 1]", fillcolor="#ea9a61"] ;
504 -> 505 ;
506 [label="gini = 0.0\nsamples = 4\nvalue = [4, 0]", fillcolor="#e58139"] ;
505 -> 506 ;
507 [label="brazil_store_near_dist <= 1434.134\ngini = 0.5\nsamples = 2\nvalue = [1, 1]", fillcolor="#ffffff"] ;
505 -> 507 ;
508 [label="gini = 0.0\nsamples = 1\nvalue = [1, 0]", fillcolor="#e58139"] ;
507 -> 508 ;
509 [label="gini = 0.0\nsamples = 1\nvalue = [0, 1]", fillcolor="#399de5"] ;
507 -> 509 ;
510 [label="gini = 0.0\nsamples = 3\nvalue = [3, 0]", fillcolor="#e58139"] ;
504 -> 510 ;
511 [label="gini = 0.0\nsamples = 6\nvalue = [6, 0]", fillcolor="#e58139"] ;
501 -> 511 ;
512 [label="brazil_house_near_price <= 27787.391\ngini = 0.469\nsamples = 16\nvalue = [10, 6]", fillcolor="#f5cdb0"] ;
500 -> 512 ;
513 [label="brazil_house_near_price <= 13945.684\ngini = 0.49\nsamples = 14\nvalue = [8, 6]", fillcolor="#f8e0ce"] ;
512 -> 513 ;
514 [label="population_estimate <= 550.058\ngini = 0.473\nsamples = 13\nvalue = [8, 5]", fillcolor="#f5d0b5"] ;
513 -> 514 ;
515 [label="brazil_ph_near_price <= 1903.87\ngini = 0.375\nsamples = 4\nvalue = [1, 3]", fillcolor="#7bbeee"] ;
514 -> 515 ;
516 [label="brazil_ph_near_angle <= -43.037\ngini = 0.5\nsamples = 2\nvalue = [1, 1]", fillcolor="#ffffff"] ;
515 -> 516 ;
517 [label="gini = 0.0\nsamples = 1\nvalue = [1, 0]", fillcolor="#e58139"] ;
516 -> 517 ;
518 [label="gini = 0.0\nsamples = 1\nvalue = [0, 1]", fillcolor="#399de5"] ;
516 -> 518 ;
519 [label="gini = 0.0\nsamples = 2\nvalue = [0, 2]", fillcolor="#399de5"] ;
515 -> 519 ;
520 [label="brazil_house_near_dist <= 455.172\ngini = 0.346\nsamples = 9\nvalue = [7, 2]", fillcolor="#eca572"] ;
514 -> 520 ;
521 [label="gini = 0.0\nsamples = 2\nvalue = [2, 0]", fillcolor="#e58139"] ;
520 -> 521 ;
522 [label="brazil_store_near_dist <= 1106.205\ngini = 0.408\nsamples = 7\nvalue = [5, 2]", fillcolor="#efb388"] ;
520 -> 522 ;
523 [label="brazil_store_near_price <= 8054.802\ngini = 0.444\nsamples = 6\nvalue = [4, 2]", fillcolor="#f2c09c"] ;
522 -> 523 ;
524 [label="brazil_house_near_angle <= -113.148\ngini = 0.32\nsamples = 5\nvalue = [4, 1]", fillcolor="#eca06a"] ;
523 -> 524 ;
525 [label="gini = 0.0\nsamples = 3\nvalue = [3, 0]", fillcolor="#e58139"] ;
524 -> 525 ;
526 [label="sao_paulo_apartment_near_price <= 127430.053\ngini = 0.5\nsamples = 2\nvalue = [1, 1]", fillcolor="#ffffff"] ;
524 -> 526 ;
527 [label="gini = 0.0\nsamples = 1\nvalue = [0, 1]", fillcolor="#399de5"] ;
526 -> 527 ;
528 [label="gini = 0.0\nsamples = 1\nvalue = [1, 0]", fillcolor="#e58139"] ;
526 -> 528 ;
529 [label="gini = 0.0\nsamples = 1\nvalue = [0, 1]", fillcolor="#399de5"] ;
523 -> 529 ;
530 [label="gini = 0.0\nsamples = 1\nvalue = [1, 0]", fillcolor="#e58139"] ;
522 -> 530 ;
531 [label="gini = 0.0\nsamples = 1\nvalue = [0, 1]", fillcolor="#399de5"] ;
513 -> 531 ;
532 [label="gini = 0.0\nsamples = 2\nvalue = [2, 0]", fillcolor="#e58139"] ;
512 -> 532 ;
533 [label="sao_paulo_apartment_near_price <= 214979.804\ngini = 0.473\nsamples = 26\nvalue = [16, 10]", fillcolor="#f5d0b5"] ;
489 -> 533 ;
534 [label="brazil_store_near_price <= 2158.197\ngini = 0.455\nsamples = 20\nvalue = [13, 7]", fillcolor="#f3c5a4"] ;
533 -> 534 ;
535 [label="brazil_apartment_near_angle <= 93.498\ngini = 0.245\nsamples = 7\nvalue = [6, 1]", fillcolor="#e9965a"] ;
534 -> 535 ;
536 [label="population_estimate <= 352.258\ngini = 0.375\nsamples = 4\nvalue = [3, 1]", fillcolor="#eeab7b"] ;
535 -> 536 ;
537 [label="gini = 0.0\nsamples = 3\nvalue = [3, 0]", fillcolor="#e58139"] ;
536 -> 537 ;
538 [label="gini = 0.0\nsamples = 1\nvalue = [0, 1]", fillcolor="#399de5"] ;
536 -> 538 ;
539 [label="gini = 0.0\nsamples = 3\nvalue = [3, 0]", fillcolor="#e58139"] ;
535 -> 539 ;
540 [label="brazil_apartment_near_angle <= -143.522\ngini = 0.497\nsamples = 13\nvalue = [7, 6]", fillcolor="#fbede3"] ;
534 -> 540 ;
541 [label="gini = 0.0\nsamples = 1\nvalue = [1, 0]", fillcolor="#e58139"] ;
540 -> 541 ;
542 [label="brazil_store_near_dist <= 1110.427\ngini = 0.5\nsamples = 12\nvalue = [6, 6]", fillcolor="#ffffff"] ;
540 -> 542 ;
543 [label="brazil_ph_near_price <= 4194.282\ngini = 0.48\nsamples = 10\nvalue = [6, 4]", fillcolor="#f6d5bd"] ;
542 -> 543 ;
544 [label="brazil_ph_near_price <= 2112.425\ngini = 0.444\nsamples = 6\nvalue = [2, 4]", fillcolor="#9ccef2"] ;
543 -> 544 ;
545 [label="brazil_ph_near_price <= 1259.814\ngini = 0.5\nsamples = 4\nvalue = [2, 2]", fillcolor="#ffffff"] ;
544 -> 545 ;
546 [label="brazil_ph_near_angle <= 64.244\ngini = 0.444\nsamples = 3\nvalue = [1, 2]", fillcolor="#9ccef2"] ;
545 -> 546 ;
547 [label="gini = 0.0\nsamples = 2\nvalue = [0, 2]", fillcolor="#399de5"] ;
546 -> 547 ;
548 [label="gini = 0.0\nsamples = 1\nvalue = [1, 0]", fillcolor="#e58139"] ;
546 -> 548 ;
549 [label="gini = 0.0\nsamples = 1\nvalue = [1, 0]", fillcolor="#e58139"] ;
545 -> 549 ;
550 [label="gini = 0.0\nsamples = 2\nvalue = [0, 2]", fillcolor="#399de5"] ;
544 -> 550 ;
551 [label="gini = 0.0\nsamples = 4\nvalue = [4, 0]", fillcolor="#e58139"] ;
543 -> 551 ;
552 [label="gini = 0.0\nsamples = 2\nvalue = [0, 2]", fillcolor="#399de5"] ;
542 -> 552 ;
553 [label="brazil_apartment_near_price <= 1419.417\ngini = 0.5\nsamples = 6\nvalue = [3, 3]", fillcolor="#ffffff"] ;
533 -> 553 ;
554 [label="brazil_house_near_price <= 9231.554\ngini = 0.375\nsamples = 4\nvalue = [3, 1]", fillcolor="#eeab7b"] ;
553 -> 554 ;
555 [label="population_estimate <= 180.731\ngini = 0.5\nsamples = 2\nvalue = [1, 1]", fillcolor="#ffffff"] ;
554 -> 555 ;
556 [label="gini = 0.0\nsamples = 1\nvalue = [0, 1]", fillcolor="#399de5"] ;
555 -> 556 ;
557 [label="gini = 0.0\nsamples = 1\nvalue = [1, 0]", fillcolor="#e58139"] ;
555 -> 557 ;
558 [label="gini = 0.0\nsamples = 2\nvalue = [2, 0]", fillcolor="#e58139"] ;
554 -> 558 ;
559 [label="gini = 0.0\nsamples = 2\nvalue = [0, 2]", fillcolor="#399de5"] ;
553 -> 559 ;
560 [label="brazil_ph_near_angle <= 171.661\ngini = 0.322\nsamples = 144\nvalue = [115, 29]", fillcolor="#eca16b"] ;
488 -> 560 ;
561 [label="brazil_house_near_dist <= 512.979\ngini = 0.315\nsamples = 143\nvalue = [115, 28]", fillcolor="#eba069"] ;
560 -> 561 ;
562 [label="brazil_house_near_dist <= 431.914\ngini = 0.348\nsamples = 49\nvalue = [38, 11]", fillcolor="#eda572"] ;
561 -> 562 ;
563 [label="brazil_apartment_near_dist <= 530.802\ngini = 0.198\nsamples = 9\nvalue = [8, 1]", fillcolor="#e89152"] ;
562 -> 563 ;
564 [label="gini = 0.0\nsamples = 8\nvalue = [8, 0]", fillcolor="#e58139"] ;
563 -> 564 ;
565 [label="gini = 0.0\nsamples = 1\nvalue = [0, 1]", fillcolor="#399de5"] ;
563 -> 565 ;
566 [label="brazil_ph_near_angle <= 89.077\ngini = 0.375\nsamples = 40\nvalue = [30, 10]", fillcolor="#eeab7b"] ;
562 -> 566 ;
567 [label="brazil_store_near_angle <= -77.619\ngini = 0.422\nsamples = 33\nvalue = [23, 10]", fillcolor="#f0b88f"] ;
566 -> 567 ;
568 [label="gini = 0.0\nsamples = 2\nvalue = [2, 0]", fillcolor="#e58139"] ;
567 -> 568 ;
569 [label="brazil_store_near_angle <= 91.043\ngini = 0.437\nsamples = 31\nvalue = [21, 10]", fillcolor="#f1bd97"] ;
567 -> 569 ;
570 [label="brazil_apartment_near_dist <= 527.84\ngini = 0.475\nsamples = 18\nvalue = [11, 7]", fillcolor="#f6d1b7"] ;
569 -> 570 ;
571 [label="population_estimate <= 641.72\ngini = 0.278\nsamples = 12\nvalue = [10, 2]", fillcolor="#ea9a61"] ;
570 -> 571 ;
572 [label="gini = 0.0\nsamples = 7\nvalue = [7, 0]", fillcolor="#e58139"] ;
571 -> 572 ;
573 [label="brazil_store_near_price <= 12210.265\ngini = 0.48\nsamples = 5\nvalue = [3, 2]", fillcolor="#f6d5bd"] ;
571 -> 573 ;
574 [label="gini = 0.0\nsamples = 3\nvalue = [3, 0]", fillcolor="#e58139"] ;
573 -> 574 ;
575 [label="gini = 0.0\nsamples = 2\nvalue = [0, 2]", fillcolor="#399de5"] ;
573 -> 575 ;
576 [label="sao_paulo_apartment_near_dist <= 98.684\ngini = 0.278\nsamples = 6\nvalue = [1, 5]", fillcolor="#61b1ea"] ;
570 -> 576 ;
577 [label="sao_paulo_apartment_near_angle <= -146.421\ngini = 0.444\nsamples = 3\nvalue = [1, 2]", fillcolor="#9ccef2"] ;
576 -> 577 ;
578 [label="gini = 0.0\nsamples = 2\nvalue = [0, 2]", fillcolor="#399de5"] ;
577 -> 578 ;
579 [label="gini = 0.0\nsamples = 1\nvalue = [1, 0]", fillcolor="#e58139"] ;
577 -> 579 ;
580 [label="gini = 0.0\nsamples = 3\nvalue = [0, 3]", fillcolor="#399de5"] ;
576 -> 580 ;
581 [label="brazil_ph_near_dist <= 2977.725\ngini = 0.355\nsamples = 13\nvalue = [10, 3]", fillcolor="#eda774"] ;
569 -> 581 ;
582 [label="brazil_house_near_price <= 1006.311\ngini = 0.48\nsamples = 5\nvalue = [2, 3]", fillcolor="#bddef6"] ;
581 -> 582 ;
583 [label="gini = 0.0\nsamples = 1\nvalue = [1, 0]", fillcolor="#e58139"] ;
582 -> 583 ;
584 [label="brazil_ph_near_price <= 2097.304\ngini = 0.375\nsamples = 4\nvalue = [1, 3]", fillcolor="#7bbeee"] ;
582 -> 584 ;
585 [label="gini = 0.0\nsamples = 1\nvalue = [1, 0]", fillcolor="#e58139"] ;
584 -> 585 ;
586 [label="gini = 0.0\nsamples = 3\nvalue = [0, 3]", fillcolor="#399de5"] ;
584 -> 586 ;
587 [label="gini = 0.0\nsamples = 8\nvalue = [8, 0]", fillcolor="#e58139"] ;
581 -> 587 ;
588 [label="gini = 0.0\nsamples = 7\nvalue = [7, 0]", fillcolor="#e58139"] ;
566 -> 588 ;
589 [label="brazil_house_near_angle <= 29.427\ngini = 0.296\nsamples = 94\nvalue = [77, 17]", fillcolor="#eb9d65"] ;
561 -> 589 ;
590 [label="brazil_ph_near_price <= 1873.739\ngini = 0.362\nsamples = 59\nvalue = [45, 14]", fillcolor="#eda877"] ;
589 -> 590 ;
591 [label="brazil_apartment_count_listings <= 0.165\ngini = 0.456\nsamples = 37\nvalue = [24, 13]", fillcolor="#f3c5a4"] ;
590 -> 591 ;
592 [label="brazil_house_near_angle <= -32.109\ngini = 0.444\nsamples = 36\nvalue = [24, 12]", fillcolor="#f2c09c"] ;
591 -> 592 ;
593 [label="brazil_apartment_near_angle <= -75.092\ngini = 0.397\nsamples = 22\nvalue = [16, 6]", fillcolor="#efb083"] ;
592 -> 593 ;
594 [label="brazil_store_near_angle <= -41.119\ngini = 0.245\nsamples = 14\nvalue = [12, 2]", fillcolor="#e9965a"] ;
593 -> 594 ;
595 [label="brazil_apartment_near_angle <= -159.73\ngini = 0.18\nsamples = 10\nvalue = [9, 1]", fillcolor="#e88f4f"] ;
594 -> 595 ;
596 [label="sao_paulo_apartment_near_dist <= 167.509\ngini = 0.5\nsamples = 2\nvalue = [1, 1]", fillcolor="#ffffff"] ;
595 -> 596 ;
597 [label="gini = 0.0\nsamples = 1\nvalue = [0, 1]", fillcolor="#399de5"] ;
596 -> 597 ;
598 [label="gini = 0.0\nsamples = 1\nvalue = [1, 0]", fillcolor="#e58139"] ;
596 -> 598 ;
599 [label="gini = 0.0\nsamples = 8\nvalue = [8, 0]", fillcolor="#e58139"] ;
595 -> 599 ;
600 [label="brazil_ph_near_price <= 1170.192\ngini = 0.375\nsamples = 4\nvalue = [3, 1]", fillcolor="#eeab7b"] ;
594 -> 600 ;
601 [label="gini = 0.0\nsamples = 2\nvalue = [2, 0]", fillcolor="#e58139"] ;
600 -> 601 ;
602 [label="brazil_store_near_dist <= 1218.539\ngini = 0.5\nsamples = 2\nvalue = [1, 1]", fillcolor="#ffffff"] ;
600 -> 602 ;
603 [label="gini = 0.0\nsamples = 1\nvalue = [0, 1]", fillcolor="#399de5"] ;
602 -> 603 ;
604 [label="gini = 0.0\nsamples = 1\nvalue = [1, 0]", fillcolor="#e58139"] ;
602 -> 604 ;
605 [label="population_estimate <= 661.91\ngini = 0.5\nsamples = 8\nvalue = [4, 4]", fillcolor="#ffffff"] ;
593 -> 605 ;
606 [label="brazil_house_near_angle <= -79.275\ngini = 0.444\nsamples = 6\nvalue = [2, 4]", fillcolor="#9ccef2"] ;
605 -> 606 ;
607 [label="gini = 0.0\nsamples = 1\nvalue = [1, 0]", fillcolor="#e58139"] ;
606 -> 607 ;
608 [label="brazil_store_near_dist <= 1084.465\ngini = 0.32\nsamples = 5\nvalue = [1, 4]", fillcolor="#6ab6ec"] ;
606 -> 608 ;
609 [label="gini = 0.0\nsamples = 1\nvalue = [0, 1]", fillcolor="#399de5"] ;
608 -> 609 ;
610 [label="brazil_ph_near_dist <= 3121.993\ngini = 0.375\nsamples = 4\nvalue = [1, 3]", fillcolor="#7bbeee"] ;
608 -> 610 ;
611 [label="gini = 0.0\nsamples = 2\nvalue = [0, 2]", fillcolor="#399de5"] ;
610 -> 611 ;
612 [label="brazil_ph_near_dist <= 3638.13\ngini = 0.5\nsamples = 2\nvalue = [1, 1]", fillcolor="#ffffff"] ;
610 -> 612 ;
613 [label="gini = 0.0\nsamples = 1\nvalue = [0, 1]", fillcolor="#399de5"] ;
612 -> 613 ;
614 [label="gini = 0.0\nsamples = 1\nvalue = [1, 0]", fillcolor="#e58139"] ;
612 -> 614 ;
615 [label="gini = 0.0\nsamples = 2\nvalue = [2, 0]", fillcolor="#e58139"] ;
605 -> 615 ;
616 [label="brazil_apartment_near_dist <= 239.428\ngini = 0.49\nsamples = 14\nvalue = [8, 6]", fillcolor="#f8e0ce"] ;
592 -> 616 ;
617 [label="gini = 0.0\nsamples = 1\nvalue = [0, 1]", fillcolor="#399de5"] ;
616 -> 617 ;
618 [label="brazil_house_near_price <= 3152.86\ngini = 0.473\nsamples = 13\nvalue = [8, 5]", fillcolor="#f5d0b5"] ;
616 -> 618 ;
619 [label="sao_paulo_apartment_near_angle <= -120.286\ngini = 0.486\nsamples = 12\nvalue = [7, 5]", fillcolor="#f8dbc6"] ;
618 -> 619 ;
620 [label="sao_paulo_apartment_near_angle <= -149.664\ngini = 0.444\nsamples = 6\nvalue = [2, 4]", fillcolor="#9ccef2"] ;
619 -> 620 ;
621 [label="gini = 0.0\nsamples = 3\nvalue = [0, 3]", fillcolor="#399de5"] ;
620 -> 621 ;
622 [label="brazil_store_near_price <= 14295.774\ngini = 0.444\nsamples = 3\nvalue = [2, 1]", fillcolor="#f2c09c"] ;
620 -> 622 ;
623 [label="gini = 0.0\nsamples = 2\nvalue = [2, 0]", fillcolor="#e58139"] ;
622 -> 623 ;
624 [label="gini = 0.0\nsamples = 1\nvalue = [0, 1]", fillcolor="#399de5"] ;
622 -> 624 ;
625 [label="brazil_apartment_near_price <= 908.83\ngini = 0.278\nsamples = 6\nvalue = [5, 1]", fillcolor="#ea9a61"] ;
619 -> 625 ;
626 [label="gini = 0.0\nsamples = 1\nvalue = [0, 1]", fillcolor="#399de5"] ;
625 -> 626 ;
627 [label="gini = 0.0\nsamples = 5\nvalue = [5, 0]", fillcolor="#e58139"] ;
625 -> 627 ;
628 [label="gini = 0.0\nsamples = 1\nvalue = [1, 0]", fillcolor="#e58139"] ;
618 -> 628 ;
629 [label="gini = 0.0\nsamples = 1\nvalue = [0, 1]", fillcolor="#399de5"] ;
591 -> 629 ;
630 [label="brazil_house_near_dist <= 658.038\ngini = 0.087\nsamples = 22\nvalue = [21, 1]", fillcolor="#e68742"] ;
590 -> 630 ;
631 [label="sao_paulo_apartment_near_dist <= 146.035\ngini = 0.245\nsamples = 7\nvalue = [6, 1]", fillcolor="#e9965a"] ;
630 -> 631 ;
632 [label="gini = 0.0\nsamples = 6\nvalue = [6, 0]", fillcolor="#e58139"] ;
631 -> 632 ;
633 [label="gini = 0.0\nsamples = 1\nvalue = [0, 1]", fillcolor="#399de5"] ;
631 -> 633 ;
634 [label="gini = 0.0\nsamples = 15\nvalue = [15, 0]", fillcolor="#e58139"] ;
630 -> 634 ;
635 [label="sao_paulo_apartment_near_angle <= -116.995\ngini = 0.157\nsamples = 35\nvalue = [32, 3]", fillcolor="#e78d4c"] ;
589 -> 635 ;
636 [label="gini = 0.0\nsamples = 23\nvalue = [23, 0]", fillcolor="#e58139"] ;
635 -> 636 ;
637 [label="brazil_store_near_dist <= 608.83\ngini = 0.375\nsamples = 12\nvalue = [9, 3]", fillcolor="#eeab7b"] ;
635 -> 637 ;
638 [label="gini = 0.0\nsamples = 2\nvalue = [2, 0]", fillcolor="#e58139"] ;
637 -> 638 ;
639 [label="listing/area <= 0.0\ngini = 0.42\nsamples = 10\nvalue = [7, 3]", fillcolor="#f0b78e"] ;
637 -> 639 ;
640 [label="brazil_house_near_price <= 5658.682\ngini = 0.444\nsamples = 9\nvalue = [6, 3]", fillcolor="#f2c09c"] ;
639 -> 640 ;
641 [label="brazil_ph_near_dist <= 3938.458\ngini = 0.375\nsamples = 8\nvalue = [6, 2]", fillcolor="#eeab7b"] ;
640 -> 641 ;
642 [label="brazil_house_near_dist <= 876.081\ngini = 0.375\nsamples = 4\nvalue = [3, 1]", fillcolor="#eeab7b"] ;
641 -> 642 ;
643 [label="gini = 0.0\nsamples = 2\nvalue = [2, 0]", fillcolor="#e58139"] ;
642 -> 643 ;
644 [label="brazil_store_near_price <= 7116.17\ngini = 0.5\nsamples = 2\nvalue = [1, 1]", fillcolor="#ffffff"] ;
642 -> 644 ;
645 [label="gini = 0.0\nsamples = 1\nvalue = [0, 1]", fillcolor="#399de5"] ;
644 -> 645 ;
646 [label="gini = 0.0\nsamples = 1\nvalue = [1, 0]", fillcolor="#e58139"] ;
644 -> 646 ;
647 [label="population_estimate <= 609.506\ngini = 0.375\nsamples = 4\nvalue = [3, 1]", fillcolor="#eeab7b"] ;
641 -> 647 ;
648 [label="brazil_house_near_dist <= 768.523\ngini = 0.5\nsamples = 2\nvalue = [1, 1]", fillcolor="#ffffff"] ;
647 -> 648 ;
649 [label="gini = 0.0\nsamples = 1\nvalue = [0, 1]", fillcolor="#399de5"] ;
648 -> 649 ;
650 [label="gini = 0.0\nsamples = 1\nvalue = [1, 0]", fillcolor="#e58139"] ;
648 -> 650 ;
651 [label="gini = 0.0\nsamples = 2\nvalue = [2, 0]", fillcolor="#e58139"] ;
647 -> 651 ;
652 [label="gini = 0.0\nsamples = 1\nvalue = [0, 1]", fillcolor="#399de5"] ;
640 -> 652 ;
653 [label="gini = 0.0\nsamples = 1\nvalue = [1, 0]", fillcolor="#e58139"] ;
639 -> 653 ;
654 [label="gini = 0.0\nsamples = 1\nvalue = [0, 1]", fillcolor="#399de5"] ;
560 -> 654 ;
655 [label="brazil_house_near_dist <= 902.513\ngini = 0.5\nsamples = 4\nvalue = [2, 2]", fillcolor="#ffffff"] ;
487 -> 655 ;
656 [label="gini = 0.0\nsamples = 2\nvalue = [2, 0]", fillcolor="#e58139"] ;
655 -> 656 ;
657 [label="gini = 0.0\nsamples = 2\nvalue = [0, 2]", fillcolor="#399de5"] ;
655 -> 657 ;
658 [label="brazil_ph_near_dist <= 5258.915\ngini = 0.493\nsamples = 61\nvalue = [34, 27]", fillcolor="#fae5d6"] ;
454 -> 658 ;
659 [label="brazil_store_near_price <= 54538.903\ngini = 0.5\nsamples = 55\nvalue = [28, 27]", fillcolor="#fefaf8"] ;
658 -> 659 ;
660 [label="brazil_ph_near_dist <= 1059.935\ngini = 0.499\nsamples = 54\nvalue = [28, 26]", fillcolor="#fdf6f1"] ;
659 -> 660 ;
661 [label="brazil_store_near_angle <= -20.559\ngini = 0.459\nsamples = 14\nvalue = [5, 9]", fillcolor="#a7d3f3"] ;
660 -> 661 ;
662 [label="brazil_house_near_price <= 2079.803\ngini = 0.219\nsamples = 8\nvalue = [1, 7]", fillcolor="#55abe9"] ;
661 -> 662 ;
663 [label="gini = 0.0\nsamples = 6\nvalue = [0, 6]", fillcolor="#399de5"] ;
662 -> 663 ;
664 [label="brazil_house_near_dist <= 479.607\ngini = 0.5\nsamples = 2\nvalue = [1, 1]", fillcolor="#ffffff"] ;
662 -> 664 ;
665 [label="gini = 0.0\nsamples = 1\nvalue = [1, 0]", fillcolor="#e58139"] ;
664 -> 665 ;
666 [label="gini = 0.0\nsamples = 1\nvalue = [0, 1]", fillcolor="#399de5"] ;
664 -> 666 ;
667 [label="brazil_house_near_angle <= -158.496\ngini = 0.444\nsamples = 6\nvalue = [4, 2]", fillcolor="#f2c09c"] ;
661 -> 667 ;
668 [label="gini = 0.0\nsamples = 1\nvalue = [1, 0]", fillcolor="#e58139"] ;
667 -> 668 ;
669 [label="brazil_ph_near_price <= 1840.587\ngini = 0.48\nsamples = 5\nvalue = [3, 2]", fillcolor="#f6d5bd"] ;
667 -> 669 ;
670 [label="brazil_store_near_angle <= 138.01\ngini = 0.444\nsamples = 3\nvalue = [1, 2]", fillcolor="#9ccef2"] ;
669 -> 670 ;
671 [label="sao_paulo_apartment_near_angle <= -138.503\ngini = 0.5\nsamples = 2\nvalue = [1, 1]", fillcolor="#ffffff"] ;
670 -> 671 ;
672 [label="gini = 0.0\nsamples = 1\nvalue = [0, 1]", fillcolor="#399de5"] ;
671 -> 672 ;
673 [label="gini = 0.0\nsamples = 1\nvalue = [1, 0]", fillcolor="#e58139"] ;
671 -> 673 ;
674 [label="gini = 0.0\nsamples = 1\nvalue = [0, 1]", fillcolor="#399de5"] ;
670 -> 674 ;
675 [label="gini = 0.0\nsamples = 2\nvalue = [2, 0]", fillcolor="#e58139"] ;
669 -> 675 ;
676 [label="listing/area <= 0.0\ngini = 0.489\nsamples = 40\nvalue = [23, 17]", fillcolor="#f8decb"] ;
660 -> 676 ;
677 [label="brazil_store_near_dist <= 885.294\ngini = 0.484\nsamples = 39\nvalue = [23, 16]", fillcolor="#f7d9c3"] ;
676 -> 677 ;
678 [label="population_estimate <= 1202.74\ngini = 0.408\nsamples = 21\nvalue = [15, 6]", fillcolor="#efb388"] ;
677 -> 678 ;
679 [label="brazil_store_near_angle <= -76.996\ngini = 0.337\nsamples = 14\nvalue = [11, 3]", fillcolor="#eca36f"] ;
678 -> 679 ;
680 [label="gini = 0.0\nsamples = 4\nvalue = [4, 0]", fillcolor="#e58139"] ;
679 -> 680 ;
681 [label="brazil_ph_near_dist <= 1663.03\ngini = 0.42\nsamples = 10\nvalue = [7, 3]", fillcolor="#f0b78e"] ;
679 -> 681 ;
682 [label="gini = 0.0\nsamples = 1\nvalue = [1, 0]", fillcolor="#e58139"] ;
681 -> 682 ;
683 [label="brazil_ph_near_price <= 2801.982\ngini = 0.444\nsamples = 9\nvalue = [6, 3]", fillcolor="#f2c09c"] ;
681 -> 683 ;
684 [label="sao_paulo_apartment_near_angle <= -102.761\ngini = 0.469\nsamples = 8\nvalue = [5, 3]", fillcolor="#f5cdb0"] ;
683 -> 684 ;
685 [label="population_estimate <= 1022.623\ngini = 0.278\nsamples = 6\nvalue = [5, 1]", fillcolor="#ea9a61"] ;
684 -> 685 ;
686 [label="brazil_apartment_near_dist <= 491.684\ngini = 0.375\nsamples = 4\nvalue = [3, 1]", fillcolor="#eeab7b"] ;
685 -> 686 ;
687 [label="brazil_house_near_angle <= 91.856\ngini = 0.5\nsamples = 2\nvalue = [1, 1]", fillcolor="#ffffff"] ;
686 -> 687 ;
688 [label="gini = 0.0\nsamples = 1\nvalue = [1, 0]", fillcolor="#e58139"] ;
687 -> 688 ;
689 [label="gini = 0.0\nsamples = 1\nvalue = [0, 1]", fillcolor="#399de5"] ;
687 -> 689 ;
690 [label="gini = 0.0\nsamples = 2\nvalue = [2, 0]", fillcolor="#e58139"] ;
686 -> 690 ;
691 [label="gini = 0.0\nsamples = 2\nvalue = [2, 0]", fillcolor="#e58139"] ;
685 -> 691 ;
692 [label="gini = 0.0\nsamples = 2\nvalue = [0, 2]", fillcolor="#399de5"] ;
684 -> 692 ;
693 [label="gini = 0.0\nsamples = 1\nvalue = [1, 0]", fillcolor="#e58139"] ;
683 -> 693 ;
694 [label="brazil_apartment_near_price <= 1780.532\ngini = 0.49\nsamples = 7\nvalue = [4, 3]", fillcolor="#f8e0ce"] ;
678 -> 694 ;
695 [label="gini = 0.0\nsamples = 3\nvalue = [3, 0]", fillcolor="#e58139"] ;
694 -> 695 ;
696 [label="sao_paulo_apartment_near_angle <= -158.55\ngini = 0.375\nsamples = 4\nvalue = [1, 3]", fillcolor="#7bbeee"] ;
694 -> 696 ;
697 [label="gini = 0.0\nsamples = 1\nvalue = [1, 0]", fillcolor="#e58139"] ;
696 -> 697 ;
698 [label="gini = 0.0\nsamples = 3\nvalue = [0, 3]", fillcolor="#399de5"] ;
696 -> 698 ;
699 [label="brazil_apartment_near_price <= 1454.312\ngini = 0.494\nsamples = 18\nvalue = [8, 10]", fillcolor="#d7ebfa"] ;
677 -> 699 ;
700 [label="brazil_ph_near_dist <= 3610.505\ngini = 0.5\nsamples = 12\nvalue = [6, 6]", fillcolor="#ffffff"] ;
699 -> 700 ;
701 [label="gini = 0.0\nsamples = 5\nvalue = [5, 0]", fillcolor="#e58139"] ;
700 -> 701 ;
702 [label="brazil_house_near_price <= 1482.975\ngini = 0.245\nsamples = 7\nvalue = [1, 6]", fillcolor="#5aade9"] ;
700 -> 702 ;
703 [label="gini = 0.0\nsamples = 6\nvalue = [0, 6]", fillcolor="#399de5"] ;
702 -> 703 ;
704 [label="gini = 0.0\nsamples = 1\nvalue = [1, 0]", fillcolor="#e58139"] ;
702 -> 704 ;
705 [label="population_estimate <= 1214.607\ngini = 0.444\nsamples = 6\nvalue = [2, 4]", fillcolor="#9ccef2"] ;
699 -> 705 ;
706 [label="gini = 0.0\nsamples = 2\nvalue = [2, 0]", fillcolor="#e58139"] ;
705 -> 706 ;
707 [label="gini = 0.0\nsamples = 4\nvalue = [0, 4]", fillcolor="#399de5"] ;
705 -> 707 ;
708 [label="gini = 0.0\nsamples = 1\nvalue = [0, 1]", fillcolor="#399de5"] ;
676 -> 708 ;
709 [label="gini = 0.0\nsamples = 1\nvalue = [0, 1]", fillcolor="#399de5"] ;
659 -> 709 ;
710 [label="gini = 0.0\nsamples = 6\nvalue = [6, 0]", fillcolor="#e58139"] ;
658 -> 710 ;
711 [label="brazil_store_near_dist <= 1902.5\ngini = 0.478\nsamples = 43\nvalue = [26, 17]", fillcolor="#f6d3ba"] ;
119 -> 711 ;
712 [label="sao_paulo_apartment_near_dist <= 70.15\ngini = 0.444\nsamples = 30\nvalue = [20, 10]", fillcolor="#f2c09c"] ;
711 -> 712 ;
713 [label="brazil_ph_near_angle <= -84.085\ngini = 0.32\nsamples = 10\nvalue = [8, 2]", fillcolor="#eca06a"] ;
712 -> 713 ;
714 [label="brazil_apartment_near_dist <= 870.415\ngini = 0.5\nsamples = 4\nvalue = [2, 2]", fillcolor="#ffffff"] ;
713 -> 714 ;
715 [label="sao_paulo_apartment_near_dist <= 6.343\ngini = 0.444\nsamples = 3\nvalue = [1, 2]", fillcolor="#9ccef2"] ;
714 -> 715 ;
716 [label="gini = 0.0\nsamples = 1\nvalue = [0, 1]", fillcolor="#399de5"] ;
715 -> 716 ;
717 [label="brazil_store_near_dist <= 808.403\ngini = 0.5\nsamples = 2\nvalue = [1, 1]", fillcolor="#ffffff"] ;
715 -> 717 ;
718 [label="gini = 0.0\nsamples = 1\nvalue = [1, 0]", fillcolor="#e58139"] ;
717 -> 718 ;
719 [label="gini = 0.0\nsamples = 1\nvalue = [0, 1]", fillcolor="#399de5"] ;
717 -> 719 ;
720 [label="gini = 0.0\nsamples = 1\nvalue = [1, 0]", fillcolor="#e58139"] ;
714 -> 720 ;
721 [label="gini = 0.0\nsamples = 6\nvalue = [6, 0]", fillcolor="#e58139"] ;
713 -> 721 ;
722 [label="brazil_apartment_near_dist <= 1270.089\ngini = 0.48\nsamples = 20\nvalue = [12, 8]", fillcolor="#f6d5bd"] ;
712 -> 722 ;
723 [label="brazil_apartment_near_angle <= -101.711\ngini = 0.337\nsamples = 14\nvalue = [11, 3]", fillcolor="#eca36f"] ;
722 -> 723 ;
724 [label="gini = 0.0\nsamples = 2\nvalue = [2, 0]", fillcolor="#e58139"] ;
723 -> 724 ;
725 [label="sao_paulo_apartment_near_price <= 642044.61\ngini = 0.375\nsamples = 12\nvalue = [9, 3]", fillcolor="#eeab7b"] ;
723 -> 725 ;
726 [label="brazil_store_near_angle <= -64.792\ngini = 0.397\nsamples = 11\nvalue = [8, 3]", fillcolor="#efb083"] ;
725 -> 726 ;
727 [label="gini = 0.0\nsamples = 4\nvalue = [4, 0]", fillcolor="#e58139"] ;
726 -> 727 ;
728 [label="brazil_store_near_dist <= 1295.219\ngini = 0.49\nsamples = 7\nvalue = [4, 3]", fillcolor="#f8e0ce"] ;
726 -> 728 ;
729 [label="brazil_store_near_dist <= 174.247\ngini = 0.375\nsamples = 4\nvalue = [3, 1]", fillcolor="#eeab7b"] ;
728 -> 729 ;
730 [label="gini = 0.0\nsamples = 1\nvalue = [1, 0]", fillcolor="#e58139"] ;
729 -> 730 ;
731 [label="brazil_store_near_dist <= 749.113\ngini = 0.444\nsamples = 3\nvalue = [2, 1]", fillcolor="#f2c09c"] ;
729 -> 731 ;
732 [label="sao_paulo_apartment_near_angle <= -168.194\ngini = 0.5\nsamples = 2\nvalue = [1, 1]", fillcolor="#ffffff"] ;
731 -> 732 ;
733 [label="gini = 0.0\nsamples = 1\nvalue = [1, 0]", fillcolor="#e58139"] ;
732 -> 733 ;
734 [label="gini = 0.0\nsamples = 1\nvalue = [0, 1]", fillcolor="#399de5"] ;
732 -> 734 ;
735 [label="gini = 0.0\nsamples = 1\nvalue = [1, 0]", fillcolor="#e58139"] ;
731 -> 735 ;
736 [label="sao_paulo_apartment_near_angle <= -90.922\ngini = 0.444\nsamples = 3\nvalue = [1, 2]", fillcolor="#9ccef2"] ;
728 -> 736 ;
737 [label="brazil_house_near_dist <= 1324.023\ngini = 0.5\nsamples = 2\nvalue = [1, 1]", fillcolor="#ffffff"] ;
736 -> 737 ;
738 [label="gini = 0.0\nsamples = 1\nvalue = [0, 1]", fillcolor="#399de5"] ;
737 -> 738 ;
739 [label="gini = 0.0\nsamples = 1\nvalue = [1, 0]", fillcolor="#e58139"] ;
737 -> 739 ;
740 [label="gini = 0.0\nsamples = 1\nvalue = [0, 1]", fillcolor="#399de5"] ;
736 -> 740 ;
741 [label="gini = 0.0\nsamples = 1\nvalue = [1, 0]", fillcolor="#e58139"] ;
725 -> 741 ;
742 [label="brazil_store_near_angle <= -0.244\ngini = 0.278\nsamples = 6\nvalue = [1, 5]", fillcolor="#61b1ea"] ;
722 -> 742 ;
743 [label="brazil_apartment_near_price <= 1131.375\ngini = 0.5\nsamples = 2\nvalue = [1, 1]", fillcolor="#ffffff"] ;
742 -> 743 ;
744 [label="gini = 0.0\nsamples = 1\nvalue = [0, 1]", fillcolor="#399de5"] ;
743 -> 744 ;
745 [label="gini = 0.0\nsamples = 1\nvalue = [1, 0]", fillcolor="#e58139"] ;
743 -> 745 ;
746 [label="gini = 0.0\nsamples = 4\nvalue = [0, 4]", fillcolor="#399de5"] ;
742 -> 746 ;
747 [label="sao_paulo_apartment_near_price <= 22647.074\ngini = 0.497\nsamples = 13\nvalue = [6, 7]", fillcolor="#e3f1fb"] ;
711 -> 747 ;
748 [label="gini = 0.0\nsamples = 4\nvalue = [0, 4]", fillcolor="#399de5"] ;
747 -> 748 ;
749 [label="brazil_house_near_price <= 844.231\ngini = 0.444\nsamples = 9\nvalue = [6, 3]", fillcolor="#f2c09c"] ;
747 -> 749 ;
750 [label="gini = 0.0\nsamples = 3\nvalue = [3, 0]", fillcolor="#e58139"] ;
749 -> 750 ;
751 [label="brazil_apartment_near_dist <= 1423.38\ngini = 0.5\nsamples = 6\nvalue = [3, 3]", fillcolor="#ffffff"] ;
749 -> 751 ;
752 [label="gini = 0.0\nsamples = 2\nvalue = [0, 2]", fillcolor="#399de5"] ;
751 -> 752 ;
753 [label="sao_paulo_apartment_near_price <= 209085.98\ngini = 0.375\nsamples = 4\nvalue = [3, 1]", fillcolor="#eeab7b"] ;
751 -> 753 ;
754 [label="brazil_store_near_angle <= 49.424\ngini = 0.444\nsamples = 3\nvalue = [2, 1]", fillcolor="#f2c09c"] ;
753 -> 754 ;
755 [label="gini = 0.0\nsamples = 1\nvalue = [0, 1]", fillcolor="#399de5"] ;
754 -> 755 ;
756 [label="gini = 0.0\nsamples = 2\nvalue = [2, 0]", fillcolor="#e58139"] ;
754 -> 756 ;
757 [label="gini = 0.0\nsamples = 1\nvalue = [1, 0]", fillcolor="#e58139"] ;
753 -> 757 ;
758 [label="population_estimate <= 1273.177\ngini = 0.341\nsamples = 399\nvalue = [312, 87]", fillcolor="#eca470"] ;
118 -> 758 ;
759 [label="sao_paulo_apartment_near_angle <= -165.548\ngini = 0.328\nsamples = 378\nvalue = [300, 78]", fillcolor="#eca26c"] ;
758 -> 759 ;
760 [label="brazil_house_near_dist <= 249.068\ngini = 0.245\nsamples = 42\nvalue = [36, 6]", fillcolor="#e9965a"] ;
759 -> 760 ;
761 [label="brazil_ph_near_angle <= 56.051\ngini = 0.48\nsamples = 5\nvalue = [3, 2]", fillcolor="#f6d5bd"] ;
760 -> 761 ;
762 [label="brazil_ph_near_dist <= 8207.683\ngini = 0.444\nsamples = 3\nvalue = [1, 2]", fillcolor="#9ccef2"] ;
761 -> 762 ;
763 [label="sao_paulo_apartment_near_dist <= 55.245\ngini = 0.5\nsamples = 2\nvalue = [1, 1]", fillcolor="#ffffff"] ;
762 -> 763 ;
764 [label="gini = 0.0\nsamples = 1\nvalue = [0, 1]", fillcolor="#399de5"] ;
763 -> 764 ;
765 [label="gini = 0.0\nsamples = 1\nvalue = [1, 0]", fillcolor="#e58139"] ;
763 -> 765 ;
766 [label="gini = 0.0\nsamples = 1\nvalue = [0, 1]", fillcolor="#399de5"] ;
762 -> 766 ;
767 [label="gini = 0.0\nsamples = 2\nvalue = [2, 0]", fillcolor="#e58139"] ;
761 -> 767 ;
768 [label="sao_paulo_apartment_near_angle <= -173.987\ngini = 0.193\nsamples = 37\nvalue = [33, 4]", fillcolor="#e89051"] ;
760 -> 768 ;
769 [label="brazil_store_near_dist <= 1749.501\ngini = 0.159\nsamples = 23\nvalue = [21, 2]", fillcolor="#e78d4c"] ;
768 -> 769 ;
770 [label="gini = 0.0\nsamples = 12\nvalue = [12, 0]", fillcolor="#e58139"] ;
769 -> 770 ;
771 [label="brazil_ph_near_price <= 2662.678\ngini = 0.298\nsamples = 11\nvalue = [9, 2]", fillcolor="#eb9d65"] ;
769 -> 771 ;
772 [label="gini = 0.0\nsamples = 5\nvalue = [5, 0]", fillcolor="#e58139"] ;
771 -> 772 ;
773 [label="brazil_apartment_near_dist <= 584.174\ngini = 0.444\nsamples = 6\nvalue = [4, 2]", fillcolor="#f2c09c"] ;
771 -> 773 ;
774 [label="gini = 0.0\nsamples = 3\nvalue = [3, 0]", fillcolor="#e58139"] ;
773 -> 774 ;
775 [label="brazil_ph_near_angle <= 112.57\ngini = 0.444\nsamples = 3\nvalue = [1, 2]", fillcolor="#9ccef2"] ;
773 -> 775 ;
776 [label="gini = 0.0\nsamples = 2\nvalue = [0, 2]", fillcolor="#399de5"] ;
775 -> 776 ;
777 [label="gini = 0.0\nsamples = 1\nvalue = [1, 0]", fillcolor="#e58139"] ;
775 -> 777 ;
778 [label="brazil_store_near_dist <= 2040.345\ngini = 0.245\nsamples = 14\nvalue = [12, 2]", fillcolor="#e9965a"] ;
768 -> 778 ;
779 [label="gini = 0.0\nsamples = 7\nvalue = [7, 0]", fillcolor="#e58139"] ;
778 -> 779 ;
780 [label="brazil_apartment_near_angle <= 54.253\ngini = 0.408\nsamples = 7\nvalue = [5, 2]", fillcolor="#efb388"] ;
778 -> 780 ;
781 [label="sao_paulo_apartment_near_angle <= -167.054\ngini = 0.5\nsamples = 2\nvalue = [1, 1]", fillcolor="#ffffff"] ;
780 -> 781 ;
782 [label="gini = 0.0\nsamples = 1\nvalue = [0, 1]", fillcolor="#399de5"] ;
781 -> 782 ;
783 [label="gini = 0.0\nsamples = 1\nvalue = [1, 0]", fillcolor="#e58139"] ;
781 -> 783 ;
784 [label="brazil_apartment_near_angle <= 147.208\ngini = 0.32\nsamples = 5\nvalue = [4, 1]", fillcolor="#eca06a"] ;
780 -> 784 ;
785 [label="gini = 0.0\nsamples = 4\nvalue = [4, 0]", fillcolor="#e58139"] ;
784 -> 785 ;
786 [label="gini = 0.0\nsamples = 1\nvalue = [0, 1]", fillcolor="#399de5"] ;
784 -> 786 ;
787 [label="brazil_apartment_near_angle <= -120.263\ngini = 0.337\nsamples = 336\nvalue = [264, 72]", fillcolor="#eca36f"] ;
759 -> 787 ;
788 [label="brazil_ph_near_angle <= 3.628\ngini = 0.245\nsamples = 56\nvalue = [48, 8]", fillcolor="#e9965a"] ;
787 -> 788 ;
789 [label="brazil_house_near_price <= 4137.744\ngini = 0.111\nsamples = 17\nvalue = [16, 1]", fillcolor="#e78945"] ;
788 -> 789 ;
790 [label="gini = 0.0\nsamples = 8\nvalue = [8, 0]", fillcolor="#e58139"] ;
789 -> 790 ;
791 [label="brazil_apartment_near_dist <= 2054.732\ngini = 0.198\nsamples = 9\nvalue = [8, 1]", fillcolor="#e89152"] ;
789 -> 791 ;
792 [label="gini = 0.0\nsamples = 2\nvalue = [2, 0]", fillcolor="#e58139"] ;
791 -> 792 ;
793 [label="brazil_store_near_dist <= 746.365\ngini = 0.245\nsamples = 7\nvalue = [6, 1]", fillcolor="#e9965a"] ;
791 -> 793 ;
794 [label="gini = 0.0\nsamples = 2\nvalue = [2, 0]", fillcolor="#e58139"] ;
793 -> 794 ;
795 [label="brazil_house_near_angle <= -39.156\ngini = 0.32\nsamples = 5\nvalue = [4, 1]", fillcolor="#eca06a"] ;
793 -> 795 ;
796 [label="gini = 0.0\nsamples = 2\nvalue = [2, 0]", fillcolor="#e58139"] ;
795 -> 796 ;
797 [label="population_estimate <= 365.801\ngini = 0.444\nsamples = 3\nvalue = [2, 1]", fillcolor="#f2c09c"] ;
795 -> 797 ;
798 [label="sao_paulo_apartment_near_dist <= 14.537\ngini = 0.5\nsamples = 2\nvalue = [1, 1]", fillcolor="#ffffff"] ;
797 -> 798 ;
799 [label="gini = 0.0\nsamples = 1\nvalue = [1, 0]", fillcolor="#e58139"] ;
798 -> 799 ;
800 [label="gini = 0.0\nsamples = 1\nvalue = [0, 1]", fillcolor="#399de5"] ;
798 -> 800 ;
801 [label="gini = 0.0\nsamples = 1\nvalue = [1, 0]", fillcolor="#e58139"] ;
797 -> 801 ;
802 [label="brazil_apartment_near_dist <= 1465.804\ngini = 0.295\nsamples = 39\nvalue = [32, 7]", fillcolor="#eb9d64"] ;
788 -> 802 ;
803 [label="brazil_apartment_near_angle <= -125.393\ngini = 0.234\nsamples = 37\nvalue = [32, 5]", fillcolor="#e99558"] ;
802 -> 803 ;
804 [label="brazil_apartment_near_price <= 1155.422\ngini = 0.213\nsamples = 33\nvalue = [29, 4]", fillcolor="#e99254"] ;
803 -> 804 ;
805 [label="brazil_house_near_angle <= 146.649\ngini = 0.32\nsamples = 15\nvalue = [12, 3]", fillcolor="#eca06a"] ;
804 -> 805 ;
806 [label="brazil_store_near_dist <= 1433.928\ngini = 0.245\nsamples = 14\nvalue = [12, 2]", fillcolor="#e9965a"] ;
805 -> 806 ;
807 [label="gini = 0.0\nsamples = 11\nvalue = [11, 0]", fillcolor="#e58139"] ;
806 -> 807 ;
808 [label="population_estimate <= 336.459\ngini = 0.444\nsamples = 3\nvalue = [1, 2]", fillcolor="#9ccef2"] ;
806 -> 808 ;
809 [label="gini = 0.0\nsamples = 2\nvalue = [0, 2]", fillcolor="#399de5"] ;
808 -> 809 ;
810 [label="gini = 0.0\nsamples = 1\nvalue = [1, 0]", fillcolor="#e58139"] ;
808 -> 810 ;
811 [label="gini = 0.0\nsamples = 1\nvalue = [0, 1]", fillcolor="#399de5"] ;
805 -> 811 ;
812 [label="brazil_house_near_dist <= 1099.76\ngini = 0.105\nsamples = 18\nvalue = [17, 1]", fillcolor="#e78845"] ;
804 -> 812 ;
813 [label="gini = 0.0\nsamples = 15\nvalue = [15, 0]", fillcolor="#e58139"] ;
812 -> 813 ;
814 [label="brazil_store_near_angle <= -58.69\ngini = 0.444\nsamples = 3\nvalue = [2, 1]", fillcolor="#f2c09c"] ;
812 -> 814 ;
815 [label="gini = 0.0\nsamples = 1\nvalue = [0, 1]", fillcolor="#399de5"] ;
814 -> 815 ;
816 [label="gini = 0.0\nsamples = 2\nvalue = [2, 0]", fillcolor="#e58139"] ;
814 -> 816 ;
817 [label="brazil_ph_near_angle <= 97.418\ngini = 0.375\nsamples = 4\nvalue = [3, 1]", fillcolor="#eeab7b"] ;
803 -> 817 ;
818 [label="brazil_store_near_dist <= 587.182\ngini = 0.5\nsamples = 2\nvalue = [1, 1]", fillcolor="#ffffff"] ;
817 -> 818 ;
819 [label="gini = 0.0\nsamples = 1\nvalue = [1, 0]", fillcolor="#e58139"] ;
818 -> 819 ;
820 [label="gini = 0.0\nsamples = 1\nvalue = [0, 1]", fillcolor="#399de5"] ;
818 -> 820 ;
821 [label="gini = 0.0\nsamples = 2\nvalue = [2, 0]", fillcolor="#e58139"] ;
817 -> 821 ;
822 [label="gini = 0.0\nsamples = 2\nvalue = [0, 2]", fillcolor="#399de5"] ;
802 -> 822 ;
823 [label="sao_paulo_apartment_near_dist <= 48.233\ngini = 0.353\nsamples = 280\nvalue = [216, 64]", fillcolor="#eda674"] ;
787 -> 823 ;
824 [label="brazil_store_near_angle <= -82.448\ngini = 0.28\nsamples = 113\nvalue = [94, 19]", fillcolor="#ea9a61"] ;
823 -> 824 ;
825 [label="brazil_ph_near_angle <= 106.652\ngini = 0.121\nsamples = 31\nvalue = [29, 2]", fillcolor="#e78a47"] ;
824 -> 825 ;
826 [label="gini = 0.0\nsamples = 18\nvalue = [18, 0]", fillcolor="#e58139"] ;
825 -> 826 ;
827 [label="brazil_ph_near_dist <= 7310.277\ngini = 0.26\nsamples = 13\nvalue = [11, 2]", fillcolor="#ea985d"] ;
825 -> 827 ;
828 [label="brazil_house_near_price <= 1604.69\ngini = 0.5\nsamples = 4\nvalue = [2, 2]", fillcolor="#ffffff"] ;
827 -> 828 ;
829 [label="gini = 0.0\nsamples = 2\nvalue = [0, 2]", fillcolor="#399de5"] ;
828 -> 829 ;
830 [label="gini = 0.0\nsamples = 2\nvalue = [2, 0]", fillcolor="#e58139"] ;
828 -> 830 ;
831 [label="gini = 0.0\nsamples = 9\nvalue = [9, 0]", fillcolor="#e58139"] ;
827 -> 831 ;
832 [label="brazil_apartment_near_price <= 6556.658\ngini = 0.329\nsamples = 82\nvalue = [65, 17]", fillcolor="#eca26d"] ;
824 -> 832 ;
833 [label="brazil_store_near_price <= 78597.912\ngini = 0.323\nsamples = 79\nvalue = [63, 16]", fillcolor="#eca16b"] ;
832 -> 833 ;
834 [label="brazil_ph_near_price <= 12157.94\ngini = 0.317\nsamples = 76\nvalue = [61, 15]", fillcolor="#eba06a"] ;
833 -> 834 ;
835 [label="brazil_apartment_near_dist <= 1120.031\ngini = 0.34\nsamples = 69\nvalue = [54, 15]", fillcolor="#eca470"] ;
834 -> 835 ;
836 [label="brazil_store_near_angle <= -69.696\ngini = 0.273\nsamples = 49\nvalue = [41, 8]", fillcolor="#ea9a60"] ;
835 -> 836 ;
837 [label="brazil_ph_near_dist <= 7397.904\ngini = 0.5\nsamples = 2\nvalue = [1, 1]", fillcolor="#ffffff"] ;
836 -> 837 ;
838 [label="gini = 0.0\nsamples = 1\nvalue = [1, 0]", fillcolor="#e58139"] ;
837 -> 838 ;
839 [label="gini = 0.0\nsamples = 1\nvalue = [0, 1]", fillcolor="#399de5"] ;
837 -> 839 ;
840 [label="sao_paulo_apartment_near_angle <= -114.549\ngini = 0.254\nsamples = 47\nvalue = [40, 7]", fillcolor="#ea975c"] ;
836 -> 840 ;
841 [label="sao_paulo_apartment_near_dist <= 11.182\ngini = 0.363\nsamples = 21\nvalue = [16, 5]", fillcolor="#eda877"] ;
840 -> 841 ;
842 [label="brazil_store_near_dist <= 279.602\ngini = 0.48\nsamples = 10\nvalue = [6, 4]", fillcolor="#f6d5bd"] ;
841 -> 842 ;
843 [label="gini = 0.0\nsamples = 2\nvalue = [0, 2]", fillcolor="#399de5"] ;
842 -> 843 ;
844 [label="brazil_store_near_dist <= 1221.149\ngini = 0.375\nsamples = 8\nvalue = [6, 2]", fillcolor="#eeab7b"] ;
842 -> 844 ;
845 [label="brazil_store_near_price <= 2909.732\ngini = 0.444\nsamples = 3\nvalue = [1, 2]", fillcolor="#9ccef2"] ;
844 -> 845 ;
846 [label="brazil_apartment_near_angle <= -99.877\ngini = 0.5\nsamples = 2\nvalue = [1, 1]", fillcolor="#ffffff"] ;
845 -> 846 ;
847 [label="gini = 0.0\nsamples = 1\nvalue = [1, 0]", fillcolor="#e58139"] ;
846 -> 847 ;
848 [label="gini = 0.0\nsamples = 1\nvalue = [0, 1]", fillcolor="#399de5"] ;
846 -> 848 ;
849 [label="gini = 0.0\nsamples = 1\nvalue = [0, 1]", fillcolor="#399de5"] ;
845 -> 849 ;
850 [label="gini = 0.0\nsamples = 5\nvalue = [5, 0]", fillcolor="#e58139"] ;
844 -> 850 ;
851 [label="sao_paulo_apartment_near_price <= 247483.919\ngini = 0.165\nsamples = 11\nvalue = [10, 1]", fillcolor="#e88e4d"] ;
841 -> 851 ;
852 [label="brazil_store_near_angle <= 82.938\ngini = 0.198\nsamples = 9\nvalue = [8, 1]", fillcolor="#e89152"] ;
851 -> 852 ;
853 [label="brazil_house_near_price <= 3155.845\ngini = 0.444\nsamples = 3\nvalue = [2, 1]", fillcolor="#f2c09c"] ;
852 -> 853 ;
854 [label="brazil_ph_near_angle <= -156.107\ngini = 0.5\nsamples = 2\nvalue = [1, 1]", fillcolor="#ffffff"] ;
853 -> 854 ;
855 [label="gini = 0.0\nsamples = 1\nvalue = [0, 1]", fillcolor="#399de5"] ;
854 -> 855 ;
856 [label="gini = 0.0\nsamples = 1\nvalue = [1, 0]", fillcolor="#e58139"] ;
854 -> 856 ;
857 [label="gini = 0.0\nsamples = 1\nvalue = [1, 0]", fillcolor="#e58139"] ;
853 -> 857 ;
858 [label="gini = 0.0\nsamples = 6\nvalue = [6, 0]", fillcolor="#e58139"] ;
852 -> 858 ;
859 [label="gini = 0.0\nsamples = 2\nvalue = [2, 0]", fillcolor="#e58139"] ;
851 -> 859 ;
860 [label="sao_paulo_apartment_near_dist <= 10.851\ngini = 0.142\nsamples = 26\nvalue = [24, 2]", fillcolor="#e78c49"] ;
840 -> 860 ;
861 [label="sao_paulo_apartment_near_price <= 253457.901\ngini = 0.219\nsamples = 16\nvalue = [14, 2]", fillcolor="#e99355"] ;
860 -> 861 ;
862 [label="brazil_store_near_price <= 6076.387\ngini = 0.245\nsamples = 14\nvalue = [12, 2]", fillcolor="#e9965a"] ;
861 -> 862 ;
863 [label="brazil_house_near_price <= 2373.253\ngini = 0.298\nsamples = 11\nvalue = [9, 2]", fillcolor="#eb9d65"] ;
862 -> 863 ;
864 [label="brazil_ph_near_dist <= 9257.126\ngini = 0.32\nsamples = 10\nvalue = [8, 2]", fillcolor="#eca06a"] ;
863 -> 864 ;
865 [label="sao_paulo_apartment_near_angle <= -93.886\ngini = 0.219\nsamples = 8\nvalue = [7, 1]", fillcolor="#e99355"] ;
864 -> 865 ;
866 [label="brazil_apartment_near_price <= 1124.064\ngini = 0.375\nsamples = 4\nvalue = [3, 1]", fillcolor="#eeab7b"] ;
865 -> 866 ;
867 [label="brazil_house_near_dist <= 156.142\ngini = 0.5\nsamples = 2\nvalue = [1, 1]", fillcolor="#ffffff"] ;
866 -> 867 ;
868 [label="gini = 0.0\nsamples = 1\nvalue = [1, 0]", fillcolor="#e58139"] ;
867 -> 868 ;
869 [label="gini = 0.0\nsamples = 1\nvalue = [0, 1]", fillcolor="#399de5"] ;
867 -> 869 ;
870 [label="gini = 0.0\nsamples = 2\nvalue = [2, 0]", fillcolor="#e58139"] ;
866 -> 870 ;
871 [label="gini = 0.0\nsamples = 4\nvalue = [4, 0]", fillcolor="#e58139"] ;
865 -> 871 ;
872 [label="brazil_ph_near_angle <= 116.177\ngini = 0.5\nsamples = 2\nvalue = [1, 1]", fillcolor="#ffffff"] ;
864 -> 872 ;
873 [label="gini = 0.0\nsamples = 1\nvalue = [0, 1]", fillcolor="#399de5"] ;
872 -> 873 ;
874 [label="gini = 0.0\nsamples = 1\nvalue = [1, 0]", fillcolor="#e58139"] ;
872 -> 874 ;
875 [label="gini = 0.0\nsamples = 1\nvalue = [1, 0]", fillcolor="#e58139"] ;
863 -> 875 ;
876 [label="gini = 0.0\nsamples = 3\nvalue = [3, 0]", fillcolor="#e58139"] ;
862 -> 876 ;
877 [label="gini = 0.0\nsamples = 2\nvalue = [2, 0]", fillcolor="#e58139"] ;
861 -> 877 ;
878 [label="gini = 0.0\nsamples = 10\nvalue = [10, 0]", fillcolor="#e58139"] ;
860 -> 878 ;
879 [label="brazil_house_near_angle <= 76.531\ngini = 0.455\nsamples = 20\nvalue = [13, 7]", fillcolor="#f3c5a4"] ;
835 -> 879 ;
880 [label="population_estimate <= 194.989\ngini = 0.465\nsamples = 19\nvalue = [12, 7]", fillcolor="#f4caac"] ;
879 -> 880 ;
881 [label="gini = 0.0\nsamples = 1\nvalue = [0, 1]", fillcolor="#399de5"] ;
880 -> 881 ;
882 [label="brazil_house_near_angle <= -39.136\ngini = 0.444\nsamples = 18\nvalue = [12, 6]", fillcolor="#f2c09c"] ;
880 -> 882 ;
883 [label="brazil_ph_near_price <= 2603.412\ngini = 0.42\nsamples = 10\nvalue = [7, 3]", fillcolor="#f0b78e"] ;
882 -> 883 ;
884 [label="brazil_apartment_near_dist <= 2067.549\ngini = 0.444\nsamples = 9\nvalue = [6, 3]", fillcolor="#f2c09c"] ;
883 -> 884 ;
885 [label="brazil_ph_near_angle <= -83.707\ngini = 0.245\nsamples = 7\nvalue = [6, 1]", fillcolor="#e9965a"] ;
884 -> 885 ;
886 [label="gini = 0.0\nsamples = 2\nvalue = [2, 0]", fillcolor="#e58139"] ;
885 -> 886 ;
887 [label="sao_paulo_apartment_near_angle <= -113.463\ngini = 0.32\nsamples = 5\nvalue = [4, 1]", fillcolor="#eca06a"] ;
885 -> 887 ;
888 [label="gini = 0.0\nsamples = 2\nvalue = [2, 0]", fillcolor="#e58139"] ;
887 -> 888 ;
889 [label="brazil_apartment_near_angle <= 21.58\ngini = 0.444\nsamples = 3\nvalue = [2, 1]", fillcolor="#f2c09c"] ;
887 -> 889 ;
890 [label="gini = 0.0\nsamples = 1\nvalue = [1, 0]", fillcolor="#e58139"] ;
889 -> 890 ;
891 [label="sao_paulo_apartment_near_price <= 112310.186\ngini = 0.5\nsamples = 2\nvalue = [1, 1]", fillcolor="#ffffff"] ;
889 -> 891 ;
892 [label="gini = 0.0\nsamples = 1\nvalue = [0, 1]", fillcolor="#399de5"] ;
891 -> 892 ;
893 [label="gini = 0.0\nsamples = 1\nvalue = [1, 0]", fillcolor="#e58139"] ;
891 -> 893 ;
894 [label="gini = 0.0\nsamples = 2\nvalue = [0, 2]", fillcolor="#399de5"] ;
884 -> 894 ;
895 [label="gini = 0.0\nsamples = 1\nvalue = [1, 0]", fillcolor="#e58139"] ;
883 -> 895 ;
896 [label="brazil_ph_near_dist <= 10611.194\ngini = 0.469\nsamples = 8\nvalue = [5, 3]", fillcolor="#f5cdb0"] ;
882 -> 896 ;
897 [label="population_estimate <= 609.555\ngini = 0.49\nsamples = 7\nvalue = [4, 3]", fillcolor="#f8e0ce"] ;
896 -> 897 ;
898 [label="gini = 0.0\nsamples = 4\nvalue = [4, 0]", fillcolor="#e58139"] ;
897 -> 898 ;
899 [label="gini = 0.0\nsamples = 3\nvalue = [0, 3]", fillcolor="#399de5"] ;
897 -> 899 ;
900 [label="gini = 0.0\nsamples = 1\nvalue = [1, 0]", fillcolor="#e58139"] ;
896 -> 900 ;
901 [label="gini = 0.0\nsamples = 1\nvalue = [1, 0]", fillcolor="#e58139"] ;
879 -> 901 ;
902 [label="gini = 0.0\nsamples = 7\nvalue = [7, 0]", fillcolor="#e58139"] ;
834 -> 902 ;
903 [label="sao_paulo_apartment_near_angle <= -115.013\ngini = 0.444\nsamples = 3\nvalue = [2, 1]", fillcolor="#f2c09c"] ;
833 -> 903 ;
904 [label="gini = 0.0\nsamples = 1\nvalue = [1, 0]", fillcolor="#e58139"] ;
903 -> 904 ;
905 [label="brazil_store_near_dist <= 2857.182\ngini = 0.5\nsamples = 2\nvalue = [1, 1]", fillcolor="#ffffff"] ;
903 -> 905 ;
906 [label="gini = 0.0\nsamples = 1\nvalue = [1, 0]", fillcolor="#e58139"] ;
905 -> 906 ;
907 [label="gini = 0.0\nsamples = 1\nvalue = [0, 1]", fillcolor="#399de5"] ;
905 -> 907 ;
